%YAML:1.0
---
opencv_ml_svm:
   format: 3
   svmType: C_SVC
   kernel:
      type: LINEAR
   C: 1.2500000000000000e+01
   term_criteria: { epsilon:1.1920928955078125e-07, iterations:1000 }
   var_count: 2160
   class_count: 2
   class_labels: !!opencv-matrix
      rows: 2
      cols: 1
      dt: i
      data: [ 0, 4 ]
   sv_total: 1
   support_vectors:
      - [ -4.13862094e-02, -2.09226310e-02, -3.81644927e-02,
          -2.15648059e-02, -6.12099841e-02, -1.91685185e-02,
          -3.56680527e-02, -2.66814772e-02, -3.75151560e-02,
          6.39778329e-03, -1.15101032e-01, -9.47289765e-02,
          -3.28883380e-02, -8.88799801e-02, -2.44963337e-02,
          -4.25477475e-02, -3.15412879e-02, -3.36414762e-02,
          2.08292782e-01, -1.53773844e-01, -7.60170519e-02,
          -3.86499763e-02, -3.42788845e-02, -8.07823520e-03,
          -1.80107560e-02, -4.62242961e-02, 4.63293903e-02,
          6.08837791e-02, -5.53024188e-02, -2.58345194e-02,
          -1.28163612e-02, -1.10747349e-02, 1.62061863e-03,
          -2.01121252e-03, -1.96667024e-04, 2.07941294e-01,
          -9.26803127e-02, -9.54206213e-02, -3.04618418e-01,
          -1.48084506e-01, -2.95439456e-02, -4.18342650e-02,
          -1.43201984e-02, 6.88344473e-04, 4.99262381e-03,
          -4.14107502e-01, -1.86462864e-01, -3.33492309e-01,
          -2.86449879e-01, 3.68456878e-02, -9.80782434e-02,
          1.14327535e-01, 4.34417836e-02, 2.49914732e-02,
          -8.69765505e-02, -5.68028390e-01, -3.29981863e-01,
          -3.48096013e-01, -2.24115141e-02, -1.94538057e-01,
          1.65644754e-02, -3.96275371e-02, -1.90147370e-01,
          -2.14563549e-01, -1.32505208e-01, -6.23735748e-02,
          -7.58000687e-02, 7.15363249e-02, -2.24197954e-02,
          -3.61725800e-02, -1.45214051e-01, -2.18884736e-01,
          7.36936480e-02, -9.45350304e-02, -4.91154976e-02,
          -1.70608342e-01, -2.61960328e-02, -1.21822007e-01,
          6.64981781e-03, 2.48445626e-02, 1.10583216e-01, 2.29981184e-01,
          -1.38517931e-01, -4.36489850e-01, -3.47869337e-01,
          7.98065122e-03, 7.92443603e-02, 3.94314915e-01, 4.01381493e-01,
          3.07033598e-01, 4.85804081e-02, -1.64246783e-01,
          -3.22081387e-01, -3.07362914e-01, 1.31654367e-01,
          -1.48551464e-01, -1.29019484e-01, -1.18147396e-02,
          5.46413399e-02, -7.69742727e-02, -1.10464081e-01,
          -1.28948376e-01, -1.34638682e-01, -9.23207402e-02,
          -1.14506565e-01, -6.51528686e-02, -1.96720675e-01,
          -1.79394737e-01, 3.13667697e-03, 1.96669083e-02,
          3.64310481e-03, -1.74427088e-02, -3.23943496e-02,
          -1.05474830e-01, -1.06814459e-01, -8.07328448e-02,
          -4.13412414e-02, 2.62750626e-01, 2.81702518e-01,
          2.73316145e-01, 2.05928653e-01, 1.75093368e-01, 1.21469371e-01,
          1.23832576e-01, 1.25796795e-01, 1.64528668e-01, 5.72806120e-01,
          4.25072700e-01, 2.81778872e-01, 2.34018236e-01, 1.76980823e-01,
          1.71015203e-01, 2.33011782e-01, 3.42721045e-01, 4.76015002e-01,
          7.64038265e-02, -1.49254315e-03, -1.75069813e-02,
          1.48657979e-02, 3.34785432e-02, 2.96516567e-02, 5.14318570e-02,
          2.56114639e-02, 8.36505070e-02, -2.39437018e-02,
          -8.09360072e-02, -4.79502976e-02, -1.75733268e-02,
          -3.74400504e-02, -1.24024116e-02, -1.92650370e-02,
          -1.76086761e-02, -2.35553216e-02, 1.36216193e-01,
          -2.01052606e-01, -1.02897115e-01, -6.03536218e-02,
          -5.17041683e-02, -1.92871951e-02, -3.45686749e-02,
          -8.02735537e-02, -9.04711708e-03, 1.77032966e-02,
          -1.38133854e-01, -7.20895678e-02, -3.93640548e-02,
          -5.43294661e-02, -1.83196459e-02, -3.27438042e-02,
          -2.43704114e-02, 2.58696824e-01, -9.38075874e-03,
          -2.21353341e-02, -2.02128142e-02, -1.19246757e-02,
          -3.67679298e-02, -2.10917846e-04, -8.83650035e-03,
          5.19377477e-02, 1.28218576e-01, -1.05791323e-01,
          -1.83880448e-01, -1.23756960e-01, -1.34215936e-01,
          -1.92922577e-02, -6.26344904e-02, 2.87709814e-02,
          -2.28740647e-03, -1.57053228e-02, -1.76909849e-01,
          -4.79590982e-01, -3.84739667e-01, -3.65957230e-01,
          -4.23335992e-02, -1.77702516e-01, -2.58403867e-02,
          -1.17101140e-01, -2.65526980e-01, -3.69062454e-01,
          -1.94834962e-01, -9.22368746e-03, -1.27332062e-01,
          7.06141293e-02, -1.00741304e-01, -1.05434120e-01,
          -3.04017514e-01, -2.20708981e-01, 6.30162135e-02,
          1.72648683e-01, 1.46454036e-01, 5.75490855e-03,
          -4.28352095e-02, -2.87671611e-02, -4.11082953e-02,
          1.18927751e-02, 7.28241354e-02, 1.26583502e-01, 3.98270823e-02,
          -5.46399914e-02, -1.16182946e-01, 2.53284648e-02,
          5.26525378e-02, 1.67713270e-01, 1.94798976e-01, 1.45178929e-01,
          1.77933257e-02, -1.12461828e-01, -3.39304566e-01,
          -3.14674407e-01, 5.45194522e-02, -1.88472703e-01,
          -1.86930612e-01, -1.01567753e-01, -1.07312486e-01,
          -8.73151496e-02, -1.09346360e-01, -1.13409683e-01,
          -2.04942718e-01, -9.67654809e-02, -1.93678573e-01,
          -2.14795605e-03, -2.63043612e-01, -1.20771371e-01,
          3.14232968e-02, 1.47628203e-01, 5.00946790e-02,
          -2.50487048e-02, -2.46204734e-02, -5.66632897e-02,
          -2.80477721e-02, -4.47255224e-02, 8.08048546e-02,
          1.28520146e-01, 1.41517505e-01, 1.45112872e-01, 1.10083550e-01,
          7.71931186e-02, 5.37515022e-02, 6.49473891e-02, 7.98864067e-02,
          9.01419669e-02, 5.24185777e-01, 3.74150306e-01, 2.23527774e-01,
          1.88341200e-01, 1.57305881e-01, 1.60280511e-01, 2.16273293e-01,
          3.07926089e-01, 4.42409396e-01, 1.57926485e-01, 1.61178987e-02,
          -1.26879057e-02, 5.18077724e-02, 6.24695085e-02,
          1.09508641e-01, 2.07172751e-01, 1.26185238e-01, 2.28207707e-01,
          2.74028182e-02, 1.50237046e-02, 2.50093229e-02, 3.56618799e-02,
          3.23047638e-02, 1.10367440e-01, 2.27899596e-01, 8.30707923e-02,
          9.78315771e-02, -8.27070475e-02, -9.65602472e-02,
          -5.05498685e-02, -3.11886668e-02, -2.84996200e-02,
          -1.13225887e-02, -2.18431111e-02, -4.84392755e-02,
          -5.05798608e-02, -1.18461572e-01, -1.37576714e-01,
          -7.96762854e-02, -4.52495068e-02, -8.05639625e-02,
          -4.13224846e-02, -7.21385852e-02, -8.68759602e-02,
          2.73098290e-01, -8.65861326e-02, -6.78912327e-02,
          -6.49278313e-02, -4.10460159e-02, -1.17179044e-01,
          -3.61178219e-02, -9.13721621e-02, -1.43704889e-02,
          2.58523896e-02, -4.96760532e-02, -3.40958275e-02,
          -3.88287194e-02, -2.21111774e-02, -7.42523074e-02,
          -2.73801349e-02, -5.06003238e-02, -4.08316143e-02,
          -6.29728064e-02, -2.83020616e-01, -2.31870577e-01,
          -1.93074748e-01, -1.57803178e-01, -3.44216190e-02,
          -7.28456527e-02, -5.90506941e-02, -1.22868754e-01,
          -2.08698750e-01, -3.75526100e-01, -1.54279947e-01,
          6.43556416e-02, -1.08891249e-01, -7.39606991e-02,
          -1.78275764e-01, -2.00578153e-01, -4.49356437e-01,
          -1.32750884e-01, 1.46701001e-02, 3.27516466e-01,
          2.35301167e-01, -4.35052365e-02, -1.77797019e-01,
          -1.30001545e-01, -5.35404503e-01, -2.16980934e-01,
          -5.08680642e-01, -7.61964126e-03, -6.49512839e-03,
          -1.98673308e-02, -7.92437568e-02, -9.29327533e-02,
          1.23117492e-02, -6.31089509e-02, 1.69404186e-02,
          -3.23827155e-02, 8.28689802e-03, -2.14889683e-02,
          -1.56190947e-01, -1.34646326e-01, -5.02884686e-02,
          -8.57644007e-02, -1.13958716e-01, -8.86408091e-02,
          -5.30029610e-02, -1.18812077e-01, -8.06518868e-02,
          -2.89714546e-04, -1.31540909e-01, -1.41592503e-01,
          -1.71065494e-01, 1.02124875e-02, -2.41017312e-01,
          -2.07073748e-01, -9.37486514e-02, 2.15079650e-01,
          3.89893241e-02, -6.61577061e-02, 2.66705435e-02,
          -8.37903991e-02, -3.36236805e-01, -2.28670016e-02,
          3.34907770e-02, -3.67825143e-02, -4.11723554e-02,
          -6.45210147e-02, -9.66435075e-02, 2.90497784e-02,
          2.53902882e-01, -6.94131926e-02, 4.86618765e-02,
          1.61972046e-02, 2.28688776e-01, 1.58287436e-01, 7.93676823e-02,
          6.86016381e-02, 6.07303530e-02, 8.33859742e-02, 1.09170377e-01,
          1.47790164e-01, 2.07921252e-01, 1.33914292e-01, 1.37258563e-02,
          -1.99115388e-02, 3.52145657e-02, -5.84185682e-03,
          1.49672225e-01, 2.93210626e-01, 1.82165682e-01, 2.71819055e-01,
          -2.50684726e-03, 7.97283428e-04, 5.09798080e-02,
          7.70015344e-02, 4.15396802e-02, 2.34028950e-01, 4.76751983e-01,
          1.43135086e-01, 1.42926410e-01, -1.21396696e-02,
          3.61605994e-02, 6.64711520e-02, 6.74554482e-02, 2.96238344e-02,
          5.25587499e-02, -2.58507933e-02, 3.37834731e-02,
          -3.29815713e-03, -2.58605070e-02, -1.73877612e-01,
          -1.61348253e-01, -6.67792782e-02, 5.57884108e-03,
          -2.15892568e-02, -1.03501603e-03, 4.95521491e-03,
          1.65939592e-02, -1.37642637e-01, -4.86844689e-01,
          -1.52300730e-01, -1.57772034e-01, 1.91403255e-02,
          -8.38543400e-02, 5.76286949e-03, -2.67454255e-02,
          -1.03016933e-02, -4.61248547e-01, -2.85813928e-01,
          -2.05154389e-01, -2.17650503e-01, -5.62781915e-02,
          -1.50177240e-01, -5.37417755e-02, -6.69114664e-02,
          -1.21766470e-01, -1.34573132e-01, -7.76302665e-02,
          -4.86925617e-02, -6.28731847e-02, 5.85859129e-03,
          -4.33896743e-02, -4.87251915e-02, -1.04956202e-01,
          -1.70200899e-01, 5.47249131e-02, -1.12502068e-01,
          -2.35002190e-01, -1.95838362e-01, -4.08810005e-02,
          -1.74875945e-01, -3.64852175e-02, -2.06115935e-02,
          6.05883300e-02, 9.98606682e-02, -1.97580352e-01,
          -3.23225945e-01, -5.47249436e-01, -2.24546090e-01,
          -6.84179962e-02, 3.05997342e-01, 2.83841610e-01,
          1.68024316e-01, 1.62266433e-01, -1.47459820e-01,
          -4.59782064e-01, -4.66724426e-01, -2.34132066e-01,
          -3.31044704e-01, -2.69839346e-01, -1.12092607e-01,
          3.37540582e-02, -9.75470096e-02, -2.00660542e-01,
          -2.24647269e-01, -1.99213579e-01, -1.30673736e-01,
          -1.87724173e-01, -1.22762799e-01, -2.48157859e-01,
          -1.90110579e-01, -6.12727366e-02, -1.82756688e-02,
          -8.03492963e-02, -1.52586520e-01, -8.44347700e-02,
          -3.15486819e-01, -3.26364070e-01, -2.81779915e-01,
          -1.70656800e-01, 2.39542738e-01, 3.75375077e-02,
          -1.70009866e-01, 1.52666539e-01, 1.44813389e-01,
          7.67812207e-02, 3.78295705e-02, -1.02575473e-01,
          4.80918922e-02, 4.94598895e-01, 2.39125580e-01, 2.79690892e-01,
          2.51486868e-01, 2.60645032e-01, 1.25826687e-01, 2.02154174e-01,
          2.60841668e-01, 4.23883945e-01, 2.89765559e-02,
          -8.64445120e-02, -8.29511583e-02, -2.20846012e-02,
          7.94791877e-02, 1.09463092e-03, 4.08987030e-02,
          -1.16135078e-02, 5.79038002e-02, 3.23639885e-02,
          6.93559274e-02, 1.52315199e-01, 5.48568703e-02, 8.83076787e-02,
          9.56539065e-03, -4.34056669e-02, -4.54023406e-02,
          -2.32700561e-03, 2.59064529e-02, 1.68330967e-02,
          1.52690843e-01, 1.51919693e-01, 2.74846375e-01, 2.28461832e-01,
          1.83798820e-01, 9.00882110e-02, 2.22959071e-02, 1.32254511e-01,
          -1.28617231e-02, 1.41824828e-02, 5.80377653e-02,
          1.54140919e-01, 1.26575559e-01, 2.34044716e-01, 2.30176017e-01,
          1.91842660e-01, 4.17295396e-02, 2.20876597e-02, 1.12247113e-02,
          1.29790781e-02, 6.25691265e-02, 3.75624560e-02, 6.55112714e-02,
          8.22894424e-02, 6.49541616e-02, -5.51276281e-02,
          -7.37793669e-02, -6.28898889e-02, -8.02521929e-02,
          -2.50850655e-02, -4.84917089e-02, -1.01845954e-02,
          -2.31291521e-02, -2.15161964e-02, -4.24906939e-01,
          -2.57717848e-01, -2.42422685e-01, -2.33632192e-01,
          -8.49595815e-02, -1.48617789e-01, -7.67885298e-02,
          -1.07128173e-01, -1.55799627e-01, -2.02398479e-01,
          -1.23118520e-01, -5.18396683e-02, -1.23973638e-01,
          -3.58395278e-02, -1.18463196e-01, -1.23517103e-01,
          -2.36099303e-01, -4.27148610e-01, 1.30409785e-02,
          7.58358240e-02, 4.63345908e-02, -2.37000715e-02,
          -3.65615562e-02, -4.09482308e-02, -4.26991135e-02,
          -3.53747793e-02, 8.43136292e-03, 6.21866062e-02,
          -7.53052756e-02, -1.68010399e-01, -2.15362191e-01,
          -3.71300876e-02, -1.56647619e-02, 1.31213605e-01,
          1.50302991e-01, 8.68538618e-02, 9.37355086e-02,
          -2.13350669e-01, -4.89241898e-01, -4.76253986e-01,
          -2.21959502e-01, -3.79323930e-01, -3.38227183e-01,
          -2.23510832e-01, -1.16269305e-01, -1.81727320e-01,
          -3.04649562e-01, -3.70606005e-01, -3.87143493e-01,
          -3.57532203e-01, -3.71252000e-01, -1.27161339e-01,
          -3.00126016e-01, -1.49084955e-01, -2.74000186e-02,
          2.46626306e-02, -2.77603082e-02, -7.66775012e-02,
          -5.76086938e-02, -9.64965075e-02, -4.11222279e-02,
          -7.61778727e-02, 6.10883608e-02, 1.30564690e-01,
          1.43954784e-01, 2.36125231e-01, 1.92057952e-01, 1.36225119e-01,
          4.18616347e-02, 3.70660238e-02, 1.24982931e-02, 5.82311526e-02,
          4.64559019e-01, 1.92431569e-01, 1.72740340e-01, 1.73964575e-01,
          2.38915294e-01, 1.32758543e-01, 2.18061835e-01, 2.78763175e-01,
          3.97093862e-01, 9.37072188e-02, -1.22047156e-01,
          -1.23489060e-01, 3.99493007e-03, -7.55302981e-02,
          6.48259223e-02, 2.36170173e-01, 2.09392563e-01, 2.35254586e-01,
          3.60674076e-02, 1.00131743e-02, 2.56583244e-02, 3.48145850e-02,
          4.55482341e-02, 1.39634803e-01, 4.01703179e-01, 1.10414356e-01,
          1.42762840e-01, 3.15459003e-03, -1.69878565e-02,
          2.88516637e-02, 5.27414046e-02, 9.43788067e-02, 8.48598406e-02,
          8.10559317e-02, 6.28984123e-02, 1.99692715e-02, 1.33959189e-01,
          5.98049210e-03, 1.76146626e-02, 4.15466093e-02, 1.16088487e-01,
          1.13118604e-01, 2.14844897e-01, 2.21312821e-01, 1.90365523e-01,
          1.08280815e-01, 6.65017366e-02, 1.60907414e-02, 1.18540097e-02,
          9.08492431e-02, 7.29695931e-02, 1.39266983e-01, 2.04279378e-01,
          1.59778759e-01, 5.31462319e-02, 4.29885983e-02,
          -4.55571775e-04, 3.11274622e-02, 5.54780811e-02,
          4.41261567e-02, 3.33271287e-02, 4.88430373e-02, 5.67794740e-02,
          -1.22863479e-01, -1.12116322e-01, -1.06737480e-01,
          -9.10392776e-02, -3.46973054e-02, -5.24400435e-02,
          -4.43762839e-02, -6.79976717e-02, -1.02294564e-01,
          -1.78755164e-01, -6.06643073e-02, 1.27798468e-02,
          -9.10753906e-02, -7.86715150e-02, -1.28464878e-01,
          -1.36646241e-01, -2.44937256e-01, -4.09729153e-01,
          1.38876224e-02, 1.76445186e-01, 9.00371745e-02,
          -5.78928590e-02, -1.03417605e-01, -9.42710564e-02,
          -1.85584530e-01, -4.18700188e-01, -5.97605966e-02,
          9.04079620e-03, -9.93471942e-04, -9.73210298e-03,
          -4.56106961e-02, -2.91503686e-02, 3.44344862e-02,
          1.02240872e-02, 1.89961502e-04, 1.79488882e-02, 4.83534001e-02,
          -2.90214997e-02, -1.93036199e-01, -1.78523421e-01,
          -1.07996322e-01, -1.47671178e-01, -1.46446049e-01,
          -1.10511720e-01, -4.03474197e-02, -2.79105175e-02,
          -1.39686540e-01, -2.35983357e-01, -3.09534281e-01,
          -4.12409186e-01, -3.15672725e-01, -4.04421128e-02,
          -2.27032676e-01, -4.66513410e-02, -1.64836809e-01,
          3.88974731e-04, -1.01228051e-01, -1.73538536e-01,
          -1.75198346e-01, -1.73462048e-01, -2.05509663e-01,
          -2.19440520e-01, 2.60587875e-02, -5.71536273e-02,
          -5.37092052e-02, -7.18415082e-02, -9.73394811e-02,
          2.89503988e-02, 2.01696664e-01, -2.10960120e-01,
          7.18476921e-02, -5.59411570e-03, 2.31427163e-01,
          1.34547576e-01, 5.32304868e-02, 5.12053184e-02, 6.74833581e-02,
          8.50683004e-02, 1.31331503e-01, 1.61054760e-01, 2.31874153e-01,
          9.19640511e-02, -9.35218111e-02, -1.19308628e-01,
          -1.89783853e-02, -5.37480004e-02, 1.27827615e-01,
          2.27613658e-01, 1.96596190e-01, 2.73577482e-01,
          -5.39853275e-02, -5.96052557e-02, -4.83711157e-03,
          2.29250896e-03, -1.66424572e-01, 2.55885959e-01,
          1.55932242e-02, 2.08240971e-01, 1.95857018e-01,
          -1.28335282e-02, 6.10715076e-02, 6.02687821e-02,
          4.07701433e-02, -1.86116397e-02, -2.29428941e-03,
          -1.16954580e-01, 3.67931910e-02, 3.75865377e-03,
          4.00872193e-02, -3.63411877e-04, 1.08856172e-03,
          7.22765317e-03, 2.63034962e-02, 4.67884429e-02, 8.30195248e-02,
          8.26606750e-02, 6.54144362e-02, 7.55486116e-02, 5.09807132e-02,
          -1.33777941e-02, -2.09046565e-02, 8.83564074e-03,
          4.53170724e-02, 9.83443707e-02, 1.68431774e-01, 1.20342165e-01,
          8.67098570e-02, 5.72600104e-02, -1.03313081e-01,
          -7.22648064e-03, 5.44717424e-02, 8.56235325e-02,
          9.24207941e-02, 1.20589174e-01, 1.07004389e-01, 9.93065983e-02,
          7.75187975e-03, -1.27342463e-01, -5.13026267e-02,
          1.05153685e-02, 2.04505920e-02, 5.84105588e-02, 1.06012061e-01,
          1.31210431e-01, -1.93340369e-02, -8.73518661e-02,
          -1.71507329e-01, -1.59258679e-01, -7.87445158e-02,
          -1.04502350e-01, -5.72723337e-02, -5.34725636e-02,
          -2.75263656e-02, -6.06388301e-02, -2.46340841e-01,
          -3.52936566e-01, -3.34047139e-01, -1.34316891e-01,
          -1.07230067e-01, 4.33276556e-02, 4.22919430e-02,
          -4.14129607e-02, 8.15143213e-02, -1.21534944e-01,
          -2.97284037e-01, -2.84255564e-01, -1.77447841e-01,
          -2.20852584e-01, -2.11230189e-01, -1.26663461e-01,
          -4.99559678e-02, -8.35670531e-02, -1.53016746e-01,
          -1.65190697e-01, -1.27780765e-01, -1.12917125e-01,
          -1.25772193e-01, -1.15430735e-01, -1.79181397e-01,
          -1.26620620e-01, -2.01686487e-01, -1.12034269e-01,
          -1.87937140e-01, -3.35749000e-01, -2.72504479e-01,
          -3.91178697e-01, -4.17745650e-01, -4.01748836e-01,
          -3.17396134e-01, -1.50900617e-01, -2.83283889e-01,
          -4.75823909e-01, -1.56401861e-02, -5.35298651e-03,
          -8.91042352e-02, -1.85872152e-01, -4.32707518e-01,
          -3.23693573e-01, -1.35657517e-02, -2.15497494e-01,
          -3.90561894e-02, -3.86071950e-02, 2.79914085e-02,
          -8.54621083e-02, -7.51384646e-02, -1.07083440e-01,
          1.01245670e-02, -1.72504619e-01, -2.39318907e-01,
          -2.16475174e-01, -1.53342739e-01, -6.65007830e-02,
          -1.06174327e-01, -7.98987448e-02, -1.44658968e-01,
          -1.25033021e-01, -2.86870543e-03, 5.20063639e-02,
          2.70669460e-01, 8.69057775e-02, 2.08154693e-02,
          -8.12069997e-02, -1.49436951e-01, -1.30237371e-01,
          -3.06873843e-02, -8.87216404e-02, -2.31510907e-01,
          -2.56953742e-02, 3.20102647e-02, 1.91540599e-01,
          3.16532493e-01, 5.29287636e-01, 7.44149610e-02, 1.08118989e-02,
          3.42574149e-01, -5.38712926e-02, -1.12950064e-01,
          -1.10117681e-01, -7.57477283e-02, 3.05495299e-02,
          2.84260660e-01, 2.89549470e-01, 4.78504062e-01, 7.02630728e-02,
          4.68170876e-03, -5.68644516e-02, -8.51809531e-02,
          -4.74836864e-02, -5.73157966e-02, 1.70848034e-02,
          9.66057330e-02, 1.28266662e-01, 8.45615715e-02, 2.79545505e-02,
          4.10695672e-02, 9.00806636e-02, 1.28267989e-01, 1.30500957e-01,
          8.89691412e-02, 4.98109087e-02, 1.25762939e-01, 3.14605236e-01,
          7.09332824e-02, -3.55051924e-03, 6.21575452e-02,
          1.76588625e-01, 5.24884500e-02, -1.35416714e-02,
          1.57049492e-01, 3.67585927e-01, 4.22632009e-01, 2.19852373e-01,
          1.45673454e-01, 1.31323904e-01, 3.97888571e-02,
          -8.14539492e-02, -6.47846386e-02, 5.10589965e-02,
          3.03823233e-01, 1.04167998e-01, 7.41887689e-02, 1.33425491e-02,
          2.21864171e-02, -2.10209172e-02, -3.68621908e-02,
          1.51146883e-02, 5.07446080e-02, 1.13628238e-01, 1.53520482e-03,
          -6.41174018e-02, -1.11841917e-01, -1.20919079e-01,
          -5.80195524e-02, -3.14538144e-02, 3.76553200e-02,
          5.56490012e-02, 1.09006613e-02, 1.17403306e-01,
          -4.76709679e-02, -2.61965543e-01, -2.56012589e-01,
          -1.88766822e-01, -2.18783110e-01, -2.17093542e-01,
          -1.39188766e-01, -3.16818841e-02, -1.29765823e-01,
          -2.55068332e-01, -2.96372026e-01, -2.47089833e-01,
          -2.66538739e-01, -2.31077984e-01, -1.27469555e-01,
          -2.70775199e-01, -1.74832925e-01, -8.25291425e-02,
          -6.21568374e-02, -6.51241988e-02, -6.77583367e-02,
          -7.24085495e-02, -6.17522001e-02, -2.47831848e-02,
          -7.53461495e-02, -1.83697902e-02, -9.58492141e-03,
          3.57858725e-02, 2.38734901e-01, 2.30576470e-01, 6.87450394e-02,
          7.76092871e-04, -3.12384237e-02, -1.03115447e-01,
          -7.60779455e-02, -2.24829093e-02, -2.40480229e-01,
          -1.22716606e-01, -2.63888091e-02, 3.35511863e-02,
          -1.05228573e-02, 7.14363949e-03, -5.53951301e-02,
          -9.96010099e-03, -3.01658481e-01, -4.30008769e-01,
          -3.79310966e-01, -2.31831074e-01, -2.92774856e-01,
          -1.52997121e-01, -4.76256236e-02, -2.68212408e-02,
          -1.37971014e-01, -1.07518971e-01, -1.13909028e-01,
          -9.04671028e-02, -8.09639096e-02, -1.02231465e-01,
          1.38517478e-02, 2.62791693e-01, -5.34086302e-02,
          -1.29752401e-02, -3.27953026e-02, -1.17843263e-01,
          -4.14918400e-02, 2.17418093e-02, 1.34042799e-01,
          1.39675409e-01, 1.45153701e-01, 1.34899184e-01, 3.72906402e-02,
          3.46395999e-01, 2.74413303e-02, -4.23725061e-02,
          -8.75374973e-02, -7.80942217e-02, 3.79223786e-02,
          2.69127667e-01, 3.34340841e-01, 4.80618298e-01, 1.26891971e-01,
          2.83289552e-02, -1.57277182e-01, -2.21074820e-01,
          -3.95012766e-01, -1.34679079e-01, 1.18054403e-03,
          1.52500778e-01, 1.58277512e-01, -6.79912278e-03,
          -3.78069095e-02, -1.43101379e-01, 3.44828441e-04,
          2.89270142e-03, 6.95747416e-03, -5.37196919e-02,
          -2.92029101e-02, -1.38857374e-02, 1.38665751e-01,
          3.30546312e-02, 2.67111883e-03, 2.16690861e-02, 5.06450422e-02,
          -5.34204766e-03, -2.41341479e-02, 5.55537380e-02,
          1.40202194e-01, 3.84366363e-01, 1.94821090e-01, 1.20202057e-01,
          9.66790318e-02, -2.89106201e-02, -1.13378607e-01,
          -4.58714329e-02, 4.90265638e-02, 2.91564047e-01,
          2.01514125e-01, 2.13911772e-01, 1.50260404e-02, 2.89248191e-02,
          -7.41307065e-02, -7.30242431e-02, 2.27819178e-02,
          8.06707293e-02, 1.92393795e-01, 5.70163131e-02, 7.27489963e-02,
          9.97215323e-03, 9.99493748e-02, 5.24895526e-02, 4.15983275e-02,
          2.52717733e-02, 3.62596884e-02, 4.60379608e-02, 8.13482925e-02,
          2.01297030e-02, -7.56257847e-02, -7.13946819e-02,
          -5.84047996e-02, -6.39505908e-02, -6.42083064e-02,
          -3.38065699e-02, 2.18099561e-02, -3.99319604e-02,
          -1.36164635e-01, -1.90256298e-01, -1.74108386e-01,
          -2.29816645e-01, -1.47041500e-01, -6.94204401e-03,
          -1.26197472e-01, -2.53948215e-02, -1.70745552e-01,
          -1.21520787e-01, -1.16491087e-01, -1.09700292e-01,
          -1.27953157e-01, -8.41180682e-02, -7.50161707e-02,
          -1.46651596e-01, -4.17166650e-02, -5.82630932e-02,
          -4.28288803e-02, -3.65744643e-02, -3.58694196e-02,
          -1.47011587e-02, 2.90423892e-02, -1.28686279e-01,
          -8.98663606e-03, -4.10049632e-02, 5.58778122e-02,
          -2.83592148e-03, -3.60343345e-02, -9.21471044e-03,
          1.74771044e-02, 5.66445515e-02, 8.28638747e-02, 6.92026243e-02,
          9.20667350e-02, -1.42949209e-01, -2.65184402e-01,
          -2.47864097e-01, -1.29120335e-01, -1.40883654e-01,
          5.31944167e-03, 1.59266330e-02, 5.91365900e-03, 7.68403634e-02,
          -2.32682511e-01, -2.07517549e-01, -1.56063586e-01,
          -1.39718771e-01, -3.06992948e-01, 9.76648331e-02,
          -1.24182150e-01, 1.12139441e-01, 8.95921979e-03,
          -8.59278515e-02, -1.81759801e-02, -3.37764099e-02,
          -4.76037823e-02, -1.57515809e-01, -1.85927615e-01,
          -2.09422067e-01, -3.28786522e-02, -6.23280704e-02,
          1.78813294e-01, 5.62650561e-02, 1.72251202e-02,
          -1.49185630e-02, -3.93757485e-02, 3.60246822e-02,
          1.44337654e-01, 1.98619500e-01, 2.42243364e-01, 1.77534968e-01,
          1.11027554e-01, -1.35499954e-01, -1.87890276e-01,
          -2.15423748e-01, -5.32246903e-02, 4.71651144e-02,
          2.01446131e-01, 1.87758446e-01, 7.14076310e-02,
          -1.52038662e-02, 3.46663743e-02, 4.00262736e-02,
          -1.62187234e-01, 1.04595080e-01, 3.50154117e-02,
          1.06210023e-01, 8.09494853e-02, 1.71314642e-01,
          -5.02466299e-02, -3.07749897e-01, -1.72853112e-01,
          -1.13003120e-01, 3.05078388e-03, 1.04966506e-01,
          1.93381712e-01, 2.47643903e-01, 1.61245435e-01, 8.22704285e-02,
          4.61063944e-02, 3.72947715e-02, -2.89294571e-02,
          -3.91818248e-02, 1.31173236e-02, 4.89801429e-02,
          1.46647319e-01, 2.30675742e-01, 2.86530882e-01, 3.45954075e-02,
          4.62212637e-02, -5.73073328e-02, -6.31926768e-03,
          5.91180660e-02, 1.09140135e-01, 2.03508347e-01, 1.42134935e-01,
          1.12233929e-01, 3.81738599e-03, 2.13313803e-01, 9.42194387e-02,
          9.00173560e-02, 9.32263881e-02, 1.52404010e-01, 1.53178945e-01,
          7.83482343e-02, 4.05966714e-02, 7.84668773e-02, 7.97102153e-02,
          -2.26690676e-02, -3.99743579e-02, 4.47111726e-02,
          9.35930014e-02, 9.84393507e-02, -1.22313932e-01,
          -4.97307815e-02, -5.37633486e-02, -1.49039045e-01,
          -2.00083613e-01, -1.88885614e-01, -2.06880242e-01,
          -2.02851638e-01, -1.78913429e-01, -1.64211974e-01,
          -8.68114382e-02, 1.70491874e-01, 1.98036224e-01,
          -2.02083234e-02, -3.67257968e-02, -1.23548627e-01,
          -2.66202390e-01, -2.54630357e-01, -2.04185545e-01,
          -2.45721415e-01, -1.77719891e-01, -6.62353039e-02,
          -1.27472579e-01, -5.74787334e-02, -8.29033256e-02,
          -1.56049997e-01, -1.53604180e-01, -1.39336228e-01,
          -1.45767227e-01, -1.36696309e-01, -1.15914531e-01,
          -1.09145686e-01, -7.69864470e-02, -5.92648610e-02,
          -8.12216178e-02, -1.00886263e-01, -7.16133863e-02,
          -1.74221545e-02, 2.21658334e-01, 1.25034168e-01,
          -9.87771079e-02, -1.85326457e-01, -2.53430277e-01,
          -1.73429564e-01, -7.30219558e-02, -2.13557437e-01,
          -3.86389703e-01, -2.51514137e-01, -1.05598785e-01,
          -5.50721511e-02, 1.17094301e-01, 2.69287288e-01,
          -6.54236153e-02, -3.88858318e-02, 2.55790889e-01,
          -1.43188670e-01, -2.89502293e-01, -3.15384895e-01,
          -3.29115540e-01, -2.61957377e-01, 1.13425413e-02,
          6.84725121e-02, 3.87228996e-01, -1.01194959e-02,
          -7.27519169e-02, -1.68327257e-01, -2.24222869e-01,
          -2.90342718e-01, -1.98099986e-01, -1.11952633e-01,
          -1.17265582e-02, 5.59827238e-02, 9.64021087e-02,
          -6.28832588e-03, 5.89199970e-03, 1.42741367e-01,
          1.40597746e-01, 1.64779603e-01, -4.62802909e-02,
          -1.16809523e-02, 1.57022342e-01, 3.50708097e-01,
          -6.91193491e-02, -2.28873342e-01, -2.46722698e-02,
          -1.32008851e-01, -1.30867539e-02, -2.06169367e-01,
          3.86883169e-02, 3.93092394e-01, 2.87844121e-01, 5.50494902e-02,
          -5.44568561e-02, 5.27044237e-02, -2.54191309e-01,
          -2.83039570e-01, -3.11608076e-01, -1.52344778e-01,
          5.37931286e-02, 2.91125327e-02, 1.98773555e-02,
          -1.15268774e-01, -9.16255936e-02, -2.44723648e-01,
          -1.87348291e-01, -1.00584552e-01, -5.49921468e-02,
          1.18069435e-02, 4.49152440e-02, 9.77363251e-03, 2.52347882e-03,
          3.66138741e-02, 8.09706450e-02, 1.23908542e-01,
          -4.08543125e-02, -8.36301446e-02, 3.38249393e-02,
          1.71000198e-01, 6.02926835e-02, 1.24199688e-02, 8.15743431e-02,
          1.26806676e-01, 2.61359453e-01, 1.75702468e-01, 1.68765895e-02,
          1.43127859e-01, 2.09154949e-01, 1.21953711e-01, 6.07796721e-02,
          1.19668752e-01, 5.48358448e-02, 1.76344752e-01, 1.41661689e-01,
          1.43844560e-01, 9.02196467e-02, 5.00610769e-02, 5.12007773e-02,
          2.83502741e-03, -2.55553029e-03, -4.57137190e-02,
          2.33527157e-03, 3.18643916e-03, 2.47400627e-02, 2.81557664e-02,
          -3.48060355e-02, 4.92011290e-03, 1.43293515e-01,
          1.68591797e-01, 4.93686534e-02, 3.23916636e-02,
          -3.47779808e-03, -6.19039983e-02, -6.74823374e-02,
          -1.56015411e-01, -1.70753568e-01, -1.26401737e-01,
          -4.30233665e-02, -6.63943887e-02, 1.10920258e-02,
          -4.81909979e-03, -8.34244490e-02, -9.81116593e-02,
          -2.42662653e-01, -2.59928554e-01, -2.31125295e-01,
          -1.75328076e-01, -1.92869693e-01, -1.06621906e-01,
          -5.60537204e-02, -1.05627865e-01, -1.38462961e-01,
          -8.43967423e-02, -8.04316178e-02, -7.32412636e-02,
          -6.51561320e-02, -9.37148109e-02, -1.97413769e-02,
          6.50300533e-02, -6.13820180e-02, -4.37643044e-02,
          -2.37774830e-02, -1.33593336e-01, -8.62110183e-02,
          5.16042905e-03, 1.02692164e-01, 1.48369148e-01, 1.42385826e-01,
          1.63319543e-01, 7.47245997e-02, 3.81897360e-01, 3.38568538e-02,
          -1.11803733e-01, -1.92542300e-01, -2.61869371e-01,
          -1.41811937e-01, 1.38914973e-01, 2.64890283e-01,
          5.26528835e-01, 2.71617733e-02, -3.65291759e-02,
          -2.86495268e-01, -3.89534324e-01, -4.47542191e-01,
          -3.38589996e-01, -2.16321960e-01, -2.47747768e-02,
          1.00149401e-01, -1.02086991e-01, -1.21872030e-01,
          -2.26931989e-01, -3.05438563e-02, -1.10212222e-01,
          -5.65745942e-02, -1.44468397e-01, -1.22423895e-01,
          -1.23213291e-01, 2.13312000e-01, 2.42903568e-02,
          -3.29759456e-02, 4.25803475e-02, 4.78184745e-02,
          1.99823063e-02, -1.55261103e-02, 4.77652885e-02,
          1.85713738e-01, 3.53911489e-01, 1.26285896e-01, 5.31611219e-03,
          8.93303677e-02, -2.34485522e-01, -2.24132270e-01,
          -1.40896663e-01, -4.00087144e-03, 1.77544191e-01,
          1.13360472e-01, 2.35809013e-01, -1.33666530e-01,
          -9.07610133e-02, -5.47516167e-01, -2.87844390e-01,
          -1.39791235e-01, -6.02132566e-02, 1.06501170e-01,
          -2.11157575e-02, 6.21068478e-03, -2.76476741e-02,
          1.53940767e-01, -1.25596179e-02, 4.40438977e-03,
          -4.64522503e-02, -4.20234129e-02, -2.63455268e-02,
          7.57213160e-02, 4.39262241e-02, 2.70893052e-02, 5.19505925e-02,
          4.96216305e-02, 1.09978020e-01, 9.19170529e-02, 7.86474906e-03,
          4.40139994e-02, 1.91192597e-01, 1.32582679e-01, 6.92956448e-02,
          1.08399451e-01, 3.88981216e-02, 1.54987514e-01, 1.47669479e-01,
          1.80983856e-01, 1.51250154e-01, 1.73637256e-01, 1.34229079e-01,
          5.31926267e-02, 2.36060694e-02, -7.94711560e-02,
          3.03241867e-03, 4.59191669e-03, 5.06204851e-02, 8.95038173e-02,
          -4.41057491e-04, -9.33719650e-02, 3.02744359e-02,
          5.05418368e-02, 6.53883722e-03, 6.62665407e-04,
          -3.77571606e-03, -6.93984842e-03, 1.99721120e-02,
          -5.66951260e-02, -5.99326044e-02, -5.72075881e-02,
          -3.26227769e-02, -2.67865285e-02, 1.66935641e-02,
          2.18082797e-02, -7.50406599e-03, -2.30124537e-02,
          -1.59631968e-01, -1.82271808e-01, -1.64578915e-01,
          -1.14493333e-01, -1.75717413e-01, -4.30857539e-02,
          3.03929690e-02, -4.93092230e-03, -4.11236472e-02,
          -1.66293159e-01, -1.39483124e-01, -1.32204697e-01,
          -1.16324365e-01, -1.75550044e-01, -3.16096633e-03,
          2.46823788e-01, -2.67145373e-02, -6.50359243e-02,
          -6.91227391e-02, -4.26157378e-02, -5.67476824e-02,
          -6.23279698e-02, -1.38799414e-01, -1.17049746e-01,
          -9.71284360e-02, -4.20870259e-02, -5.68920188e-02,
          1.97943836e-01, 7.25164264e-02, 4.49985452e-03,
          -4.80920859e-02, -1.49483263e-01, -3.04150376e-02,
          9.20468196e-02, 1.84884980e-01, 2.69227594e-01, 1.11247197e-01,
          8.39718282e-02, -2.33855113e-01, -3.04369867e-01,
          -3.01095784e-01, -2.05237851e-01, -1.35664031e-01,
          4.56035510e-02, 1.43218085e-01, -9.84292999e-02,
          -1.82355374e-01, -2.93480724e-01, -6.81810081e-02,
          -1.71976313e-01, -1.15203420e-02, -1.41053602e-01,
          -6.55930117e-02, -1.13261782e-01, 7.33507350e-02,
          -1.09894782e-01, -3.41453075e-01, -2.64468193e-01,
          -2.45944962e-01, -4.47535850e-02, 5.49126826e-02,
          1.12527095e-01, 1.42237470e-01, 2.09822297e-01, 7.97542334e-02,
          2.05065552e-02, 5.72127216e-02, -1.05940528e-01,
          -7.47020096e-02, -3.35585023e-03, 4.48457859e-02,
          1.54713854e-01, 1.98516294e-01, 3.80014509e-01,
          -4.72423621e-02, 4.48471643e-02, -3.33176732e-01,
          -1.13241978e-01, -2.55566295e-02, 4.28285748e-02,
          1.65439993e-01, -3.59057970e-02, 1.11335047e-01,
          -1.52170613e-01, 3.27179730e-01, -3.31439115e-02,
          6.35174513e-02, 1.88187249e-02, 7.54854232e-02,
          -4.21855338e-02, 6.72034770e-02, 2.65791975e-02,
          -7.24984333e-02, 6.82679862e-02, -1.13455035e-01,
          -1.18067004e-01, 3.51923034e-02, 1.15441240e-01,
          8.67970139e-02, 9.38826799e-02, 5.38841002e-02, 2.80570444e-02,
          3.91563326e-02, 2.59219343e-03, 4.91515920e-02, 5.13051488e-02,
          8.35114792e-02, 8.76417905e-02, 2.93443143e-01, 1.55105412e-01,
          5.88810220e-02, 3.45703363e-02, -7.26857707e-02,
          -9.61092184e-04, -2.96034082e-03, 3.66193354e-02,
          1.29013106e-01, 2.99088284e-02, -2.26965979e-01,
          3.72688398e-02, 1.10774480e-01, 1.45456055e-02, 1.63271278e-02,
          2.16640811e-02, 1.73402466e-02, 6.07434660e-02, 1.61458664e-02,
          -1.11307800e-01, -4.96912841e-03, 3.15287672e-02,
          -4.76206876e-02, -4.41184603e-02, -7.26985931e-03,
          1.15864296e-02, 1.39501477e-02, -1.60866696e-02,
          -8.99134856e-03, 8.85622278e-02, 9.60377380e-02,
          -2.30628401e-02, -3.49838920e-02, -9.61408839e-02,
          -4.75807525e-02, 6.11547427e-03, -1.58819258e-02,
          -1.58366472e-01, -1.54000312e-01, -3.27545367e-02,
          -3.82447168e-02, 6.12919778e-02, -9.28837806e-03,
          1.31774426e-01, 1.29753515e-01, 2.56995708e-01, 3.07641532e-02,
          -1.06908605e-01, -1.26046002e-01, -2.97673941e-01,
          -1.18800551e-01, 1.40011040e-02, 2.04898342e-01,
          3.17405820e-01, 3.21799777e-02, -1.09605007e-02,
          -8.64109397e-02, -1.20587170e-01, -1.95597902e-01,
          -1.08732581e-01, -5.51923476e-02, 1.60772279e-02,
          7.77767152e-02, 9.19756442e-02, -1.08090537e-02,
          -2.40081586e-02, 1.33921430e-01, 8.12769309e-02,
          1.98884517e-01, -3.56687456e-02, -4.36434746e-02,
          1.40212610e-01, 2.91265547e-01, -7.53981769e-02,
          -2.81867862e-01, 9.79045872e-03, -3.70157249e-02,
          4.87580374e-02, -1.71496019e-01, 5.91480248e-02,
          1.67077273e-01, 4.67651635e-02, -9.50952545e-02,
          -1.34094208e-01, 9.08646509e-02, -1.19561985e-01,
          -1.74273580e-01, -2.31341735e-01, -2.96016514e-01,
          -1.87159568e-01, -5.11025973e-02, -1.67538784e-02,
          -1.75563738e-01, -1.29919052e-01, -3.63014936e-01,
          -1.84975877e-01, -1.30928472e-01, -8.31196234e-02,
          -7.76003078e-02, 5.36291748e-02, -1.43056712e-03,
          -1.54218096e-02, 4.38418612e-02, 9.41892266e-02,
          1.74981862e-01, -2.06541345e-01, -3.28345716e-01,
          -1.15631912e-02, 2.29325637e-01, 7.63607398e-02,
          -1.31779974e-02, 1.16136536e-01, 1.07843131e-01,
          3.81249964e-01, 1.96688458e-01, 6.92401379e-02,
          -2.32466236e-01, -6.68855235e-02, 1.42746210e-01,
          3.27255800e-02, 1.55247584e-01, -5.85435890e-02,
          3.16331595e-01, 2.06069678e-01, 1.56300947e-01, 2.79673189e-01,
          -1.63649824e-02, -7.56574981e-03, -6.21566586e-02,
          -4.57435846e-02, -1.55152544e-01, 6.47124834e-03,
          3.05592036e-03, 3.85670401e-02, -7.55487243e-03,
          -2.55092941e-02, -2.01665908e-02, -2.81911697e-02,
          -1.58363692e-02, -5.04725799e-02, -1.67824887e-02,
          -4.75160219e-02, -7.61104450e-02, -4.21314016e-02,
          -4.61506732e-02, -3.59135047e-02, -4.29088883e-02,
          -2.37214696e-02, -9.33479592e-02, -2.22517382e-02,
          -9.66735631e-02, -3.54383647e-01, -2.17940792e-01,
          -1.29612193e-01, -5.72255813e-02, -3.26199606e-02,
          -1.29668145e-02, -4.97917384e-02, 2.39400957e-02,
          -1.49272550e-02, -1.88451290e-01, -3.31023961e-01,
          -1.88462943e-01, -6.68731034e-02, -1.85784269e-02,
          -8.14207830e-03, -1.95093639e-02, -1.62637082e-03,
          -3.97207681e-03, -2.35242359e-02, -1.48147941e-01,
          3.12700160e-02, -4.90853898e-02, -5.58667257e-02,
          -5.89835364e-03, 1.85129251e-02, 5.95237426e-02,
          6.18756935e-02, 1.19336590e-01, 9.79040116e-02, 3.24602038e-01,
          1.23375051e-01, -1.24847675e-02, -6.32811859e-02,
          -2.40149960e-01, -7.02009350e-02, 7.62165338e-02,
          2.52798200e-01, 3.97053301e-01, 9.93573591e-02, 4.54987437e-02,
          -1.52157709e-01, -2.15290904e-01, -3.65343720e-01,
          -1.81019917e-01, -1.03227481e-01, 3.13811302e-02,
          1.55229688e-01, -3.48376557e-02, -3.76668908e-02,
          -1.21564738e-01, -1.85594894e-02, -8.27067643e-02,
          -2.45798491e-02, -6.91749305e-02, -5.19839786e-02,
          -5.51439114e-02, 1.92322254e-01, 3.73711064e-02,
          -2.84064747e-02, 8.08623582e-02, -1.98338199e-02,
          5.99569455e-02, 1.84679814e-02, 3.56535725e-02, 1.38391167e-01,
          1.63534522e-01, 1.37513587e-02, -9.05752406e-02,
          1.36360243e-01, -1.07460633e-01, -1.00154899e-01,
          -1.02590092e-01, -4.21422459e-02, -2.65354943e-02,
          2.40872689e-02, 1.66738823e-01, -2.01700240e-01,
          -1.29244685e-01, -4.00047988e-01, -2.61720896e-01,
          -1.76307738e-01, -8.58852640e-02, -5.92578277e-02,
          -1.05629414e-01, -1.13042675e-01, -8.49622414e-02,
          8.90921205e-02, -1.25689700e-01, -1.90544017e-02,
          -7.53193125e-02, -6.13097623e-02, -5.96949607e-02,
          1.24909624e-01, 8.30532908e-02, 4.68621179e-02, 9.39112827e-02,
          5.77120259e-02, 1.88542739e-01, 1.56812042e-01,
          -1.66026931e-02, 2.78802775e-02, 6.33319169e-02,
          2.09447563e-01, 9.23808515e-02, 1.75054193e-01,
          -3.41463387e-02, 3.22442949e-01, 2.70415097e-01,
          3.30621451e-01, 4.29149836e-01, 1.91531628e-01, 3.23888958e-02,
          -3.75450812e-02, -2.11110897e-02, -2.51480907e-01,
          4.15802412e-02, 5.47617711e-02, 1.36175230e-01, 2.71429657e-03,
          -1.92187235e-01, -3.69166076e-01, -1.67665314e-02,
          5.89541160e-02, -1.49066634e-02, -6.82219979e-05,
          4.46659932e-03, -7.10831676e-03, 2.32847422e-04,
          -1.35166794e-02, -9.55252256e-03, -1.20286671e-02,
          -4.58384911e-03, -3.11181210e-02, 1.22995768e-03,
          -2.34779101e-02, -1.15891375e-01, -7.43639544e-02,
          -1.18194453e-01, -5.07474281e-02, -2.29133312e-02,
          -4.68202354e-03, -4.09768596e-02, 3.08008026e-02,
          4.59657720e-04, -1.19143017e-01, -3.25202882e-01,
          -2.91322410e-01, -1.72857091e-01, -3.57732847e-02,
          -9.81136877e-03, -3.76954004e-02, 4.81541269e-03,
          4.44099214e-03, -2.33602468e-02, -2.24079788e-01,
          -2.74785787e-01, -2.26421893e-01, -2.50263680e-02,
          -6.78075152e-03, -2.94860769e-02, -7.75374565e-03,
          -1.21122422e-02, -1.16971647e-02, -2.58593783e-02,
          1.60535574e-01, 8.72244313e-02, 2.83332132e-02,
          -2.31648493e-03, -8.99526626e-02, -1.11817401e-02,
          5.68252057e-02, 1.30428746e-01, 2.00746790e-01, 1.37643918e-01,
          1.20880537e-01, -1.06403179e-01, -1.48018077e-01,
          -2.96447486e-01, -1.03779145e-01, -6.91611841e-02,
          4.65120487e-02, 1.56252503e-01, -2.25955881e-02,
          -4.08972502e-02, -2.33418107e-01, 2.88049430e-02,
          -1.34934366e-01, -1.80613017e-03, -8.91046301e-02,
          -3.56565826e-02, -5.66164404e-02, 3.04364897e-02,
          -4.62346449e-02, -1.66510150e-01, -1.30893424e-01,
          -1.34287462e-01, -2.40338296e-02, 2.32731774e-02,
          4.92120050e-02, 6.36234283e-02, 1.56674638e-01, 5.80698662e-02,
          1.83939910e-03, 9.60209146e-02, -1.19201370e-01,
          -2.59770709e-03, 2.95916460e-02, 7.59842768e-02,
          8.81041735e-02, 1.65376708e-01, 3.19176793e-01,
          -6.45896466e-03, 6.81142807e-02, -1.89942017e-01,
          -5.72718829e-02, -1.62007771e-02, 6.15264177e-02,
          8.21035728e-02, -1.39522329e-01, 2.72676259e-01,
          -8.81113783e-02, 3.07636648e-01, 8.23010281e-02,
          6.72077686e-02, -1.05621526e-02, -1.20337633e-02,
          -4.41930853e-02, 2.62142811e-02, -1.53296180e-02,
          -8.07522908e-02, 4.23506871e-02, -1.51856899e-01,
          -1.11278795e-01, 2.42346786e-02, 1.05823383e-01,
          5.13100065e-02, 1.61458045e-01, 1.11079343e-01, 6.05922379e-02,
          9.00940225e-02, -7.86725339e-03, 1.42097875e-01,
          1.31089807e-01, 1.92529231e-01, 1.73635542e-01, 1.70027182e-01,
          1.10958196e-01, 3.18829641e-02, 6.15859404e-02,
          -1.65691033e-01, 8.69688690e-02, 1.03311472e-01,
          1.78270251e-01, 1.82410210e-01, -4.10074890e-01,
          6.02771118e-02, -5.23617491e-02, 2.21189767e-01,
          3.56959105e-02, 7.31530562e-02, 9.96558741e-02, 8.07971582e-02,
          9.57492292e-02, -4.90610041e-02, -4.68548536e-01,
          -1.51154011e-01, -8.62626941e-04, -1.25092626e-01,
          -8.07105526e-02, -1.88330077e-02, 1.78893041e-02,
          1.81707069e-02, -6.70684949e-02, -2.43757125e-02,
          -8.14791210e-03, 1.89599705e-05, -1.49099343e-02,
          1.18299639e-02, 1.47087907e-03, -3.52937691e-02,
          -1.53701469e-01, -3.54662061e-01, -2.06035838e-01,
          -3.72111425e-02, -7.37527153e-03, -3.53180468e-02,
          9.44645423e-03, 1.16800331e-02, -7.74511416e-03,
          -1.69240609e-01, -5.89834332e-01, -6.24577105e-01,
          -7.98007026e-02, -2.70572435e-02, -9.04326439e-02,
          -2.97074635e-02, -4.23923880e-02, -3.69262956e-02,
          -6.59595877e-02, -7.94767737e-02, -2.04981640e-01,
          -6.85703084e-02, -3.27971913e-02, -6.68116510e-02,
          -3.16649117e-02, -3.98727953e-02, -3.33962962e-02,
          -3.80381159e-02 ]
   uncompressed_sv_total: 18
   uncompressed_support_vectors:
      - [ 5.48350206e-03, 2.37912009e-03, 4.09378251e-03, 9.22381179e-04,
          9.77455825e-03, 1.00675016e-03, 4.41877497e-03, 2.49347091e-03,
          5.50061185e-03, 1.33259315e-02, 4.70382115e-03, 8.50472134e-03,
          1.67574058e-03, 2.18437612e-02, 1.93321658e-03, 8.92485306e-03,
          4.72845370e-03, 1.25102242e-02, 4.13505882e-02, 5.95053937e-03,
          8.08027573e-03, 1.72641384e-03, 2.07715351e-02, 1.66732585e-03,
          8.12660251e-03, 4.50602267e-03, 2.33909022e-02, 1.58889852e-02,
          1.92637229e-03, 3.32770357e-03, 7.76344910e-04, 8.13737512e-03,
          6.75230927e-04, 3.27917654e-03, 2.32805824e-03, 2.13120058e-02,
          1.85205061e-02, 7.25225136e-02, 6.66935518e-02, 5.62381418e-03,
          2.56788172e-02, 4.92152059e-03, 1.29621597e-02, 8.64531379e-03,
          1.56151867e-02, 2.61635512e-01, 2.61635512e-01, 1.44122139e-01,
          3.95977348e-02, 7.28937984e-02, 3.34343687e-02, 4.71781790e-02,
          4.49762009e-02, 7.03670979e-02, 2.61635512e-01, 2.60078520e-01,
          7.62052760e-02, 5.26844598e-02, 7.74297118e-02, 4.84895334e-02,
          6.38326555e-02, 7.82878324e-02, 2.26967797e-01, 1.52271539e-01,
          3.30385305e-02, 2.64993925e-02, 2.09824294e-02, 3.17600965e-02,
          2.40178611e-02, 3.25370990e-02, 5.88801093e-02, 2.54473239e-01,
          5.37032224e-02, 1.18250437e-01, 2.61635512e-01, 7.49914199e-02,
          4.18280512e-02, 2.34524235e-02, 2.95381993e-02, 3.04049924e-02,
          3.92890424e-02, 1.56793460e-01, 2.61635512e-01, 2.24776745e-01,
          9.74328294e-02, 1.23514958e-01, 1.08726494e-01, 1.18443020e-01,
          1.14744894e-01, 1.11028284e-01, 1.34920463e-01, 1.31907076e-01,
          1.01722240e-01, 8.77994597e-02, 1.10620901e-01, 8.73787403e-02,
          9.31132212e-02, 1.06918342e-01, 1.21811591e-01, 4.50859033e-02,
          4.18191142e-02, 3.81491669e-02, 3.42525020e-02, 4.62590531e-02,
          3.59078199e-02, 3.86847854e-02, 4.38882224e-02, 4.62229028e-02,
          1.96427610e-02, 1.63964424e-02, 3.50222662e-02, 5.29199280e-02,
          3.03148162e-02, 1.66752078e-02, 1.84674524e-02, 1.85516700e-02,
          1.89170353e-02, 4.49437872e-02, 4.07067277e-02, 3.83116938e-02,
          4.21391055e-02, 7.54987523e-02, 6.56107217e-02, 5.98119870e-02,
          4.81216908e-02, 4.32011858e-02, 4.99329753e-02, 4.58369628e-02,
          4.29457501e-02, 4.09310386e-02, 5.81726953e-02, 4.83456366e-02,
          4.74366844e-02, 4.69900146e-02, 4.77557182e-02, 1.94504503e-02,
          1.84733029e-02, 1.75048467e-02, 1.64686311e-02, 2.14173198e-02,
          1.65979117e-02, 1.69210415e-02, 1.84695013e-02, 1.92737356e-02,
          6.18529972e-03, 2.06702179e-03, 3.57319345e-03, 6.90378656e-04,
          9.33471695e-03, 7.82801653e-04, 3.75613617e-03, 1.98379788e-03,
          5.41567802e-03, 4.97998372e-02, 6.18321076e-03, 8.48063733e-03,
          1.88050268e-03, 2.15203520e-02, 1.77194376e-03, 8.40376597e-03,
          4.76733968e-03, 3.07614189e-02, 3.21688578e-02, 4.80170688e-03,
          8.44262168e-03, 1.88038568e-03, 2.09388174e-02, 1.65005156e-03,
          8.35941918e-03, 6.10305602e-03, 4.99859490e-02, 4.66881739e-03,
          1.64721441e-03, 3.08381906e-03, 6.02799701e-04, 8.43770988e-03,
          6.40693353e-04, 3.08281672e-03, 1.79880136e-03, 5.66246174e-03,
          1.80680677e-01, 2.47806773e-01, 5.07181808e-02, 1.95091162e-02,
          3.22355069e-02, 1.64533593e-02, 2.17551570e-02, 2.17784625e-02,
          3.54641229e-02, 2.72747487e-01, 2.09416628e-01, 7.73863792e-02,
          5.58952838e-02, 8.19086656e-02, 5.31555787e-02, 7.07019791e-02,
          8.97397920e-02, 2.72747487e-01, 2.72747487e-01, 8.01178738e-02,
          6.52098805e-02, 5.07150516e-02, 8.02127346e-02, 6.10633269e-02,
          8.43606964e-02, 2.09231824e-01, 2.72747487e-01, 3.95647064e-02,
          2.08032988e-02, 2.00609770e-02, 1.44673577e-02, 3.11751571e-02,
          2.10461859e-02, 4.94910926e-02, 2.52920061e-01, 1.90508306e-01,
          6.68418184e-02, 1.17954090e-01, 6.66312203e-02, 4.21436019e-02,
          5.34185879e-02, 4.80938666e-02, 5.11326753e-02, 4.90094125e-02,
          4.78890203e-02, 1.36269063e-01, 1.28936246e-01, 1.04604766e-01,
          9.18034539e-02, 1.16057016e-01, 8.90654325e-02, 9.63708460e-02,
          1.14237443e-01, 1.29554391e-01, 1.13827951e-01, 1.04964167e-01,
          9.69067737e-02, 8.65464807e-02, 1.17781520e-01, 9.23447683e-02,
          1.00222580e-01, 1.16402797e-01, 1.20132864e-01, 4.80982922e-02,
          4.23037820e-02, 3.99034359e-02, 3.84165756e-02, 5.21190241e-02,
          4.02419716e-02, 5.59330396e-02, 1.09052956e-01, 6.39311895e-02,
          1.95441358e-02, 1.81437284e-02, 1.71769895e-02, 1.90517679e-02,
          3.41914445e-02, 2.93008983e-02, 2.57455166e-02, 2.01659147e-02,
          1.83747448e-02, 5.19651249e-02, 4.75784019e-02, 4.49573658e-02,
          4.18881699e-02, 5.74559309e-02, 4.74814698e-02, 4.86674607e-02,
          5.03331386e-02, 5.11060059e-02, 5.11126183e-02, 4.86344174e-02,
          4.55476008e-02, 4.24999148e-02, 5.38669378e-02, 4.12811451e-02,
          4.18826193e-02, 4.63591255e-02, 4.94287610e-02, 2.19928119e-02,
          2.05939263e-02, 2.02227924e-02, 1.96494404e-02, 2.24283449e-02,
          1.60194989e-02, 1.59595795e-02, 1.84115451e-02, 2.09179744e-02,
          2.19141450e-02, 2.38947361e-03, 3.36751994e-03, 7.78593123e-04,
          8.40925053e-03, 7.12439127e-04, 3.29172681e-03, 1.92156062e-03,
          1.54552776e-02, 2.46610008e-02, 4.53614676e-03, 8.10877699e-03,
          1.72903703e-03, 2.03842148e-02, 1.53229188e-03, 8.01953860e-03,
          5.94166340e-03, 4.27153446e-02, 1.07541336e-02, 3.76322377e-03,
          7.14411680e-03, 1.43801305e-03, 1.96971633e-02, 1.58691523e-03,
          7.17874011e-03, 3.92945530e-03, 1.18810367e-02, 4.35970630e-03,
          1.38666877e-03, 2.80155847e-03, 6.07831811e-04, 7.93989096e-03,
          6.06219575e-04, 2.76533258e-03, 1.43302570e-03, 4.37738653e-03,
          2.64751405e-01, 5.71420975e-02, 2.93552857e-02, 2.22128928e-02,
          3.26501355e-02, 2.21569203e-02, 2.97719892e-02, 3.91269587e-02,
          1.50544018e-01, 2.44249418e-01, 7.38286749e-02, 6.09714687e-02,
          4.65765670e-02, 7.69644827e-02, 5.84237464e-02, 8.22445229e-02,
          2.58731037e-01, 2.68201560e-01, 7.85972029e-02, 4.15758528e-02,
          4.28244509e-02, 2.98967287e-02, 7.15072975e-02, 4.51124012e-02,
          1.47839680e-01, 2.68201560e-01, 2.68201560e-01, 1.38265360e-02,
          5.99975465e-03, 9.44985449e-03, 3.30008683e-03, 2.33542081e-02,
          6.70130085e-03, 7.35436603e-02, 8.70596990e-02, 1.91418659e-02,
          5.16555533e-02, 4.73816022e-02, 4.05934937e-02, 3.61719429e-02,
          4.61461544e-02, 3.44129652e-02, 3.78239043e-02, 4.61781807e-02,
          5.18805012e-02, 1.09459184e-01, 1.00530185e-01, 9.34217051e-02,
          8.30468684e-02, 1.13489278e-01, 8.92744362e-02, 9.77022350e-02,
          1.17587857e-01, 1.18981861e-01, 1.11578904e-01, 9.68875363e-02,
          9.14144143e-02, 8.99159685e-02, 1.24477945e-01, 9.98489633e-02,
          2.06276238e-01, 2.68201560e-01, 1.49733052e-01, 3.16189267e-02,
          2.50305571e-02, 2.41482668e-02, 2.09539495e-02, 4.30784188e-02,
          8.92781988e-02, 2.68201560e-01, 1.35316864e-01, 3.75534631e-02,
          2.04244293e-02, 1.86217409e-02, 1.77301485e-02, 1.62056070e-02,
          2.15839911e-02, 1.76143553e-02, 1.88144967e-02, 2.02803779e-02,
          2.05992013e-02, 5.05419336e-02, 4.82255034e-02, 4.47921306e-02,
          4.14582901e-02, 5.13876304e-02, 3.89304124e-02, 3.94676365e-02,
          4.42350432e-02, 4.80310097e-02, 5.21253869e-02, 4.87967432e-02,
          4.76753004e-02, 4.68808189e-02, 5.31056747e-02, 3.74381207e-02,
          3.74749191e-02, 4.29919027e-02, 4.93070409e-02, 2.29366310e-02,
          2.08157338e-02, 1.77906249e-02, 1.60149112e-02, 2.95246877e-02,
          5.66503331e-02, 3.75046283e-02, 1.82222165e-02, 2.09781993e-02,
          8.84180702e-03, 4.46538627e-02, 4.48540226e-02, 3.38072423e-03,
          1.14170797e-02, 2.80350167e-03, 6.05617929e-03, 4.37538046e-03,
          7.19436584e-03, 1.37380272e-01, 2.09212780e-01, 8.18962455e-02,
          2.26755813e-02, 3.45862396e-02, 1.95916202e-02, 2.43991837e-02,
          2.47865189e-02, 3.41183469e-02, 2.09212780e-01, 1.12522140e-01,
          3.73513252e-02, 2.78339405e-02, 3.66200432e-02, 2.57751606e-02,
          3.13878842e-02, 3.91862579e-02, 9.18771029e-02, 5.74765727e-02,
          1.62334368e-02, 1.30252969e-02, 1.09606683e-02, 1.50586432e-02,
          1.24840336e-02, 1.57289896e-02, 2.63166912e-02, 9.43622664e-02,
          5.97134195e-02, 9.82139483e-02, 2.09212780e-01, 9.90468785e-02,
          4.68969531e-02, 2.80450415e-02, 3.39184254e-02, 3.55208404e-02,
          4.46181446e-02, 1.42164141e-01, 2.09212780e-01, 1.96572289e-01,
          1.01073034e-01, 1.35269746e-01, 1.23619385e-01, 1.33158833e-01,
          1.22462876e-01, 1.14284389e-01, 1.30637944e-01, 1.25707120e-01,
          1.03296176e-01, 8.99893716e-02, 1.15739629e-01, 9.24629197e-02,
          9.72388014e-02, 1.08023316e-01, 1.21825807e-01, 4.51486968e-02,
          4.23831940e-02, 3.94537076e-02, 3.54675986e-02, 4.80881222e-02,
          3.63877900e-02, 3.88889648e-02, 4.36018035e-02, 4.56750430e-02,
          4.66333292e-02, 4.01664861e-02, 6.50826767e-02, 1.11667745e-01,
          8.34714249e-02, 4.35054898e-02, 4.69941832e-02, 4.80958149e-02,
          4.77741733e-02, 1.13390557e-01, 1.00453839e-01, 9.45273712e-02,
          1.06270127e-01, 1.85197741e-01, 1.62478790e-01, 1.49019286e-01,
          1.24142915e-01, 1.13808542e-01, 1.27125338e-01, 1.14710897e-01,
          1.10758699e-01, 1.09643519e-01, 1.53603390e-01, 1.31983995e-01,
          1.30875200e-01, 1.25694931e-01, 1.23186395e-01, 5.03861085e-02,
          4.65318263e-02, 4.38782014e-02, 4.28943969e-02, 5.67589886e-02,
          4.66282964e-02, 4.75610644e-02, 5.13043627e-02, 5.17534055e-02,
          2.21326090e-02, 1.79598089e-02, 1.45833725e-02, 1.61143951e-02,
          3.90240215e-02, 3.29891928e-02, 2.16621216e-02, 2.40518432e-02,
          2.52795964e-02, 5.82124703e-02, 4.58849519e-02, 3.97841334e-02,
          3.92481945e-02, 5.39735258e-02, 6.36214614e-02, 7.02392310e-02,
          6.40453696e-02, 6.47294596e-02, 7.61358514e-02, 6.37325048e-02,
          5.79485297e-02, 5.57621531e-02, 7.01451227e-02, 8.15046132e-02,
          8.55166391e-02, 7.35199749e-02, 7.37988949e-02, 2.87854616e-02,
          1.98587980e-02, 1.62632000e-02, 1.77099779e-02, 2.62216944e-02,
          2.69153714e-02, 3.35844271e-02, 3.90033089e-02, 3.61825824e-02,
          8.03782791e-02, 1.22497484e-01, 2.80652381e-02, 1.14351101e-02,
          1.60564762e-02, 9.90956556e-03, 1.17432112e-02, 1.24365510e-02,
          1.77946594e-02, 2.06303045e-01, 9.60280672e-02, 3.96513864e-02,
          3.07805408e-02, 4.05948162e-02, 2.93038543e-02, 3.62241231e-02,
          4.63933349e-02, 1.23396881e-01, 1.26558870e-01, 4.16292064e-02,
          3.38148735e-02, 2.80487668e-02, 3.98790352e-02, 3.34349833e-02,
          4.28572521e-02, 9.55170169e-02, 2.06303045e-01, 1.96788982e-02,
          1.18235014e-02, 1.09367976e-02, 8.92972294e-03, 1.57928094e-02,
          1.23630064e-02, 2.74103861e-02, 1.24234051e-01, 8.42433870e-02,
          6.18753210e-02, 9.10299271e-02, 6.37750030e-02, 4.54755872e-02,
          6.13281056e-02, 5.70098944e-02, 5.99881597e-02, 5.40439896e-02,
          5.07819988e-02, 1.40329510e-01, 1.32340208e-01, 1.12128772e-01,
          9.86849815e-02, 1.26455709e-01, 9.72601846e-02, 1.04060121e-01,
          1.20469429e-01, 1.35486007e-01, 1.19734257e-01, 1.11710213e-01,
          1.05027027e-01, 9.40996855e-02, 1.28182918e-01, 9.79986340e-02,
          1.05191812e-01, 1.17719054e-01, 1.22239806e-01, 5.17415889e-02,
          4.66400608e-02, 4.44353037e-02, 4.25770320e-02, 5.67488410e-02,
          4.27581742e-02, 5.24187498e-02, 8.15195218e-02, 5.88995479e-02,
          5.19174151e-02, 4.66864072e-02, 4.49962430e-02, 5.12305945e-02,
          8.87780860e-02, 7.70208165e-02, 6.84034675e-02, 5.50246798e-02,
          5.08107580e-02, 1.39145866e-01, 1.25377879e-01, 1.20974213e-01,
          1.17609583e-01, 1.61390975e-01, 1.38731062e-01, 1.41874805e-01,
          1.41334087e-01, 1.37988150e-01, 1.39267400e-01, 1.28875792e-01,
          1.20090306e-01, 1.15570582e-01, 1.46994069e-01, 1.17932148e-01,
          1.21182688e-01, 1.35052890e-01, 1.39898539e-01, 5.82109839e-02,
          5.37492558e-02, 5.38543351e-02, 5.46849519e-02, 6.06421493e-02,
          4.17444259e-02, 4.22463305e-02, 5.00302464e-02, 5.58733419e-02,
          2.63688080e-02, 2.11774502e-02, 1.93772465e-02, 1.94926038e-02,
          2.64168996e-02, 3.37440595e-02, 3.62795256e-02, 2.98835989e-02,
          2.91344039e-02, 8.62342790e-02, 7.04246536e-02, 6.27048761e-02,
          6.13000765e-02, 7.91995972e-02, 8.70655477e-02, 9.34854373e-02,
          8.54864642e-02, 8.44106078e-02, 7.60795102e-02, 5.41647524e-02,
          4.40479368e-02, 4.64602485e-02, 6.64881766e-02, 6.58687055e-02,
          8.29983428e-02, 1.01562627e-01, 9.64242592e-02, 2.91286577e-02,
          2.65468936e-02, 2.36097258e-02, 2.52616983e-02, 3.04403156e-02,
          2.16886103e-02, 2.26386413e-02, 2.70222239e-02, 2.84659080e-02,
          1.02347642e-01, 2.67095063e-02, 1.49249863e-02, 1.21007292e-02,
          1.60924681e-02, 1.20264618e-02, 1.50859952e-02, 1.98320542e-02,
          6.00696877e-02, 1.01209387e-01, 3.85567099e-02, 3.16707119e-02,
          2.59046610e-02, 3.80680002e-02, 3.19818035e-02, 4.16621342e-02,
          1.15983203e-01, 2.13635802e-01, 3.95590849e-02, 2.37716287e-02,
          2.31986195e-02, 1.87270623e-02, 3.60423960e-02, 2.71459185e-02,
          8.80065560e-02, 2.13635802e-01, 1.55201852e-01, 6.74340548e-03,
          3.29236267e-03, 4.71403031e-03, 2.09705788e-03, 1.10637499e-02,
          4.68023354e-03, 5.27035482e-02, 5.61299883e-02, 1.00700855e-02,
          5.37720919e-02, 4.98440713e-02, 4.36718427e-02, 3.87654342e-02,
          4.97535132e-02, 3.66945863e-02, 4.00361232e-02, 4.82158028e-02,
          5.37967570e-02, 1.14772394e-01, 1.06619403e-01, 1.00728370e-01,
          8.99831131e-02, 1.22785054e-01, 9.42056477e-02, 1.01678841e-01,
          1.14838809e-01, 1.18327081e-01, 1.21413440e-01, 1.08803190e-01,
          1.02887012e-01, 1.00501791e-01, 1.35191783e-01, 1.05704315e-01,
          1.83266655e-01, 2.13635802e-01, 1.38920516e-01, 3.84849384e-02,
          3.23196501e-02, 2.98144463e-02, 2.67970487e-02, 5.01716845e-02,
          1.19770437e-01, 2.13635802e-01, 1.14595726e-01, 4.22708541e-02,
          5.45589104e-02, 4.89444174e-02, 4.71187383e-02, 4.52042036e-02,
          6.13247044e-02, 5.26158884e-02, 5.50464801e-02, 5.67822494e-02,
          5.53815402e-02, 1.37036338e-01, 1.27386913e-01, 1.18042156e-01,
          1.12287499e-01, 1.37903690e-01, 1.07864738e-01, 1.11805700e-01,
          1.27950802e-01, 1.35320455e-01, 1.36229679e-01, 1.25471905e-01,
          1.25171840e-01, 1.28217116e-01, 1.41974837e-01, 9.61878672e-02,
          9.72235128e-02, 1.14599153e-01, 1.29977256e-01, 6.24198020e-02,
          5.48773855e-02, 4.65175845e-02, 4.29160446e-02, 8.53242576e-02,
          1.22795619e-01, 7.13960752e-02, 4.73262146e-02, 5.74703477e-02,
          3.43872570e-02, 2.72307731e-02, 2.37016212e-02, 2.37894244e-02,
          3.19161005e-02, 3.36200632e-02, 3.70695256e-02, 3.59039046e-02,
          3.45596597e-02, 7.24576041e-02, 5.34651279e-02, 4.36864197e-02,
          4.54076417e-02, 6.28644899e-02, 5.92469685e-02, 7.43434951e-02,
          9.44422856e-02, 9.12866816e-02, 6.93136454e-02, 6.28348291e-02,
          5.56265041e-02, 5.71376085e-02, 6.78210184e-02, 4.70934585e-02,
          4.85387035e-02, 5.82618229e-02, 6.48984462e-02, 3.89068723e-02,
          2.59719267e-02, 2.03725453e-02, 3.27652730e-02, 3.95127349e-02,
          1.60161164e-02, 1.79263614e-02, 2.90043801e-02, 4.10971828e-02,
          2.40629409e-02, 2.84034070e-02, 9.42089707e-02, 4.77453433e-02,
          2.02130880e-02, 1.26578417e-02, 1.47815943e-02, 1.55017199e-02,
          1.87284499e-02, 4.85929362e-02, 5.41713722e-02, 6.12999536e-02,
          3.94411832e-02, 5.71691357e-02, 5.33576235e-02, 5.66601865e-02,
          4.90766801e-02, 4.41385955e-02, 4.88095209e-02, 4.61767241e-02,
          3.98894288e-02, 3.51407193e-02, 4.63902391e-02, 3.74383219e-02,
          3.88088673e-02, 4.16284725e-02, 4.64899987e-02, 1.71972141e-02,
          1.63328331e-02, 1.55221866e-02, 1.39881540e-02, 1.90295596e-02,
          1.40824402e-02, 1.49153285e-02, 1.65286120e-02, 1.72415543e-02,
          4.37346473e-02, 3.79982181e-02, 4.82862964e-02, 8.85242075e-02,
          8.51494074e-02, 4.26602364e-02, 4.49388474e-02, 4.71228026e-02,
          4.64126281e-02, 1.09488040e-01, 9.50050950e-02, 8.96883085e-02,
          1.00972876e-01, 1.69406876e-01, 1.52702048e-01, 1.42215461e-01,
          1.22280024e-01, 1.13669932e-01, 1.22448422e-01, 1.09631449e-01,
          1.08452961e-01, 1.10356830e-01, 1.51750505e-01, 1.34747326e-01,
          1.35141969e-01, 1.26380846e-01, 1.19819485e-01, 4.93196286e-02,
          4.43278253e-02, 4.16282900e-02, 4.21222150e-02, 5.65558076e-02,
          4.85365987e-02, 4.99420241e-02, 5.37143573e-02, 5.25366180e-02,
          5.38273454e-02, 4.15460654e-02, 3.28845680e-02, 3.39582041e-02,
          8.07447582e-02, 9.33528468e-02, 6.11243509e-02, 5.77804260e-02,
          6.35805354e-02, 1.45358413e-01, 1.08194143e-01, 8.98153409e-02,
          8.61438438e-02, 1.17545374e-01, 1.36542708e-01, 1.53414652e-01,
          1.51598766e-01, 1.66466042e-01, 1.99911043e-01, 1.60553783e-01,
          1.40941679e-01, 1.27860814e-01, 1.56797677e-01, 1.88001081e-01,
          1.99407876e-01, 1.79332554e-01, 1.96841702e-01, 8.31628814e-02,
          5.12998179e-02, 3.73098999e-02, 3.79468948e-02, 5.45781963e-02,
          5.75352870e-02, 7.56687894e-02, 9.22055840e-02, 9.78461877e-02,
          2.67621633e-02, 1.76711809e-02, 1.47675201e-02, 1.09834746e-02,
          1.81739684e-02, 4.84917052e-02, 8.86652246e-02, 3.20507810e-02,
          3.33809443e-02, 8.22231770e-02, 5.55847883e-02, 4.42590788e-02,
          3.63420509e-02, 4.15433906e-02, 3.59090939e-02, 5.62524870e-02,
          7.31487125e-02, 9.69865024e-02, 1.03502646e-01, 7.64546245e-02,
          6.98278621e-02, 5.48322238e-02, 5.50836548e-02, 5.30370884e-02,
          6.31075799e-02, 7.56112561e-02, 1.03065036e-01, 5.27119003e-02,
          2.99362671e-02, 1.83507688e-02, 1.48839410e-02, 1.73889045e-02,
          1.63636133e-02, 1.99074633e-02, 2.79067419e-02, 5.00298925e-02,
          1.87749956e-02, 1.98225398e-02, 1.90528873e-02, 1.59016773e-02,
          2.33839601e-02, 2.20556986e-02, 2.28844564e-02, 1.92863345e-02,
          1.74534321e-02, 4.75573428e-02, 4.46570553e-02, 3.92476320e-02,
          3.46617363e-02, 4.51238044e-02, 3.48547399e-02, 3.68634388e-02,
          4.15613502e-02, 4.63776886e-02, 4.12131213e-02, 3.88818868e-02,
          3.71891633e-02, 3.34338620e-02, 4.55650687e-02, 3.40706892e-02,
          3.61220762e-02, 3.92667055e-02, 4.10418585e-02, 1.81928277e-02,
          1.68137904e-02, 1.61587857e-02, 1.53685240e-02, 2.00911462e-02,
          1.47264730e-02, 1.54877184e-02, 1.67798679e-02, 1.78359635e-02,
          4.49167453e-02, 3.94210629e-02, 3.87436301e-02, 4.43691313e-02,
          7.35889301e-02, 6.59763590e-02, 5.98054603e-02, 4.91128229e-02,
          4.55331430e-02, 1.20923810e-01, 1.08221605e-01, 1.06178433e-01,
          1.06778301e-01, 1.45765722e-01, 1.29330412e-01, 1.32407278e-01,
          1.28082290e-01, 1.20637685e-01, 1.23033002e-01, 1.10547565e-01,
          1.02627568e-01, 1.01514101e-01, 1.29701316e-01, 1.07938662e-01,
          1.12966076e-01, 1.27224550e-01, 1.28468975e-01, 5.02725802e-02,
          4.55744751e-02, 4.65879031e-02, 4.90287989e-02, 5.30678108e-02,
          3.56532894e-02, 3.66877802e-02, 4.43431661e-02, 4.88073975e-02,
          5.91065250e-02, 4.51370440e-02, 3.94165069e-02, 3.84715609e-02,
          5.21378927e-02, 6.59615919e-02, 7.15279877e-02, 6.30158111e-02,
          6.63871691e-02, 2.01996669e-01, 1.61011413e-01, 1.37541950e-01,
          1.25778094e-01, 1.56345993e-01, 1.78557873e-01, 1.96167484e-01,
          1.88838318e-01, 2.01996669e-01, 1.94150329e-01, 1.28037989e-01,
          9.14682671e-02, 9.00438055e-02, 1.27566993e-01, 1.30033702e-01,
          1.70195550e-01, 2.01996669e-01, 2.01996669e-01, 6.92629218e-02,
          6.49415702e-02, 4.99023981e-02, 4.91380133e-02, 6.18239008e-02,
          4.72543836e-02, 5.02161384e-02, 5.92354164e-02, 6.34574816e-02,
          3.32105495e-02, 2.35349946e-02, 1.94652844e-02, 1.63033698e-02,
          1.83032006e-02, 1.53794335e-02, 1.89429987e-02, 2.69556157e-02,
          3.63333598e-02, 1.11079410e-01, 7.75988102e-02, 6.75746873e-02,
          5.27085364e-02, 5.24699278e-02, 5.15070297e-02, 6.25176951e-02,
          7.80034885e-02, 1.13647982e-01, 1.23256713e-01, 7.54841119e-02,
          4.46571149e-02, 3.55172753e-02, 4.43933494e-02, 4.30594832e-02,
          5.05762622e-02, 6.69038817e-02, 1.10837139e-01, 4.53926809e-02,
          3.50566730e-02, 1.92443859e-02, 1.39081348e-02, 1.98643357e-02,
          2.21662838e-02, 2.67995931e-02, 3.51097621e-02, 4.39580828e-02,
          1.98472477e-02, 1.85472313e-02, 1.66394729e-02, 1.47132529e-02,
          1.89858060e-02, 1.39143197e-02, 1.50816748e-02, 1.78530794e-02,
          1.97961498e-02, 4.28010523e-02, 4.01932448e-02, 3.85269746e-02,
          3.45621780e-02, 4.70688157e-02, 3.53129990e-02, 3.75303850e-02,
          4.03380878e-02, 4.23533991e-02, 4.67589758e-02, 4.32660542e-02,
          4.09806594e-02, 3.96621078e-02, 5.17070219e-02, 3.91662978e-02,
          5.42658754e-02, 4.97819856e-02, 4.57233489e-02, 1.66137479e-02,
          1.46952299e-02, 1.30613828e-02, 1.20400395e-02, 2.07625721e-02,
          5.48895001e-02, 1.07150845e-01, 3.12732905e-02, 1.68896634e-02,
          5.12997955e-02, 4.56880145e-02, 4.43706773e-02, 4.43551689e-02,
          6.07752651e-02, 5.39382398e-02, 5.57797924e-02, 5.57191148e-02,
          5.23399264e-02, 1.30690888e-01, 1.17926463e-01, 1.09192915e-01,
          1.06404096e-01, 1.30010173e-01, 1.04511604e-01, 1.11170314e-01,
          1.29878223e-01, 1.34236410e-01, 1.26107827e-01, 1.13965161e-01,
          1.15964949e-01, 1.22755244e-01, 1.33284524e-01, 8.79739225e-02,
          8.98754746e-02, 1.08185731e-01, 1.21557258e-01, 5.90732396e-02,
          5.03615625e-02, 4.23005968e-02, 4.01480645e-02, 8.49015638e-02,
          9.28961709e-02, 5.05262651e-02, 4.37848493e-02, 5.51028959e-02,
          9.24815312e-02, 6.76424727e-02, 5.59918247e-02, 5.21997996e-02,
          6.65398762e-02, 7.30946735e-02, 8.37905854e-02, 8.58618021e-02,
          9.44607854e-02, 1.97084546e-01, 1.39193252e-01, 9.86756533e-02,
          9.54680815e-02, 1.33243620e-01, 1.29865333e-01, 1.66813821e-01,
          2.01422289e-01, 2.01422289e-01, 1.76418081e-01, 1.61425307e-01,
          1.26440287e-01, 1.19857110e-01, 1.47613272e-01, 1.09526917e-01,
          1.15905367e-01, 1.39804944e-01, 1.58637330e-01, 9.64841098e-02,
          6.07990958e-02, 5.87416627e-02, 9.25423726e-02, 7.78909624e-02,
          3.31085809e-02, 4.24483195e-02, 7.28038251e-02, 1.03890449e-01,
          5.09418324e-02, 3.34172770e-02, 2.74013318e-02, 2.13246122e-02,
          2.11885143e-02, 2.11096480e-02, 2.61474401e-02, 3.40631567e-02,
          5.34225851e-02, 1.25683695e-01, 8.28318372e-02, 4.74750213e-02,
          3.68382148e-02, 4.84267101e-02, 4.84845378e-02, 5.57588898e-02,
          7.05453232e-02, 1.07932031e-01, 1.13409854e-01, 8.75219032e-02,
          5.95224015e-02, 3.38954814e-02, 4.63232882e-02, 5.04763722e-02,
          6.43716231e-02, 9.22551677e-02, 1.18714951e-01, 3.99715938e-02,
          3.51673439e-02, 1.04646109e-01, 5.09807765e-02, 1.53580522e-02,
          1.10750999e-02, 1.88857857e-02, 3.61320637e-02, 5.01363836e-02,
          1.52539173e-02, 1.31910043e-02, 1.23403948e-02, 2.37043519e-02,
          3.13022956e-02, 1.53218657e-02, 1.55305844e-02, 1.68425385e-02,
          1.66613720e-02, 3.91430631e-02, 3.29266489e-02, 3.09064910e-02,
          3.43468189e-02, 5.44660389e-02, 5.14224321e-02, 5.03488258e-02,
          4.49169129e-02, 4.21206504e-02, 4.29967493e-02, 3.82085443e-02,
          3.87184694e-02, 4.05471884e-02, 5.45566864e-02, 5.05560115e-02,
          5.16377352e-02, 4.67260033e-02, 4.26621735e-02, 1.74761750e-02,
          1.50829796e-02, 1.41263902e-02, 1.49755292e-02, 2.06542220e-02,
          1.85704343e-02, 1.94703694e-02, 2.10146625e-02, 1.97307914e-02,
          4.70195152e-02, 3.47607620e-02, 2.68612485e-02, 2.65328977e-02,
          6.04480058e-02, 9.03838128e-02, 6.06898218e-02, 5.00408895e-02,
          5.70717752e-02, 1.28743902e-01, 9.18116197e-02, 7.39086121e-02,
          6.94083720e-02, 9.38413516e-02, 1.05451882e-01, 1.20132223e-01,
          1.28468066e-01, 1.50229201e-01, 1.85238034e-01, 1.43566400e-01,
          1.23676173e-01, 1.07034884e-01, 1.27173260e-01, 1.54401973e-01,
          1.65380090e-01, 1.55087918e-01, 1.81831166e-01, 8.17696452e-02,
          4.75608408e-02, 3.16408090e-02, 2.99411826e-02, 4.12714817e-02,
          4.43927012e-02, 6.08284734e-02, 7.67316446e-02, 9.09434184e-02,
          5.15037999e-02, 3.78808081e-02, 3.46225686e-02, 2.11117938e-02,
          3.45325693e-02, 7.99527913e-02, 1.96404338e-01, 7.99952373e-02,
          6.27906024e-02, 1.67909414e-01, 1.26528770e-01, 1.01883866e-01,
          7.64502734e-02, 8.40066075e-02, 7.04236031e-02, 1.30977154e-01,
          2.01170400e-01, 1.99416369e-01, 1.92099944e-01, 1.47863388e-01,
          1.36682525e-01, 1.07236698e-01, 1.05792679e-01, 9.43446234e-02,
          1.13418452e-01, 1.44420892e-01, 1.91955701e-01, 9.52013955e-02,
          5.67206889e-02, 3.62618640e-02, 2.97175869e-02, 3.51615995e-02,
          3.18435393e-02, 3.71809788e-02, 5.18129580e-02, 9.07884985e-02,
          1.10274749e-02, 1.15914624e-02, 1.37418527e-02, 4.25886875e-03,
          1.03948526e-02, 4.88694850e-03, 3.53147015e-02, 3.52686904e-02,
          1.25603601e-02, 4.77708094e-02, 4.70566526e-02, 3.81622165e-02,
          2.08276398e-02, 2.75101122e-02, 1.60330813e-02, 5.26661389e-02,
          2.01170400e-01, 1.22560740e-01, 8.23933482e-02, 4.36288789e-02,
          3.73216197e-02, 2.90813092e-02, 3.24303433e-02, 2.33193580e-02,
          2.93724257e-02, 9.29687321e-02, 2.01170400e-01, 8.33609104e-02,
          2.11708285e-02, 1.15214912e-02, 8.64920579e-03, 1.03151435e-02,
          8.75523034e-03, 1.24121392e-02, 1.68085657e-02, 5.34547865e-02,
          1.57081932e-02, 1.33351758e-02, 1.32422745e-02, 1.50693739e-02,
          2.35052072e-02, 2.23319679e-02, 2.14054827e-02, 1.79605782e-02,
          1.65787004e-02, 4.18683216e-02, 3.72512005e-02, 3.72345746e-02,
          3.89052108e-02, 5.28235063e-02, 4.85278703e-02, 4.99227867e-02,
          4.66895774e-02, 4.21983227e-02, 4.30378579e-02, 3.69670764e-02,
          3.42608802e-02, 3.52101550e-02, 4.58285697e-02, 3.98249142e-02,
          4.29348312e-02, 4.91531603e-02, 4.78702821e-02, 1.71435308e-02,
          1.51675623e-02, 1.58551876e-02, 1.73781235e-02, 1.86261684e-02,
          1.22427810e-02, 1.28765553e-02, 1.57685243e-02, 1.69810895e-02,
          5.14230281e-02, 3.78874131e-02, 3.20584029e-02, 3.05975974e-02,
          4.13392559e-02, 5.04582524e-02, 5.50039522e-02, 5.19419014e-02,
          5.81315272e-02, 1.93866640e-01, 1.43034548e-01, 1.19231232e-01,
          1.03133708e-01, 1.22514464e-01, 1.43394396e-01, 1.60570487e-01,
          1.61485001e-01, 1.93479612e-01, 1.86394006e-01, 1.18665963e-01,
          7.69633576e-02, 7.05515072e-02, 9.75297913e-02, 1.01565242e-01,
          1.36488974e-01, 1.74925447e-01, 2.01615259e-01, 6.45889342e-02,
          6.17149584e-02, 4.22486700e-02, 3.83794382e-02, 4.93933260e-02,
          4.00858633e-02, 4.34265435e-02, 5.10664731e-02, 5.58966957e-02,
          6.69814572e-02, 5.22378087e-02, 4.30783331e-02, 3.36137153e-02,
          3.56725827e-02, 2.86419764e-02, 3.80638689e-02, 7.08490610e-02,
          7.44619295e-02, 1.99339673e-01, 1.44738480e-01, 1.28101185e-01,
          1.00809194e-01, 1.00094646e-01, 9.13734287e-02, 1.11417070e-01,
          1.44258052e-01, 2.01615259e-01, 2.01615259e-01, 1.40002087e-01,
          8.58582482e-02, 6.93292245e-02, 8.75419751e-02, 8.20474699e-02,
          9.28254277e-02, 1.22894771e-01, 2.01615259e-01, 9.12644118e-02,
          8.42096955e-02, 3.87414247e-02, 2.52313782e-02, 3.66733670e-02,
          4.15442139e-02, 5.06575108e-02, 6.92457333e-02, 8.95734131e-02,
          2.03997288e-02, 1.96417198e-02, 1.54392710e-02, 9.50385258e-03,
          1.14380857e-02, 6.72272081e-03, 1.42467832e-02, 8.30514953e-02,
          6.09843284e-02, 9.53801870e-02, 4.05897871e-02, 3.41203436e-02,
          2.73113325e-02, 3.09433658e-02, 2.34643500e-02, 3.04119140e-02,
          7.37653524e-02, 2.01615259e-01, 2.01615259e-01, 6.93743899e-02,
          2.70557422e-02, 1.96899865e-02, 2.40882859e-02, 1.96462497e-02,
          2.73146164e-02, 3.65529619e-02, 1.04715697e-01, 6.98091239e-02,
          9.41469297e-02, 1.68660749e-02, 6.64138282e-03, 9.51069407e-03,
          6.13255892e-03, 8.94689281e-03, 1.28422072e-02, 2.05189548e-02,
          1.69747360e-02, 1.50203668e-02, 1.47719318e-02, 1.55113610e-02,
          2.15066802e-02, 1.96891837e-02, 2.01682318e-02, 1.94652174e-02,
          1.74961220e-02, 4.36309166e-02, 3.76007967e-02, 3.49067934e-02,
          3.52003388e-02, 4.34196815e-02, 3.61786112e-02, 3.99689972e-02,
          4.78938334e-02, 4.78258468e-02, 4.08802815e-02, 3.60952951e-02,
          3.74505669e-02, 4.10849229e-02, 4.42988724e-02, 2.85436157e-02,
          2.96119601e-02, 3.61095332e-02, 4.00073901e-02, 1.98201388e-02,
          1.62058864e-02, 1.34074641e-02, 1.33931385e-02, 2.95525528e-02,
          2.28706039e-02, 1.18745519e-02, 1.44522991e-02, 1.88739896e-02,
          8.30687061e-02, 5.78426272e-02, 4.63557802e-02, 4.05077189e-02,
          4.86876741e-02, 5.53175882e-02, 6.54682890e-02, 7.02018291e-02,
          8.52022767e-02, 1.79826722e-01, 1.25198841e-01, 7.98968896e-02,
          7.18789697e-02, 9.94654894e-02, 9.95244831e-02, 1.29607126e-01,
          1.67083159e-01, 1.88329101e-01, 1.56025648e-01, 1.43133059e-01,
          1.01436540e-01, 8.92138109e-02, 1.12049662e-01, 8.80672410e-02,
          9.57912803e-02, 1.17019244e-01, 1.35693833e-01, 8.13706070e-02,
          4.89350595e-02, 5.65747656e-02, 8.58724862e-02, 5.37071414e-02,
          2.47313008e-02, 3.48429978e-02, 6.20406829e-02, 8.89696106e-02,
          8.62641931e-02, 5.86815998e-02, 4.90734987e-02, 3.88315991e-02,
          3.90581898e-02, 3.64064649e-02, 4.48528230e-02, 5.93212061e-02,
          9.02189910e-02, 2.05749273e-01, 1.45593375e-01, 8.58967900e-02,
          6.79543689e-02, 9.01541635e-02, 8.75663161e-02, 9.75863561e-02,
          1.24442250e-01, 1.91772088e-01, 2.05749273e-01, 2.05749273e-01,
          1.29990444e-01, 5.92366494e-02, 8.17516297e-02, 9.06003490e-02,
          1.17261373e-01, 1.74640402e-01, 2.05749273e-01, 6.58284053e-02,
          8.86026621e-02, 2.05749273e-01, 7.80745298e-02, 2.66205464e-02,
          1.83258671e-02, 3.21723446e-02, 6.11631759e-02, 8.43218192e-02,
          4.70802262e-02, 1.58251394e-02, 1.29378419e-02, 1.06007252e-02,
          1.21731013e-02, 9.82477050e-03, 1.31247826e-02, 2.31620725e-02,
          8.06061849e-02, 2.05749273e-01, 8.75043124e-02, 2.66049206e-02,
          1.89666282e-02, 2.37520710e-02, 1.84803419e-02, 2.53313482e-02,
          3.36417221e-02, 8.65239650e-02, 1.34374291e-01, 2.05749273e-01,
          5.87052368e-02, 1.47762801e-02, 2.22533010e-02, 1.32325059e-02,
          2.04135496e-02, 3.02723926e-02, 4.68585901e-02, 8.72023404e-03,
          4.39700000e-02, 3.91342118e-02, 2.65528960e-03, 7.50029739e-03,
          1.70024822e-03, 4.29740967e-03, 5.39156981e-03, 8.49934854e-03,
          2.17419509e-02, 1.51462527e-02, 1.12936646e-02, 1.05946334e-02,
          2.25750003e-02, 4.49211821e-02, 3.27687822e-02, 2.27243174e-02,
          2.71267332e-02, 6.04900047e-02, 4.05514874e-02, 3.13496068e-02,
          2.88118105e-02, 3.82349752e-02, 4.09820043e-02, 4.83316965e-02,
          5.78236878e-02, 7.24558681e-02, 8.83693099e-02, 6.60143644e-02,
          5.63429371e-02, 4.67038378e-02, 5.34760542e-02, 6.47236854e-02,
          7.06971809e-02, 7.00426474e-02, 8.77957940e-02, 4.20386605e-02,
          2.31502596e-02, 1.41642150e-02, 1.22897560e-02, 1.59578621e-02,
          1.73637662e-02, 2.46197116e-02, 3.24399844e-02, 4.41791825e-02,
          5.05893975e-02, 4.10929397e-02, 4.11384404e-02, 2.15222798e-02,
          3.50083411e-02, 6.68467805e-02, 2.12278366e-01, 9.63806733e-02,
          6.03497662e-02, 1.74422175e-01, 1.45138398e-01, 1.18036076e-01,
          8.29786137e-02, 8.84329155e-02, 7.19965696e-02, 1.51798338e-01,
          2.45017886e-01, 2.10945740e-01, 1.84954599e-01, 1.50211036e-01,
          1.38817266e-01, 1.09111041e-01, 1.06419623e-01, 8.84034932e-02,
          1.05954908e-01, 1.44486725e-01, 1.85168058e-01, 8.89383629e-02,
          5.60325235e-02, 3.71248871e-02, 3.05710081e-02, 3.64659429e-02,
          3.23203467e-02, 3.71213518e-02, 5.12746163e-02, 8.55474100e-02,
          2.19373237e-02, 2.10633781e-02, 2.50311829e-02, 7.08685536e-03,
          2.32650694e-02, 7.98456743e-03, 5.79988025e-02, 6.34754673e-02,
          2.48375908e-02, 9.52340215e-02, 8.65538567e-02, 7.16741830e-02,
          3.70454229e-02, 6.10977411e-02, 2.94304471e-02, 1.00530215e-01,
          2.45017886e-01, 2.45017886e-01, 2.09436968e-01, 8.77999216e-02,
          7.52951801e-02, 5.64129651e-02, 7.11594373e-02, 4.79325801e-02,
          6.44916371e-02, 2.30346173e-01, 2.45017886e-01, 2.33973846e-01,
          4.79332283e-02, 2.44962908e-02, 1.77510325e-02, 2.32272428e-02,
          1.77871175e-02, 2.67210249e-02, 3.53582762e-02, 1.44061878e-01,
          4.02859785e-03, 1.55870966e-03, 2.94374977e-03, 6.65982661e-04,
          7.22025009e-03, 6.03482535e-04, 2.76477518e-03, 1.52924063e-03,
          4.02745930e-03, 8.72511882e-03, 2.91189062e-03, 5.74602699e-03,
          1.13478571e-03, 1.57731604e-02, 1.05213269e-03, 5.31328004e-03,
          3.18579958e-03, 9.68067348e-03, 2.00313292e-02, 3.31298728e-03,
          5.99154644e-03, 1.27447455e-03, 1.58702582e-02, 1.35868974e-03,
          5.78226894e-03, 4.96778870e-03, 3.74148451e-02, 1.97949745e-02,
          1.77966733e-03, 2.32875836e-03, 4.87914542e-04, 6.19181525e-03,
          5.53048623e-04, 2.43338104e-03, 1.43168680e-03, 1.42664285e-02,
          2.41733864e-02, 1.68662537e-02, 1.37049435e-02, 1.28151476e-02,
          1.71200261e-02, 1.97544098e-02, 2.20477581e-02, 2.31037159e-02,
          2.76826229e-02, 9.44969952e-02, 6.68008178e-02, 5.49453795e-02,
          4.50831167e-02, 5.08071966e-02, 6.01603426e-02, 6.89807609e-02,
          7.32157454e-02, 9.56087261e-02, 9.58019868e-02, 5.87045886e-02,
          3.47290933e-02, 2.92293336e-02, 3.90479527e-02, 4.14055064e-02,
          5.67263514e-02, 7.42537156e-02, 9.63206813e-02, 3.18456069e-02,
          3.05452216e-02, 1.86628085e-02, 1.54693043e-02, 2.05741823e-02,
          1.80721339e-02, 2.01800056e-02, 2.37008967e-02, 2.64191795e-02,
          7.01993257e-02, 6.00356087e-02, 4.92449068e-02, 3.65216248e-02,
          3.70674692e-02, 2.85672676e-02, 4.03066315e-02, 9.30425450e-02,
          8.04128200e-02, 1.89488471e-01, 1.44642949e-01, 1.28635973e-01,
          1.02303319e-01, 1.01812214e-01, 8.71489719e-02, 1.05816163e-01,
          1.42218694e-01, 1.93109989e-01, 2.12380648e-01, 1.39654264e-01,
          8.76945108e-02, 7.13792518e-02, 9.03653055e-02, 8.25811699e-02,
          9.20043960e-02, 1.22075275e-01, 1.95527315e-01, 9.82340127e-02,
          1.07413247e-01, 4.22783010e-02, 2.50229649e-02, 3.61746624e-02,
          4.04187851e-02, 4.97049727e-02, 7.07861185e-02, 9.41914394e-02,
          4.20297347e-02, 3.68959792e-02, 2.96750981e-02, 1.73868462e-02,
          2.56387088e-02, 1.29776308e-02, 2.96371169e-02, 1.91725403e-01,
          1.51734918e-01, 2.51820415e-01, 8.32576379e-02, 7.01896772e-02,
          5.39583638e-02, 6.83039427e-02, 4.84715812e-02, 6.68377578e-02,
          1.80088803e-01, 2.51820415e-01, 2.51820415e-01, 1.65034652e-01,
          5.79332970e-02, 4.05310057e-02, 5.45971096e-02, 3.96370329e-02,
          5.86777180e-02, 7.61975572e-02, 2.51820415e-01, 1.72475338e-01,
          2.15042889e-01, 3.41107734e-02, 1.30079845e-02, 2.19347030e-02,
          1.11228926e-02, 1.75585151e-02, 2.29606200e-02, 3.96506153e-02,
          3.49389203e-03, 1.17522303e-03, 2.30193324e-03, 4.49731335e-04,
          6.37953542e-03, 4.27682506e-04, 2.08629156e-03, 1.36203284e-03,
          4.27165674e-03, 2.53137145e-02, 3.33232596e-03, 5.86789567e-03,
          1.26103708e-03, 1.53870126e-02, 1.38489692e-03, 5.81811648e-03,
          4.81073838e-03, 4.24743183e-02, 4.34925593e-02, 4.38510580e-03,
          5.57454629e-03, 1.13948912e-03, 1.50594236e-02, 1.25760806e-03,
          5.69152366e-03, 3.28911399e-03, 2.64549293e-02, 4.72974358e-03,
          1.38337794e-03, 2.30892352e-03, 4.63683042e-04, 6.41410379e-03,
          4.77712863e-04, 2.11871346e-03, 1.21938274e-03, 3.58503149e-03,
          4.02718931e-02, 2.66981758e-02, 2.09670458e-02, 1.71925481e-02,
          1.92770548e-02, 2.24181954e-02, 2.73438431e-02, 3.09523623e-02,
          4.18142490e-02, 9.00287628e-02, 6.12714402e-02, 3.53809893e-02,
          2.91712079e-02, 3.98466922e-02, 4.10386473e-02, 5.38884588e-02,
          6.96094483e-02, 8.62026960e-02, 7.45094717e-02, 6.75952658e-02,
          4.32495996e-02, 3.50306891e-02, 4.53579798e-02, 3.84760126e-02,
          4.36165445e-02, 5.41855283e-02, 6.38659671e-02, 3.66150104e-02,
          2.10434906e-02, 3.08497008e-02, 4.26637456e-02, 1.92744303e-02,
          9.99153312e-03, 1.54615669e-02, 2.84573697e-02, 4.07984070e-02,
          7.91653991e-02, 5.63775823e-02, 4.76316772e-02, 3.83523703e-02,
          3.91584262e-02, 3.45630012e-02, 4.22709845e-02, 5.63529022e-02,
          8.19260255e-02, 2.07550868e-01, 1.42303184e-01, 8.49103928e-02,
          6.80167377e-02, 9.01350155e-02, 8.50152522e-02, 9.34907869e-02,
          1.20639026e-01, 1.84662446e-01, 2.29972303e-01, 2.50384659e-01,
          1.52563125e-01, 5.78029230e-02, 7.90624395e-02, 8.65536556e-02,
          1.13355108e-01, 1.74943984e-01, 2.35230207e-01, 5.86945340e-02,
          1.12436287e-01, 2.38814265e-01, 6.23183139e-02, 2.53394637e-02,
          1.62183419e-02, 2.93374248e-02, 5.50859533e-02, 7.57905692e-02,
          1.25735417e-01, 3.22281905e-02, 2.64163557e-02, 2.07845736e-02,
          2.63246838e-02, 1.98266618e-02, 2.80786995e-02, 5.32621928e-02,
          2.24439844e-01, 2.50384659e-01, 2.08316550e-01, 5.57499267e-02,
          3.80383581e-02, 5.26575409e-02, 3.60214487e-02, 5.27895056e-02,
          6.75604269e-02, 2.13352457e-01, 2.50384659e-01, 2.50384659e-01,
          1.07332394e-01, 2.76938211e-02, 5.07792495e-02, 2.31490806e-02,
          3.88363861e-02, 5.15645258e-02, 8.58027786e-02, 1.70677193e-02,
          7.52886608e-02, 5.99659495e-02, 4.30870848e-03, 1.76786836e-02,
          2.96931737e-03, 8.64739995e-03, 9.01007839e-03, 1.58492997e-02,
          1.30003924e-02, 1.36284332e-03, 2.32381397e-03, 5.04197902e-04,
          6.03069086e-03, 5.69887459e-04, 2.37676711e-03, 1.85015285e-03,
          1.88611336e-02, 3.74175459e-02, 4.32515237e-03, 5.43180760e-03,
          1.08921935e-03, 1.48166679e-02, 1.16700784e-03, 5.40773897e-03,
          3.07809073e-03, 1.98847800e-02, 9.82954632e-03, 3.07762693e-03,
          5.46229305e-03, 1.08360033e-03, 1.51460227e-02, 1.16490643e-03,
          5.12536662e-03, 2.98492191e-03, 8.52802396e-03, 3.54155805e-03,
          1.24358118e-03, 2.29568663e-03, 4.16530878e-04, 6.10387651e-03,
          4.82743053e-04, 2.25938344e-03, 1.25916360e-03, 3.55002075e-03 ]
      - [ 1.10699302e-02, 3.67779247e-02, 7.12507358e-03, 2.58786231e-03,
          2.61808094e-03, 1.43501046e-03, 1.65924244e-03, 1.78071938e-03,
          2.44385237e-03, 1.65994853e-01, 1.51317716e-01, 2.22825967e-02,
          1.03559876e-02, 1.03789167e-02, 6.66714786e-03, 7.25640822e-03,
          9.39445570e-03, 2.41299346e-02, 2.21636727e-01, 7.16144294e-02,
          2.18712892e-02, 1.40160704e-02, 1.31086474e-02, 1.01778628e-02,
          1.18711488e-02, 1.90702006e-02, 9.82713401e-02, 5.54984622e-02,
          1.43898679e-02, 8.26838426e-03, 6.29666122e-03, 6.23667846e-03,
          5.59667405e-03, 7.59833865e-03, 1.94777176e-02, 7.65185282e-02,
          5.34709133e-02, 2.21636727e-01, 1.83518887e-01, 3.83038558e-02,
          1.96106862e-02, 1.13737006e-02, 9.34641715e-03, 9.68878437e-03,
          1.38393166e-02, 2.21636727e-01, 2.21636727e-01, 1.70379698e-01,
          8.75559077e-02, 6.62853792e-02, 5.56572154e-02, 5.58636598e-02,
          6.22620098e-02, 9.36051905e-02, 2.21636727e-01, 1.82669282e-01,
          1.50657520e-01, 1.09000064e-01, 8.85300860e-02, 7.96901137e-02,
          8.63730609e-02, 9.99402776e-02, 1.53843090e-01, 8.26570019e-02,
          5.96632548e-02, 5.38426749e-02, 4.77868915e-02, 4.45185043e-02,
          4.15338762e-02, 4.66281958e-02, 5.85937314e-02, 9.15088579e-02,
          3.40254568e-02, 8.25538859e-02, 1.21349014e-01, 6.28329664e-02,
          5.24275340e-02, 4.87798974e-02, 3.11960876e-02, 2.39260066e-02,
          2.38769837e-02, 1.21191919e-01, 1.51765108e-01, 1.65841490e-01,
          1.36647716e-01, 1.21147297e-01, 1.01153597e-01, 9.30109471e-02,
          9.53921378e-02, 9.93376449e-02, 1.32334083e-01, 1.59098923e-01,
          1.71852142e-01, 1.34538904e-01, 1.19626544e-01, 1.06127009e-01,
          1.09852374e-01, 1.19069718e-01, 1.23915367e-01, 6.73302561e-02,
          6.33606389e-02, 5.74821234e-02, 5.02357259e-02, 5.10782041e-02,
          4.93137576e-02, 5.59792295e-02, 6.65791035e-02, 7.18614757e-02,
          1.20878369e-02, 1.57240313e-02, 2.17207335e-02, 2.66295020e-02,
          3.55753452e-02, 3.36793400e-02, 2.49903686e-02, 1.99470837e-02,
          1.43612735e-02, 4.31180783e-02, 5.64862937e-02, 6.97252676e-02,
          6.50009960e-02, 5.86329438e-02, 5.15115485e-02, 4.71254699e-02,
          4.22185548e-02, 4.04756181e-02, 4.96787578e-02, 5.58019653e-02,
          5.55194356e-02, 5.02712987e-02, 5.12451641e-02, 4.96380515e-02,
          4.89388108e-02, 4.37539294e-02, 4.40715402e-02, 1.89064592e-02,
          1.87734328e-02, 1.88848749e-02, 1.87015012e-02, 2.04496272e-02,
          2.01086905e-02, 2.18168907e-02, 2.24307384e-02, 2.04966459e-02,
          7.98223391e-02, 5.66610508e-02, 8.71894322e-03, 4.31518769e-03,
          4.35540825e-03, 2.89806142e-03, 3.19852983e-03, 4.27578669e-03,
          1.26020471e-02, 2.02777743e-01, 6.01322502e-02, 2.17540953e-02,
          1.47422077e-02, 1.34993372e-02, 1.07513117e-02, 1.25429016e-02,
          2.15817615e-02, 1.15936287e-01, 1.09740831e-01, 3.11930142e-02,
          1.86682194e-02, 1.41652226e-02, 1.49843497e-02, 1.38316983e-02,
          2.02835873e-02, 5.68870604e-02, 1.80947900e-01, 1.47697181e-02,
          7.84425344e-03, 6.17958466e-03, 4.91872337e-03, 6.68002572e-03,
          6.34338008e-03, 1.21620130e-02, 4.31742407e-02, 5.02888300e-02,
          1.26901239e-01, 1.33797660e-01, 6.05375431e-02, 3.52853164e-02,
          2.81152260e-02, 2.45343409e-02, 2.53083203e-02, 2.87297703e-02,
          4.33614217e-02, 2.02777743e-01, 1.65341437e-01, 1.46726593e-01,
          1.12117901e-01, 9.17158499e-02, 8.25677067e-02, 8.94608200e-02,
          1.03698447e-01, 1.61243558e-01, 1.88950017e-01, 1.38773635e-01,
          1.21332057e-01, 1.07348733e-01, 1.05406672e-01, 1.02677472e-01,
          1.18095554e-01, 1.53401673e-01, 2.02777743e-01, 5.02328351e-02,
          3.98528427e-02, 3.48804966e-02, 3.26896347e-02, 3.90973352e-02,
          4.92819659e-02, 6.83247447e-02, 9.86480191e-02, 8.67151916e-02,
          5.06066009e-02, 6.26681894e-02, 6.95175752e-02, 5.71589246e-02,
          4.84122112e-02, 3.96776013e-02, 3.78874540e-02, 4.03213538e-02,
          4.27136235e-02, 1.31906584e-01, 1.51951417e-01, 1.60051987e-01,
          1.27634779e-01, 1.18262298e-01, 1.07828401e-01, 1.14488460e-01,
          1.23364553e-01, 1.26549497e-01, 1.69270277e-01, 1.51324019e-01,
          1.30511776e-01, 1.14316329e-01, 1.19143248e-01, 1.21524706e-01,
          1.35700986e-01, 1.65453553e-01, 1.82574049e-01, 6.85644522e-02,
          5.45349233e-02, 4.55220528e-02, 4.14787158e-02, 4.95387800e-02,
          6.52458817e-02, 7.34472051e-02, 7.86672384e-02, 7.60550573e-02,
          1.88132841e-02, 2.40424126e-02, 2.82615833e-02, 2.56077796e-02,
          2.31406856e-02, 2.13455036e-02, 1.96327642e-02, 1.66727658e-02,
          1.67174041e-02, 4.72806916e-02, 5.18918894e-02, 5.13136536e-02,
          4.68262210e-02, 4.83457148e-02, 4.60750535e-02, 4.64801565e-02,
          4.30604741e-02, 4.27946188e-02, 4.62692976e-02, 4.51158844e-02,
          4.50498573e-02, 4.47842181e-02, 5.04146740e-02, 5.22545613e-02,
          5.62435240e-02, 5.69145381e-02, 5.21734469e-02, 1.95661020e-02,
          1.82873160e-02, 1.84421912e-02, 1.98364034e-02, 2.71042231e-02,
          3.17803510e-02, 2.85772905e-02, 2.32239999e-02, 2.15227660e-02,
          8.23563114e-02, 2.00798027e-02, 8.90437234e-03, 6.37859805e-03,
          5.74956974e-03, 4.71917260e-03, 5.53733623e-03, 1.02988500e-02,
          5.63087761e-02, 9.00520608e-02, 2.83719748e-02, 1.78050306e-02,
          1.34380376e-02, 1.49853230e-02, 1.40799880e-02, 2.18728129e-02,
          6.51822686e-02, 1.75247297e-01, 2.89567579e-02, 1.63715985e-02,
          1.32879568e-02, 1.10049117e-02, 1.59323066e-02, 1.48903085e-02,
          2.97245178e-02, 1.03790939e-01, 9.98923406e-02, 4.09542536e-03,
          3.36238346e-03, 3.44164786e-03, 3.08961654e-03, 5.71464282e-03,
          4.38299961e-03, 8.31030495e-03, 1.98268984e-02, 8.47067963e-03,
          8.86464715e-02, 6.15032390e-02, 5.87478131e-02, 4.74870577e-02,
          3.94941531e-02, 3.56328376e-02, 3.85529548e-02, 4.50532809e-02,
          7.08712414e-02, 1.78195506e-01, 1.33015886e-01, 1.14002042e-01,
          1.00752249e-01, 1.03375733e-01, 1.04415469e-01, 1.23178743e-01,
          1.63824439e-01, 2.03644201e-01, 1.05738282e-01, 8.48343745e-02,
          7.54061788e-02, 7.26703927e-02, 8.94086733e-02, 1.19705997e-01,
          1.80798084e-01, 2.03644201e-01, 1.92967013e-01, 2.10375823e-02,
          1.88649744e-02, 1.89997759e-02, 2.41411664e-02, 3.95513847e-02,
          5.27360737e-02, 1.09999336e-01, 1.27607614e-01, 4.17538546e-02,
          5.51100969e-02, 6.04089536e-02, 6.18897416e-02, 5.01177870e-02,
          4.85678725e-02, 4.54347730e-02, 4.95514497e-02, 5.33990413e-02,
          5.41683994e-02, 1.73471943e-01, 1.48553416e-01, 1.22545153e-01,
          1.07606120e-01, 1.15237519e-01, 1.23390824e-01, 1.36042818e-01,
          1.68877706e-01, 1.89308524e-01, 1.48460940e-01, 1.22546263e-01,
          1.08669639e-01, 1.00787029e-01, 1.20278485e-01, 1.59914359e-01,
          1.91478789e-01, 1.90184459e-01, 1.66997418e-01, 2.83658169e-02,
          3.20847966e-02, 4.32210676e-02, 6.10728487e-02, 8.51506144e-02,
          7.76970536e-02, 8.54403973e-02, 6.18064627e-02, 3.53631638e-02,
          1.85189191e-02, 1.96949579e-02, 1.94957722e-02, 1.79883353e-02,
          1.88607872e-02, 1.76825710e-02, 1.84482727e-02, 1.77607425e-02,
          1.71877928e-02, 4.69762571e-02, 4.49116863e-02, 4.45182510e-02,
          4.43491228e-02, 5.13000302e-02, 5.52764609e-02, 5.87291457e-02,
          5.87638691e-02, 5.44725806e-02, 4.44216542e-02, 4.29666080e-02,
          4.45673317e-02, 4.94094007e-02, 6.97451159e-02, 7.71045461e-02,
          6.82386756e-02, 5.41302674e-02, 4.78652678e-02, 1.10969618e-02,
          1.43433008e-02, 2.35299375e-02, 3.46639156e-02, 5.83458431e-02,
          3.73814255e-02, 2.22154874e-02, 1.67099554e-02, 1.18665220e-02,
          2.22833436e-02, 1.23077445e-01, 9.04556438e-02, 2.10541878e-02,
          1.04108071e-02, 6.25018077e-03, 4.89536626e-03, 4.84131137e-03,
          6.66404469e-03, 9.37551185e-02, 1.44184381e-01, 7.82576576e-02,
          4.41569500e-02, 3.47805135e-02, 2.99741700e-02, 3.00356653e-02,
          3.26174684e-02, 4.27712575e-02, 6.81899637e-02, 7.24063143e-02,
          7.37234578e-02, 5.28651290e-02, 4.37710769e-02, 4.00857292e-02,
          4.37501483e-02, 4.90582027e-02, 5.67285903e-02, 2.94032451e-02,
          2.68358868e-02, 2.58330535e-02, 2.30966378e-02, 2.19703317e-02,
          2.07647625e-02, 2.31591258e-02, 2.64730006e-02, 3.05054914e-02,
          3.45044248e-02, 7.03266189e-02, 1.03408888e-01, 6.57271445e-02,
          6.42368719e-02, 6.11078665e-02, 3.81860733e-02, 2.84534115e-02,
          2.70452835e-02, 1.22289777e-01, 1.59192845e-01, 1.78967223e-01,
          1.50899947e-01, 1.35280684e-01, 1.11288734e-01, 9.86008272e-02,
          9.90651771e-02, 1.02703832e-01, 1.39392883e-01, 1.66488409e-01,
          1.73882768e-01, 1.42020285e-01, 1.29318446e-01, 1.13070123e-01,
          1.13909364e-01, 1.21631645e-01, 1.27738953e-01, 6.79299235e-02,
          6.43512756e-02, 5.76666296e-02, 5.10733277e-02, 5.28612062e-02,
          5.08978702e-02, 5.75936437e-02, 6.84502870e-02, 7.22423568e-02,
          3.13445814e-02, 3.86537947e-02, 5.31628951e-02, 6.76333085e-02,
          8.93770903e-02, 8.78684223e-02, 7.25476295e-02, 6.47157803e-02,
          4.35591005e-02, 1.07217439e-01, 1.34499565e-01, 1.68574259e-01,
          1.65277883e-01, 1.48683280e-01, 1.39208481e-01, 1.46253794e-01,
          1.41467184e-01, 1.16382800e-01, 1.22707069e-01, 1.39709428e-01,
          1.43469483e-01, 1.32816672e-01, 1.38407707e-01, 1.40493467e-01,
          1.36467665e-01, 1.14413276e-01, 1.10585935e-01, 4.71958183e-02,
          4.85470109e-02, 5.09058982e-02, 5.17253466e-02, 5.60509339e-02,
          5.49356118e-02, 5.71058393e-02, 5.52395806e-02, 5.00662178e-02,
          1.55327860e-02, 1.46189714e-02, 1.44480467e-02, 1.82801150e-02,
          2.54263282e-02, 3.89404260e-02, 4.44887504e-02, 4.17060368e-02,
          2.66764071e-02, 3.81063819e-02, 3.77082527e-02, 4.30681668e-02,
          4.90251221e-02, 5.53083494e-02, 9.17657316e-02, 1.29259557e-01,
          1.05537988e-01, 6.40166774e-02, 3.86113226e-02, 4.46069129e-02,
          4.98648472e-02, 5.81702143e-02, 8.60966593e-02, 1.02628574e-01,
          8.85821730e-02, 5.19745685e-02, 3.97433341e-02, 1.75885744e-02,
          1.95391905e-02, 2.20843107e-02, 2.88136806e-02, 3.43657695e-02,
          3.33488099e-02, 2.85299700e-02, 2.02621408e-02, 1.75805669e-02,
          3.81992757e-02, 4.67382856e-02, 2.92011574e-02, 1.82166640e-02,
          1.49603542e-02, 1.33060785e-02, 1.37313921e-02, 1.52712641e-02,
          1.98227428e-02, 6.64843172e-02, 6.97196499e-02, 7.32660219e-02,
          5.54332137e-02, 4.65487055e-02, 4.28207479e-02, 4.68486622e-02,
          5.20728864e-02, 5.88947088e-02, 7.30549917e-02, 6.48452044e-02,
          5.98538779e-02, 5.34976199e-02, 5.32882549e-02, 5.23869321e-02,
          5.91212921e-02, 6.83416203e-02, 7.76764974e-02, 2.30773091e-02,
          1.93498805e-02, 1.70836747e-02, 1.62338521e-02, 1.95711944e-02,
          2.51104552e-02, 3.33777219e-02, 3.81224044e-02, 3.06662358e-02,
          5.30781932e-02, 6.87901676e-02, 7.74915144e-02, 6.49963096e-02,
          5.55330254e-02, 4.49547730e-02, 4.11936492e-02, 4.26893272e-02,
          4.52769771e-02, 1.42232955e-01, 1.62270710e-01, 1.65302455e-01,
          1.36667117e-01, 1.29337341e-01, 1.16120793e-01, 1.20790072e-01,
          1.28990218e-01, 1.33300900e-01, 1.76025718e-01, 1.58815175e-01,
          1.35709226e-01, 1.20468207e-01, 1.27602607e-01, 1.30564049e-01,
          1.45242646e-01, 1.75755545e-01, 1.89648226e-01, 7.44222775e-02,
          6.01362288e-02, 5.07772639e-02, 4.66591604e-02, 5.61368726e-02,
          7.24342540e-02, 7.76045546e-02, 8.16754997e-02, 8.07672963e-02,
          4.79977615e-02, 5.90895899e-02, 7.07279369e-02, 6.70176297e-02,
          6.08747676e-02, 5.99101484e-02, 6.19834065e-02, 5.47617860e-02,
          4.74658720e-02, 1.20313257e-01, 1.35333657e-01, 1.38337865e-01,
          1.29169762e-01, 1.35356829e-01, 1.33664846e-01, 1.30749732e-01,
          1.14065453e-01, 1.09947674e-01, 1.18057117e-01, 1.19131900e-01,
          1.24650776e-01, 1.27648994e-01, 1.43876985e-01, 1.46919921e-01,
          1.50983065e-01, 1.43478647e-01, 1.29904225e-01, 4.83329371e-02,
          4.65303101e-02, 4.91621643e-02, 5.50109334e-02, 7.62076154e-02,
          8.76768976e-02, 7.72864446e-02, 5.94638437e-02, 5.26610650e-02,
          1.56721082e-02, 1.62381679e-02, 1.90929808e-02, 2.12224554e-02,
          2.48856116e-02, 4.13113087e-02, 5.47321960e-02, 3.85416187e-02,
          2.35548653e-02, 3.98174748e-02, 4.60117310e-02, 5.02304696e-02,
          5.98078221e-02, 8.67451280e-02, 9.72450599e-02, 8.02158341e-02,
          5.02444319e-02, 3.99131030e-02, 4.30114381e-02, 4.83823344e-02,
          5.88632859e-02, 7.70271719e-02, 8.93037021e-02, 8.26103464e-02,
          6.85584694e-02, 4.90120947e-02, 4.28126715e-02, 1.84251573e-02,
          2.66938936e-02, 3.99141088e-02, 3.81823219e-02, 3.62991430e-02,
          3.12935710e-02, 2.64209192e-02, 1.85591467e-02, 1.57551393e-02,
          2.43496932e-02, 2.49656700e-02, 2.69662887e-02, 2.15827338e-02,
          1.85321644e-02, 1.71276089e-02, 1.87334549e-02, 2.07468737e-02,
          2.30702423e-02, 6.65346086e-02, 5.78342266e-02, 5.17346449e-02,
          4.63063568e-02, 4.80261445e-02, 4.88753915e-02, 5.61208352e-02,
          6.53525069e-02, 7.25063607e-02, 4.55946513e-02, 3.85064110e-02,
          3.46623100e-02, 3.37852724e-02, 4.15149480e-02, 5.65924272e-02,
          8.12784359e-02, 9.33091715e-02, 6.48941994e-02, 9.43703111e-03,
          8.77941120e-03, 9.15587600e-03, 1.26459282e-02, 2.02162173e-02,
          2.59150956e-02, 4.86022942e-02, 4.86676134e-02, 1.68842617e-02,
          5.45154549e-02, 5.90089075e-02, 5.85260093e-02, 4.87369336e-02,
          4.81245406e-02, 4.43497375e-02, 4.78133932e-02, 5.13723381e-02,
          5.23002222e-02, 1.67450979e-01, 1.44937530e-01, 1.18845910e-01,
          1.05728388e-01, 1.14869565e-01, 1.23812854e-01, 1.35588020e-01,
          1.65902808e-01, 1.82520002e-01, 1.49786398e-01, 1.25812396e-01,
          1.12831809e-01, 1.05517998e-01, 1.27624840e-01, 1.63549826e-01,
          1.86116472e-01, 1.83804542e-01, 1.64552957e-01, 2.89980322e-02,
          3.41164060e-02, 4.71361391e-02, 6.55670613e-02, 9.44118127e-02,
          8.03572536e-02, 8.05666000e-02, 6.03354834e-02, 3.52598578e-02,
          4.36002240e-02, 4.81131673e-02, 4.92993891e-02, 4.66377623e-02,
          4.92412001e-02, 4.73190434e-02, 4.71095815e-02, 4.28024456e-02,
          4.05575484e-02, 1.10122934e-01, 1.08962126e-01, 1.13742739e-01,
          1.17176257e-01, 1.36423513e-01, 1.43226102e-01, 1.45091116e-01,
          1.36515319e-01, 1.24517687e-01, 1.01895578e-01, 1.02156065e-01,
          1.13086052e-01, 1.27562791e-01, 1.78957447e-01, 1.96154714e-01,
          1.69853687e-01, 1.27661660e-01, 1.08745344e-01, 2.75138039e-02,
          3.81340459e-02, 7.09505230e-02, 9.46719199e-02, 1.43347472e-01,
          8.91514719e-02, 5.03973477e-02, 3.72887924e-02, 2.79925708e-02,
          1.54366884e-02, 1.76888593e-02, 1.88014712e-02, 2.28406079e-02,
          3.21082249e-02, 3.37514021e-02, 2.68217232e-02, 1.81748644e-02,
          1.50884809e-02, 3.92300449e-02, 4.49933745e-02, 5.78905344e-02,
          7.55534545e-02, 8.46889094e-02, 7.48901218e-02, 6.08811826e-02,
          4.38978858e-02, 3.85378115e-02, 4.19859625e-02, 6.84419200e-02,
          1.07407056e-01, 9.12818685e-02, 7.75047988e-02, 6.76576793e-02,
          5.93002550e-02, 4.10118625e-02, 3.39430347e-02, 1.90254953e-02,
          4.23922576e-02, 6.96428344e-02, 5.63517697e-02, 4.06854376e-02,
          2.45175008e-02, 1.70639809e-02, 1.20641990e-02, 1.09277871e-02,
          1.21902330e-02, 1.98893845e-02, 2.87503786e-02, 2.41543259e-02,
          2.76293606e-02, 2.61959713e-02, 1.62248798e-02, 1.18356366e-02,
          1.07100224e-02, 4.24850248e-02, 5.83486296e-02, 6.81621805e-02,
          5.80114760e-02, 5.28011099e-02, 4.33772095e-02, 3.69779617e-02,
          3.58224586e-02, 3.68968211e-02, 5.09320311e-02, 6.01124540e-02,
          6.05501905e-02, 5.18615022e-02, 4.88168262e-02, 4.24307548e-02,
          4.13613059e-02, 4.30724099e-02, 4.56851609e-02, 2.33486723e-02,
          2.23120712e-02, 1.99186876e-02, 1.81036927e-02, 1.91289689e-02,
          1.84143055e-02, 2.07239185e-02, 2.43212208e-02, 2.47469656e-02,
          2.86537353e-02, 3.35967354e-02, 4.50937636e-02, 5.93449995e-02,
          7.76964873e-02, 7.97738582e-02, 7.18531236e-02, 6.99503198e-02,
          4.52294126e-02, 9.29712877e-02, 1.12029105e-01, 1.41657531e-01,
          1.47784248e-01, 1.33124620e-01, 1.30758196e-01, 1.52409270e-01,
