%YAML:1.0
---
opencv_ml_svm:
   format: 3
   svmType: C_SVC
   kernel:
      type: LINEAR
   C: 2.5000000000000000e+00
   term_criteria: { epsilon:1.1920928955078125e-07, iterations:1000 }
   var_count: 2160
   class_count: 2
   class_labels: !!opencv-matrix
      rows: 2
      cols: 1
      dt: i
      data: [ 0, 1 ]
   sv_total: 1
   support_vectors:
      - [ -1.39845051e-02, -1.56835967e-03, -2.41314545e-02,
          -4.75133257e-03, -1.36715611e-02, -2.36846809e-03,
          -7.34658586e-03, -5.01243072e-03, -1.04739536e-02,
          1.45933311e-02, 7.46812299e-02, 6.71060709e-03, 4.40589301e-02,
          4.27745486e-04, 2.67327651e-02, 8.36834032e-03, 1.59978122e-02,
          -1.34463515e-02, 1.36035979e-01, 1.35402977e-01,
          6.81865662e-02, 6.90973848e-02, 3.79628688e-02, 8.46118554e-02,
          9.17367265e-02, 1.01246208e-01, 1.25583693e-01, 1.58990975e-02,
          7.94655364e-03, 5.86438691e-03, 1.00411810e-02, 7.55867641e-03,
          2.61920616e-02, 2.57229693e-02, 2.85041723e-02, 2.55698208e-02,
          -6.17557615e-02, -4.08609100e-02, -1.41548943e-02,
          -6.02402501e-02, -9.97956656e-03, 2.86397990e-02,
          2.86837202e-02, 1.20890224e-02, -3.35259885e-02,
          2.53201020e-03, 2.10935056e-01, 4.66002002e-02, 1.67713374e-01,
          2.78924674e-01, 2.92056680e-01, 1.56623706e-01, 8.00404176e-02,
          -2.05264408e-02, 9.46128815e-02, 1.64685547e-01,
          2.25025415e-01, 2.11176261e-01, 3.19724202e-01, 2.42483467e-01,
          1.28479987e-01, 4.14822064e-02, -7.69659951e-02,
          2.28368323e-02, 9.27514061e-02, 1.00539207e-01, 1.00453570e-01,
          1.53195947e-01, 1.38235494e-01, 1.13995664e-01, 1.06510989e-01,
          -2.02726712e-03, -1.34119436e-01, -1.12819202e-01,
          -1.77315120e-02, -1.05306013e-02, -9.04192030e-02,
          -1.39779255e-01, -7.84625337e-02, -5.44425584e-02,
          -1.19906619e-01, -3.86677742e-01, -3.67159635e-01,
          -1.67027950e-01, 9.14863050e-02, 3.21831077e-01,
          4.66896631e-02, -1.11919735e-02, -1.16025172e-01,
          -2.11457938e-01, -2.15306967e-01, -7.42756724e-02,
          6.10899087e-03, -9.29294378e-02, -5.22288308e-03,
          -2.22400010e-01, -3.40614468e-01, -4.26229566e-01,
          -3.43510270e-01, -3.79604809e-02, -9.79146920e-04,
          2.07361989e-02, 4.13252860e-02, 1.02624901e-01, 3.35161909e-02,
          -4.75399866e-04, -2.01314669e-02, -5.63735999e-02,
          -4.99507599e-03, 9.94931906e-03, 1.53865619e-02,
          3.25930715e-02, -1.33064270e-01, -1.69728696e-01,
          -7.71390125e-02, -5.11938483e-02, -1.83371417e-02,
          2.85461396e-02, 7.41082057e-02, 9.70900953e-02, 1.39466831e-02,
          -1.45354316e-01, -1.67528063e-01, -1.04943149e-01,
          -7.25739971e-02, -1.50858769e-02, 6.43113703e-02,
          1.31627887e-01, 7.99876079e-02, -1.89774036e-02,
          -3.53578888e-02, -9.85406190e-02, -1.39216840e-01,
          -1.33987769e-01, -4.29564677e-02, 5.78998886e-02,
          4.97382060e-02, 4.42504175e-02, 3.51823866e-02, 4.14427929e-02,
          -2.00897711e-03, -8.78900196e-03, 2.38120705e-02,
          4.55945432e-02, -1.88972001e-04, 2.70258095e-02,
          9.27648693e-03, 2.26188861e-02, 1.60099927e-03, 1.43732261e-02,
          6.18964294e-03, 9.00541805e-03, -5.98973222e-03,
          1.10026151e-01, 9.33339074e-02, 4.76116203e-02, 5.33980578e-02,
          2.84572653e-02, 8.15271214e-02, 8.85123089e-02, 9.42234844e-02,
          1.02898262e-01, -1.43976565e-02, -2.30652606e-03,
          -2.16658344e-03, 1.32087208e-02, 2.50746496e-03,
          4.65023667e-02, 3.56553458e-02, 3.30902636e-02,
          -5.63079044e-02, -1.34705016e-02, -3.24599072e-03,
          -6.32490078e-03, -2.59938533e-04, -9.28961858e-03,
          5.54180378e-03, -1.14253294e-02, -4.29242477e-02,
          -5.63084483e-02, -8.55396539e-02, 4.36368249e-02,
          1.94851402e-02, 7.31276646e-02, 1.10895313e-01, 1.04899272e-01,
          3.71312834e-02, 1.22967986e-02, -3.02545000e-02,
          3.00938971e-02, 1.27498776e-01, 1.51653200e-01, 1.31746173e-01,
          2.56922662e-01, 1.92618549e-01, 9.98873711e-02, 1.30139710e-02,
          -1.39574632e-01, -5.58584258e-02, 1.26843601e-01,
          1.72320351e-01, 1.92752033e-01, 3.10217142e-01, 2.74105668e-01,
          2.05420122e-01, 2.15359613e-01, 2.66175717e-02,
          -2.23340578e-02, 5.93704870e-03, 1.28431637e-02,
          4.74088006e-02, 1.05341278e-01, 1.03955127e-01, 7.34490678e-02,
          3.78521602e-03, -4.91979048e-02, -1.99314803e-01,
          -1.71773866e-01, -4.29186337e-02, 2.89321672e-02,
          8.17999989e-02, -2.22581364e-02, -6.53018504e-02,
          -1.12715617e-01, -1.33796111e-01, -2.88376629e-01,
          -1.42770886e-01, -1.04993664e-01, -2.15411812e-01,
          -9.41883475e-02, -2.82114714e-01, -3.81494552e-01,
          -4.65084881e-01, -3.79495770e-01, -1.38040230e-01,
          -4.48298715e-02, 1.34279504e-02, 7.56321475e-02,
          2.04982266e-01, 4.43463027e-02, -3.85542698e-02,
          -1.19006507e-01, -2.16645539e-01, -5.87431677e-02,
          -3.38748507e-02, -1.34073133e-02, 2.68458854e-02,
          9.97982100e-02, 6.41819760e-02, -1.80600677e-02,
          -9.11836252e-02, -9.80500057e-02, 6.88190805e-03,
          2.72937287e-02, 2.45441068e-02, -1.93336792e-02,
          -6.33711070e-02, -6.44790456e-02, -5.47509156e-02,
          -5.03327288e-02, -2.04145703e-02, 3.19574624e-02,
          7.95953721e-02, 3.58392559e-02, -4.56539281e-02,
          -5.43867089e-02, -1.27067417e-01, -1.65379703e-01,
          -1.54051289e-01, -6.49110228e-02, 1.08846486e-01,
          9.38534439e-02, 8.66908729e-02, 4.57253195e-02, 5.27990386e-02,
          -6.26816675e-02, -7.89833367e-02, 1.83946062e-02,
          7.68431202e-02, -1.10458466e-03, 4.71805129e-03,
          -5.13534015e-03, -3.37861963e-02, -1.52523667e-02,
          -1.90636199e-02, -3.53599116e-02, -3.27639133e-02,
          -7.45861372e-03, 4.62760516e-02, 3.57422158e-02,
          1.77725311e-02, 1.85809378e-02, 1.09537076e-02, 3.60665172e-02,
          4.06693369e-02, 4.30584475e-02, 4.69782725e-02,
          -2.77341623e-02, -6.55494630e-03, -7.12954486e-03,
          8.38108361e-03, -5.14731184e-03, 3.97571176e-02,
          2.35869344e-02, 1.32595198e-02, -8.66826549e-02,
          -4.61451821e-02, -1.40069919e-02, -2.21172143e-02,
          -7.89057743e-03, -3.23516056e-02, 4.07863874e-03,
          -4.70116250e-02, -1.58490598e-01, -1.61368221e-01,
          -1.71749499e-02, -7.21326843e-03, -9.07759089e-03,
          -4.12401557e-03, -2.04320997e-02, -7.31904805e-03,
          -3.99640575e-02, -6.66685849e-02, -3.08454502e-02,
          -2.37449724e-02, 7.71507174e-02, 7.28952065e-02,
          5.90456687e-02, 1.16586387e-01, 9.21157598e-02, 5.63502684e-02,
          1.53510654e-02, -4.84388582e-02, -9.06545669e-03,
          1.28575519e-01, 1.60642415e-01, 2.12204948e-01, 3.39389324e-01,
          3.08351040e-01, 2.23038375e-01, 2.28790760e-01,
          -1.13831563e-02, -1.19138867e-01, -4.43871729e-02,
          -1.29147628e-02, 7.14916587e-02, 2.06338629e-01,
          2.09987715e-01, 1.67063683e-01, 2.81713754e-02,
          -1.08164765e-01, -1.17862105e-01, -9.38108563e-02,
          -6.50066882e-02, -4.28711548e-02, -8.30965936e-02,
          -7.42545426e-02, -9.15644243e-02, -1.91295952e-01,
          -9.45740193e-02, -1.42907128e-01, -6.11943491e-02,
          -7.09968582e-02, -1.19629398e-01, -6.52391016e-02,
          -1.17718056e-01, -1.67003259e-01, -2.17157602e-01,
          -1.94285855e-01, -1.28711209e-01, -1.67312957e-02,
          4.73445132e-02, 1.27118215e-01, 2.58548588e-01, 1.09315723e-01,
          -1.42712742e-02, -1.12205677e-01, -2.43664488e-01,
          -1.99527666e-01, -1.93235010e-01, -1.22864351e-01,
          3.85118974e-03, 2.27905974e-01, 1.08321644e-01, 8.27221721e-02,
          -2.21188623e-03, -1.92653120e-01, -1.49333745e-01,
          -2.30971277e-01, -2.10225761e-01, -2.21986100e-01,
          -1.97131202e-01, -8.31492245e-02, -1.06154613e-01,
          3.13949287e-02, -1.75700691e-02, 1.86185408e-02,
          3.03020850e-02, 1.52543392e-02, -1.20849134e-02,
          -1.64645482e-02, -5.05320728e-02, -6.37330264e-02,
          -5.46358228e-02, -1.78003181e-02, 1.12009265e-01,
          1.09222084e-01, 1.04500040e-01, 4.23300080e-02, 4.47332002e-02,
          -8.06934983e-02, -9.73694995e-02, 1.57871526e-02,
          7.54489675e-02, -4.52242456e-02, -5.48814274e-02,
          -1.06499150e-01, -1.52935982e-01, -3.95325348e-02,
          -3.97385806e-02, -8.38362575e-02, -8.57141763e-02,
          -3.04148551e-02, -7.05378726e-02, -1.12582155e-01,
          -1.59634173e-01, -2.01241598e-01, -6.32420927e-02,
          -5.42153046e-03, -2.39762869e-02, -1.58192366e-02,
          -2.82569211e-02, -1.75132435e-02, 1.58106089e-02,
          2.51550674e-02, -1.45512121e-02, 1.23849120e-02,
          2.42002755e-02, 2.48404723e-02, 1.67219359e-02,
          -6.90391846e-03, -3.74114551e-02, -2.70234086e-02,
          4.68579382e-02, 9.11393613e-02, 1.71641782e-01, 1.64108068e-01,
          1.10529289e-01, 7.52958804e-02, 2.49774437e-02, 5.32808667e-03,
          1.23031683e-01, 1.09389871e-01, 1.00672036e-01, 1.58602923e-01,
          1.06722765e-01, 5.27465194e-02, 2.23820955e-02,
          -1.03304368e-02, 1.25234835e-02, 5.26342392e-02,
          6.52834103e-02, 6.07078038e-02, 8.33609626e-02, 6.35740533e-02,
          4.94460873e-02, 4.13306653e-02, -4.14104667e-03,
          -1.15293913e-01, -9.03115720e-02, -3.86882573e-04,
          8.92938077e-02, -3.42324935e-02, -1.23169571e-01,
          -6.58996180e-02, -4.26631793e-02, -1.02277040e-01,
          -2.38223031e-01, -2.83149004e-01, -3.42416242e-02,
          2.74644583e-01, 3.68432701e-01, 1.17561929e-01, 2.53678840e-02,
          -6.82175308e-02, -1.17418945e-01, -1.08726963e-01,
          1.25663623e-01, 1.46431252e-01, 5.91416378e-03, 8.74636546e-02,
          -1.58627838e-01, -2.88828909e-01, -3.80987406e-01,
          -2.76353657e-01, 3.86678986e-02, 4.85153012e-02,
          5.36654703e-02, 7.32490271e-02, 1.29313245e-01, 5.33239208e-02,
          2.75178961e-02, 3.22629437e-02, 2.42349431e-02, 3.61373611e-02,
          5.97147904e-02, 7.13951886e-02, 7.87615106e-02,
          -1.87084869e-01, -2.95326799e-01, -1.29226819e-01,
          -6.92661777e-02, 7.11537804e-03, 1.38589695e-01,
          2.23077402e-01, 2.56956607e-01, 8.53134915e-02, 1.14818484e-01,
          6.12199493e-02, -9.74740535e-02, -9.50817838e-02,
          4.26809974e-02, 2.48050511e-01, 3.40589374e-01, 2.42781639e-01,
          6.70506582e-02, 6.74495846e-02, -7.13015571e-02,
          -1.46720991e-01, -1.36270598e-01, 4.14219685e-02,
          2.03676492e-01, 1.76546365e-01, 1.55312300e-01, 1.14695467e-01,
          1.16057582e-01, 1.79775991e-02, 2.47861184e-02, 1.16100855e-01,
          1.81020737e-01, -1.33149642e-02, -8.77788104e-03,
          -1.34823052e-03, 1.13785057e-03, 5.07089216e-03,
          -3.89988311e-02, -7.24303797e-02, -2.38671228e-02,
          -1.72461253e-02, 1.71317835e-03, 6.35160655e-02,
          6.39018640e-02, -1.21684419e-03, -8.44421238e-03,
          -9.05321762e-02, -2.51036733e-01, -2.05637425e-01,
          -7.60209486e-02, 9.36328396e-02, 1.26307055e-01,
          1.24092303e-01, 6.41560033e-02, 9.04335380e-02, 5.46039864e-02,
          -5.60626872e-02, -1.08400695e-01, 2.22774092e-02,
          3.10549941e-02, 3.27525809e-02, 5.75028658e-02, 4.92965207e-02,
          3.40686664e-02, 1.13660032e-02, 1.87965520e-02, 2.33305804e-02,
          2.41595749e-02, -3.11617572e-02, 1.79826729e-02,
          1.17811011e-02, 3.20059136e-02, 6.15638942e-02, 5.25259301e-02,
          2.60398947e-02, 1.62361581e-02, -3.18365195e-03,
          -8.93312916e-02, 9.05585513e-02, 7.73448572e-02,
          5.64221218e-02, 1.17082894e-01, 6.42413497e-02, 1.65191982e-02,
          -2.18352340e-02, -5.76734692e-02, 9.28923395e-03,
          9.67969000e-02, 1.21152051e-01, 1.17516473e-01, 1.69934541e-01,
          1.26817271e-01, 9.20874327e-02, 8.53013694e-02,
          -6.48182034e-02, -1.63022254e-03, 1.18804537e-02,
          1.72962062e-02, 3.30473632e-02, 6.63237274e-02, 5.94909750e-02,
          5.05458415e-02, 1.85519196e-02, -8.83821584e-03,
          -1.31691143e-01, -1.05201423e-01, 1.31301265e-02,
          8.01973119e-02, 1.22341178e-01, -5.88141074e-06,
          -5.55210561e-02, -1.00083597e-01, -9.68854278e-02,
          -1.75712496e-01, 1.07122781e-02, -9.83251026e-04,
          -1.34093478e-01, -2.19292976e-02, -2.40277171e-01,
          -3.44927996e-01, -4.27275032e-01, -3.32446933e-01,
          1.30401114e-02, 4.30212542e-02, 6.32200614e-02, 1.19053110e-01,
          2.27416828e-01, 6.01832159e-02, -2.79650325e-03,
          -7.94584304e-03, -4.13661227e-02, -2.86736209e-02,
          -2.07197890e-02, -8.88316799e-03, 2.17544530e-02,
          1.00555122e-01, 8.65665972e-02, 1.71938073e-02,
          -4.27768007e-02, -4.83606942e-02, 4.23891544e-02,
          7.66830519e-02, 5.83313145e-02, -3.36472467e-02,
          -7.87746087e-02, -8.15096647e-02, -1.01229794e-01,
          -8.69755298e-02, -1.72709581e-02, 1.90783620e-01,
          2.27936819e-01, 1.37010574e-01, -7.39770290e-03,
          -1.76451001e-02, -1.78466678e-01, -2.32883036e-01,
          -1.91468760e-01, -3.04449559e-03, 4.05666947e-01,
          3.52145404e-01, 3.02622169e-01, 1.61042154e-01, 1.45873383e-01,
          -9.88890082e-02, -1.13238849e-01, 1.55606315e-01,
          3.42970073e-01, 4.57217470e-02, 4.94195856e-02,
          -7.79799360e-04, -5.80853857e-02, -4.69243061e-03,
          -2.35924311e-02, -3.72230634e-02, -1.30007630e-02,
          4.39626724e-02, -1.07554970e-02, 2.29277369e-02,
          1.59287676e-02, -2.94072647e-02, -3.29640694e-02,
          -5.01609333e-02, -1.40544310e-01, -1.48638681e-01,
          -6.43779114e-02, 6.47788942e-02, 7.28514120e-02,
          7.17718676e-02, 2.68515386e-02, 4.32394110e-02,
          -1.08301919e-02, -8.87413993e-02, -1.16953194e-01,
          2.37243972e-03, 2.70455200e-02, 4.61471863e-02, 1.01068750e-01,
          7.43528232e-02, 2.99373288e-02, -3.90843078e-02,
          -3.12528349e-02, -1.33197811e-02, 2.50412361e-03,
          -8.63926671e-03, -9.47167352e-03, -6.11834154e-02,
          -3.94396186e-02, -4.39912174e-03, -1.60741769e-02,
          -6.73371740e-03, 1.06485579e-02, 1.41016562e-02,
          -2.15892890e-03, 3.39157209e-02, 3.60993035e-02,
          2.42109597e-02, 4.73830886e-02, 2.57241949e-02, 5.70755219e-03,
          -1.43361287e-02, -3.30269039e-02, 1.11548649e-02,
          8.68497416e-02, 1.11089692e-01, 1.20918617e-01, 1.72994494e-01,
          1.39170825e-01, 1.03874728e-01, 1.06223166e-01,
          -2.45989859e-02, -3.21010053e-02, -2.91764876e-03,
          1.60287879e-02, 5.30140176e-02, 1.30328715e-01, 1.24873765e-01,
          1.30137071e-01, -9.19944048e-03, -3.70178521e-02,
          -4.83587421e-02, -4.00929227e-02, -2.46578977e-02,
          -1.69355813e-02, -3.02146710e-02, -2.24291161e-02,
          -1.83058449e-03, -3.60671133e-02, -2.80595943e-02,
          -8.91060531e-02, -1.79784317e-02, -3.12830545e-02,
          -8.35926831e-02, -5.12672625e-02, -9.93928760e-02,
          -1.40617698e-01, -1.81371719e-01, -1.48099571e-01,
          1.70757398e-02, 5.59419878e-02, 7.06571490e-02, 1.32823378e-01,
          2.20604703e-01, 8.38917494e-02, 1.69781763e-02, 2.78547918e-03,
          -7.20654279e-02, -1.25686184e-01, -1.58502311e-01,
          -1.07964605e-01, -3.76181444e-03, 2.37888336e-01,
          1.75359517e-01, 4.74470779e-02, 9.85797215e-03,
          -7.57562593e-02, -1.19877875e-01, -2.16483027e-01,
          -2.05195129e-01, -2.27445960e-01, -1.54018134e-01,
          -7.58984219e-03, -7.58485422e-02, 7.76751563e-02,
          1.88856013e-02, 9.27657709e-02, 1.10130362e-01, 8.13573301e-02,
          1.61598083e-02, -1.16986304e-03, -7.77186155e-02,
          -8.62701684e-02, -5.57084158e-02, 2.06292905e-02,
          3.85728151e-01, 3.61223996e-01, 2.75165796e-01, 1.39539376e-01,
          1.08581737e-01, -9.81921107e-02, -1.33380398e-01,
          1.34401396e-01, 3.22533816e-01, 9.06814449e-03,
          -3.09185535e-02, -1.39460668e-01, -2.03928918e-01,
          -4.77186181e-02, -2.66781673e-02, -1.70832835e-02,
          -4.14304212e-02, 5.98742738e-02, -1.15330726e-01,
          -1.80420160e-01, -3.01142126e-01, -3.85065228e-01,
          -5.88866808e-02, 9.22084972e-03, -1.12585537e-02,
          -3.14478166e-02, -5.61910681e-02, 3.05795223e-02,
          2.52421107e-02, 2.87301224e-02, 2.00931281e-02, 2.05088351e-02,
          -6.37240568e-03, -1.64504535e-02, -1.52037749e-02,
          1.44512765e-02, 2.47341804e-02, 4.95894253e-02, 1.01744413e-01,
          7.89388940e-02, 3.70748229e-02, -3.96318398e-02,
          -4.12827581e-02, -1.68673154e-02, 7.33407587e-03,
          -3.47553156e-02, -4.89086621e-02, -2.08569974e-01,
          -1.61764771e-01, -4.28239778e-02, -3.81579772e-02,
          1.41278177e-03, 3.43984477e-02, 2.56964955e-02,
          -4.16931286e-02, -1.81067009e-02, -6.18212298e-02,
          -6.44730031e-02, -2.42934413e-02, -3.63123454e-02,
          -1.71643775e-02, -2.12706774e-02, -2.51801778e-02,
          -6.26049340e-02, -4.80164476e-02, 5.70012303e-03,
          6.02555834e-02, -1.68026946e-02, -6.16160817e-02,
          -3.82505879e-02, -3.34370248e-02, -5.69844432e-02,
          -1.18739165e-01, -1.43294111e-01, -4.96084848e-03,
          1.00110292e-01, 1.19263448e-01, 2.79882038e-03,
          -3.92523445e-02, -7.42796063e-02, -7.51684234e-02,
          -1.06929168e-01, 5.61731809e-04, -4.89663798e-03,
          -7.55074397e-02, -7.71975592e-02, -1.39604509e-01,
          -2.01919690e-01, -2.53383815e-01, -1.96703300e-01,
          1.57388542e-02, 1.25241969e-02, 4.88382392e-03, 1.31275719e-02,
          3.19487266e-02, -1.80234923e-03, -9.31128301e-03,
          1.74803624e-03, 6.67575141e-03, 2.98325960e-02, 4.16268371e-02,
          4.13144529e-02, 2.90359687e-02, -1.33093879e-01,
          -2.40122974e-01, -1.21680051e-01, -6.42659366e-02,
          4.73228656e-03, 8.47248659e-02, 1.59016341e-01, 1.67892948e-01,
          -4.53979932e-02, -1.61284223e-01, -8.66314843e-02,
          -2.29615092e-01, -1.40431449e-01, -4.82869428e-03,
          1.99462697e-01, 2.64262825e-01, 1.83706239e-01,
          -1.75149962e-02, 5.56125231e-02, -8.65942687e-02,
          -1.61880404e-01, -1.24215059e-01, 3.22679505e-02,
          1.99267939e-01, 1.67593017e-01, 1.39500558e-01, 7.97818974e-02,
          5.73387705e-02, -2.84929629e-02, 1.57267519e-03,
          1.05342597e-01, 1.79463655e-01, -5.82987070e-02,
          -5.93295544e-02, -3.88076305e-02, -2.01184377e-02,
          7.64182629e-03, -5.44649996e-02, -1.28361821e-01,
          -3.72864865e-02, -2.55373940e-02, -4.04945835e-02,
          6.20144345e-02, 6.83557242e-02, -3.37527692e-02,
          -4.34775092e-02, -1.43722251e-01, -1.68702975e-02,
          8.25714469e-02, -1.00131772e-01, 1.77374765e-01,
          2.17145324e-01, 2.37412751e-01, 1.16979420e-01, 2.05049068e-01,
          1.48182720e-01, 4.87112403e-02, -5.37966238e-03,
          5.28955124e-02, 3.15517411e-02, 2.06904970e-02, 7.98081532e-02,
          6.81969449e-02, 5.53593226e-02, 1.27670644e-02, 2.15165205e-02,
          3.78637016e-03, -6.20564097e-04, -4.91638072e-02,
          -4.56084646e-02, -3.38985771e-02, -1.49344709e-02,
          4.02656524e-03, -5.03752474e-03, -3.00434581e-03,
          -1.04681379e-03, -2.53656022e-02, -6.00703023e-02,
          -4.06803340e-02, -8.10100287e-02, -3.94890830e-02,
          6.56632101e-03, 6.47039444e-04, 1.26872256e-01, 1.95040584e-01,
          -1.95099860e-02, 1.40434146e-01, 8.36690664e-02,
          4.89123613e-02, 1.77100804e-02, 6.00212403e-02, 7.69216120e-02,
          1.16202973e-01, 6.06917217e-02, 1.16747580e-01, 3.17859873e-02,
          2.04614014e-03, 5.28448112e-02, 2.55664531e-02, 1.91269256e-02,
          -1.04791066e-02, -4.27388810e-02, -6.21691868e-02,
          -2.57966705e-02, -4.86481078e-02, -4.66975011e-02,
          -9.22762789e-04, 2.82297451e-02, 3.43468897e-02,
          -1.40776979e-02, -3.85407284e-02, -5.37986532e-02,
          -4.21256125e-02, -1.18404329e-01, -2.64138673e-02,
          -3.73417661e-02, -9.88014191e-02, -9.44333524e-02,
          -1.44775733e-01, -1.94537282e-01, -2.42793933e-01,
          -1.98509544e-01, 2.25771368e-02, 1.89606696e-02,
          5.62315760e-03, 2.79456209e-02, 6.99709803e-02,
          -1.64102186e-02, -3.88602503e-02, -1.89849176e-02,
          -1.10485023e-02, -2.01290902e-02, -2.04589106e-02,
          -1.71823930e-02, -6.69710618e-03, 2.62653120e-02,
          2.38352865e-02, -7.55241280e-03, -2.39394084e-02,
          -2.15517804e-02, 3.80370356e-02, 7.01699853e-02,
          4.05469984e-02, -6.13196343e-02, -8.70930105e-02,
          -7.04464540e-02, -9.96679664e-02, -7.96901509e-02,
          -1.57161988e-02, 1.98921859e-01, 2.14729011e-01,
          1.40479788e-01, -1.14842467e-02, 1.86255537e-02,
          -1.56031311e-01, -1.89000905e-01, -1.18442968e-01,
          4.32797112e-02, 4.28518534e-01, 3.74052376e-01, 3.00192565e-01,
          1.29213452e-01, 4.76967506e-02, -1.30549237e-01,
          -1.12977542e-01, 1.53146535e-01, 3.80098999e-01,
          5.25155440e-02, 5.11402041e-02, -5.64456964e-03,
          -4.80763391e-02, -1.68789085e-02, -4.88915443e-02,
          -3.77558954e-02, 7.75665650e-03, 5.65727800e-02,
          -1.83018465e-02, 4.37969528e-02, 3.99185084e-02,
          -3.30314450e-02, -4.18619886e-02, -5.68744764e-02,
          -1.75449684e-01, -1.96330070e-01, -8.75170678e-02,
          1.52480051e-01, 1.41129509e-01, 1.66303858e-01, 8.30546767e-02,
          1.42789498e-01, 8.11764076e-02, 3.17802094e-02,
          -1.27811292e-02, 2.66687516e-02, 8.70505348e-03,
          5.83595596e-03, -7.08200317e-03, 4.16016094e-02,
          6.93545118e-02, -5.74126951e-02, -7.22769797e-02,
          -1.11510448e-01, -7.64478818e-02, -2.19832137e-02,
          -4.38348129e-02, -1.30143330e-01, -5.48501052e-02,
          -8.43326654e-03, -3.95587422e-02, -2.24307608e-02,
          1.27752207e-03, 4.39282972e-04, -2.89924778e-02,
          -1.27224261e-02, -3.43056135e-02, -1.94922294e-02,
          -3.22610047e-03, 3.61877400e-03, 5.84561825e-02,
          7.71144181e-02, -1.80000849e-02, 1.45075530e-01,
          6.19749837e-02, 4.90681678e-02, 5.50637906e-03, 4.70446795e-02,
          5.10781109e-02, 6.50179982e-02, -2.67226323e-02,
          8.07552785e-02, -4.21113446e-02, -6.18455410e-02,
          6.59177527e-02, 3.86495851e-02, 2.25426201e-02,
          -6.25809506e-02, -1.83409125e-01, -2.43124306e-01,
          -1.60700828e-01, -6.94942400e-02, -9.83290076e-02,
          -8.39641094e-02, -5.62570384e-03, 1.34538598e-02,
          -1.56415664e-02, -4.10217270e-02, -8.19387585e-02,
          -8.81288648e-02, -2.94455793e-02, -1.32802408e-03,
          -1.10978037e-02, -3.26329768e-02, -2.73419842e-02,
          -4.38201874e-02, -5.74013367e-02, -7.25968033e-02,
          -5.75154498e-02, 4.82571349e-02, 4.30319458e-02,
          2.85537820e-02, 5.02812788e-02, 9.69416276e-02, 1.55791724e-02,
          -4.37379768e-03, 1.05440253e-02, 1.19608575e-02,
          -4.54996750e-02, -6.96118027e-02, -5.35860956e-02,
          -1.61372963e-02, 9.31298807e-02, 7.56429955e-02,
          3.07753799e-04, -1.79057699e-02, -1.08544268e-02,
          -5.05876318e-02, -9.43130255e-02, -9.06211957e-02,
          -1.00038320e-01, -4.69414555e-02, 2.55251732e-02,
          3.40346731e-02, 3.31602469e-02, 7.73537625e-03, 1.30998045e-01,
          1.41266942e-01, 1.14064582e-01, 4.14699204e-02, 1.09772254e-02,
          -5.80455698e-02, -4.58879992e-02, -3.14871501e-03,
          6.94185272e-02, 4.73453104e-01, 4.41726804e-01, 3.58432055e-01,
          1.64831519e-01, 8.61992240e-02, -8.68952349e-02,
          -9.40717384e-02, 1.97004706e-01, 4.21747506e-01,
          8.63828883e-02, 4.37920503e-02, -4.84871790e-02,
          -2.11429954e-01, 4.01460342e-02, -5.25589846e-02,
          -5.99417090e-03, 6.24135546e-02, 1.43408522e-01,
          -7.95208812e-02, -1.18194416e-01, -2.23846629e-01,
          -2.98808485e-01, 9.47721675e-03, -5.69331460e-03,
          -1.37123372e-02, -3.86891216e-02, -5.28681986e-02,
          9.44368467e-02, 7.11198002e-02, 8.49632099e-02, 6.78314343e-02,
          9.77682620e-02, 4.24726605e-02, 8.68221372e-03,
          -2.20985413e-02, 5.24744354e-02, 3.40609401e-02,
          9.26798061e-02, 3.15750130e-02, 8.82439837e-02, 1.38206318e-01,
          -2.23305468e-02, -6.13465086e-02, -7.85541832e-02,
          -4.19258326e-02, -2.58997288e-02, -7.03032166e-02,
          -3.84763665e-02, -7.52172396e-02, 2.75653433e-02,
          -4.17812169e-02, 2.95828860e-02, 6.53453916e-02,
          3.34165096e-02, -5.13063818e-02, 1.96103603e-02,
          -5.73281609e-02, -7.14153871e-02, -5.98392747e-02,
          -7.59523213e-02, -2.94088144e-02, -2.25270744e-02,
          -2.68616248e-02, 9.70719606e-02, 4.58544791e-02,
          4.76318002e-02, 2.19260845e-02, 3.49058062e-02, 2.60490812e-02,
          2.40292735e-02, -1.38149783e-02, 4.74337041e-02,
          -4.89028692e-02, -4.50956188e-02, 5.29007316e-02,
          5.51588796e-02, 4.30154316e-02, -5.01240343e-02,
          -1.83135107e-01, -2.25164995e-01, -1.44415274e-01,
          -1.01218835e-01, -1.62145063e-01, -1.24383062e-01,
          1.90332551e-02, 5.94486110e-02, -1.11222714e-02,
          -6.64822161e-02, -1.69576630e-01, -1.77749246e-01,
          8.32003076e-03, 5.01651270e-03, -2.26112846e-02,
          -2.56950669e-02, -2.13620644e-02, -1.46217421e-02,
          -9.91188269e-03, -2.37345956e-02, -2.54815351e-02,
          1.05381468e-02, 1.21473176e-02, 6.01911312e-03,
          -6.14203606e-03, -3.79750840e-02, -8.06330815e-02,
          -5.40778711e-02, -2.91045513e-02, -1.31428079e-03,
          1.83359440e-02, 5.28142937e-02, 3.71566489e-02,
          -6.58646673e-02, -1.05076239e-01, -1.12790227e-01,
          -1.49352998e-01, -9.03084055e-02, -2.26185955e-02,
          7.71730840e-02, 1.02608770e-01, 7.12401643e-02,
          -2.01023892e-02, -4.81956340e-02, -6.57544136e-02,
          -6.31724149e-02, -3.19337994e-02, 2.22535916e-02,
          7.62071088e-02, 6.50745481e-02, 5.70979528e-02, 2.61728056e-02,
          6.09176327e-03, -2.13166792e-02, -3.16706533e-03,
          3.93860117e-02, 6.95873126e-02, -9.67482924e-02,
          -8.84872004e-02, -5.93416244e-02, -3.21620815e-02,
          -1.05520915e-02, -4.12471741e-02, -8.03723782e-02,
          -3.78865190e-02, -4.98410612e-02, -1.07931025e-01,
          -7.21324561e-03, 1.54780140e-02, -2.90325955e-02,
          -4.77403663e-02, -1.33559138e-01, -3.47474404e-02,
          9.65682119e-02, -1.05848417e-01, 1.28217727e-01,
          1.63596705e-01, 2.16178671e-01, 1.16791889e-01, 2.01429263e-01,
          1.28625020e-01, 5.01687936e-02, -6.26564072e-03,
          2.28520371e-02, -9.38836392e-03, -2.98915636e-02,
          4.66586091e-02, 4.71778959e-02, 4.16079052e-02, 4.98246448e-03,
          3.69402277e-03, -4.09366228e-02, -5.97945116e-02,
          -1.03598475e-01, -9.01201218e-02, -8.35482329e-02,
          -4.54050153e-02, -1.86790284e-02, -4.73932698e-02,
          -4.16808203e-02, -3.51212807e-02, -8.76718536e-02,
          -1.34498298e-01, -1.53050274e-01, -2.31460363e-01,
          -1.40648082e-01, -2.76314579e-02, -3.83341461e-02,
          9.73806456e-02, 1.23993047e-01, -3.75653319e-02,
          2.39144757e-01, 1.28312171e-01, 2.08843369e-02,
          -3.74329574e-02, 3.33210342e-02, 6.31545335e-02,
          1.97353616e-01, 8.21806490e-02, 9.90044326e-02, 4.72975373e-02,
          4.34276043e-03, 1.13047935e-01, 4.67931852e-02, 3.76743376e-02,
          -1.87311862e-02, -1.01404756e-01, -1.26783282e-01,
          -4.98044677e-02, -4.07648273e-02, -3.61936018e-02,
          -4.00917344e-02, -1.55919306e-02, -1.89827383e-02,
          -1.43745616e-02, 1.74724646e-02, 2.88996249e-02,
          -5.30911535e-02, -1.83351874e-01, -1.70133993e-01,
          -1.34408265e-01, -4.46881019e-02, -2.01289132e-02,
          -2.12192331e-02, -3.02327797e-02, -5.53904548e-02,
          -1.78582177e-01, -5.05346730e-02, -5.80179207e-02,
          -1.30975574e-01, -1.12777315e-01, -6.23076893e-02,
          -6.97820112e-02, -4.96927164e-02, -7.49469176e-02,
          -3.78416516e-02, -4.81287651e-02, -1.63342543e-02,
          3.03973421e-03, 1.59821787e-03, 8.69982410e-03, 8.47983453e-03,
          -5.55593142e-05, -1.04862871e-02, -3.93785946e-02,
          1.25722000e-02, 2.73104813e-02, 1.29320780e-02,
          -3.66142206e-02, -5.02762608e-02, -3.82561944e-02,
          -4.98847961e-02, -3.50335799e-02, -7.65389204e-03,
          8.60604048e-02, 9.96559188e-02, 7.68048242e-02,
          -2.34260270e-03, -3.80614586e-02, -7.26017356e-02,
          -5.50123155e-02, -1.48837902e-02, 3.93974446e-02,
          1.73538819e-01, 1.53838515e-01, 1.29321337e-01, 4.87593077e-02,
          -2.46837758e-03, -7.15644658e-02, -3.04169860e-02,
          8.58752280e-02, 1.60295695e-01, 2.44479384e-02, 2.14496739e-02,
          -4.79784328e-03, -1.76472776e-02, -1.35308895e-02,
          -2.83161029e-02, -1.23203052e-02, 1.38602899e-02,
          2.91557144e-02, -2.49022339e-02, 3.07301469e-02,
          3.79794464e-02, -9.42287873e-03, -2.60122083e-02,
          -3.51030044e-02, -8.53268355e-02, -1.02681093e-01,
          -5.98068759e-02, 1.42963454e-01, 1.19541720e-01,
          1.69787213e-01, 9.93536487e-02, 1.83360502e-01, 9.43310484e-02,
          4.88968706e-03, -6.25544935e-02, 2.84314733e-02,
          -4.98075560e-02, -8.42361990e-03, 8.96442507e-04,
          8.87319744e-02, 7.09148869e-02, -2.93660834e-02,
          -6.74331486e-02, -1.62746087e-01, -1.55271664e-01,
          -3.16701792e-02, -7.47610480e-02, -1.31178439e-01,
          -3.32258753e-02, -3.21818935e-03, -3.13818790e-02,
          -2.01344602e-02, -1.22434190e-02, -2.65832022e-02,
          -6.62395507e-02, -3.96639816e-02, -8.81470963e-02,
          -6.20347187e-02, -2.02795882e-02, -3.84151237e-03,
          1.14719108e-01, 1.67180106e-01, -2.71304417e-02,
          2.78787971e-01, 1.31664261e-01, 8.76508132e-02,
          -3.11592151e-03, 5.34325689e-02, 5.92551380e-02,
          1.46591052e-01, 6.32454604e-02, 9.19892564e-02,
          -1.78703610e-02, -2.81508230e-02, 1.76724121e-01,
          8.08997676e-02, 5.36304303e-02, -8.81048292e-02,
          -3.25363845e-01, -2.43001744e-01, -1.08690664e-01,
          -1.29910141e-01, -1.46792710e-01, -1.24819450e-01,
          -8.93231295e-03, 1.88722033e-02, -3.78204510e-02,
          -7.61807486e-02, -1.53141409e-01, -1.70437843e-01,
          -6.62333295e-02, -6.66897446e-02, -6.46145865e-02,
          -3.02278716e-02, -1.27071030e-02, -9.99998394e-03,
          -1.07005239e-02, -3.06749232e-02, -6.51055202e-02,
          -4.58753891e-02, -3.94282788e-02, -9.55645740e-02,
          -8.90756547e-02, -4.77589332e-02, -5.32662608e-02,
          -3.52783874e-02, -5.51187210e-02, -2.66625490e-02,
          -1.40218213e-01, -5.57650253e-02, 3.72144184e-03,
          7.25828810e-03, 1.66607480e-02, 1.31228650e-02,
          -9.96767310e-04, -2.83075254e-02, -1.23926707e-01,
          -6.78434893e-02, -3.98222804e-02, -1.46195218e-02,
          5.43928193e-03, 5.27315214e-03, -1.88004263e-02,
          -1.06404694e-02, -2.88537387e-02, -6.42785877e-02,
          6.24351539e-02, 6.43881187e-02, 5.79624921e-02, 2.75168717e-02,
          1.08316252e-02, -1.43704517e-02, -4.00595414e-03,
          1.72515418e-02, 4.31974865e-02, 2.12769851e-01, 2.06751868e-01,
          1.79104730e-01, 8.79025236e-02, 3.58359329e-02,
          -4.92345467e-02, -1.33802565e-02, 1.17235035e-01,
          1.95427388e-01, 6.07171096e-02, 4.24651802e-02,
          -4.15601172e-02, -7.18547106e-02, -2.27357936e-03,
          -2.81280708e-02, 1.79463718e-02, 6.17321804e-02,
          8.61234590e-02, -1.85626131e-02, -2.55445335e-02,
          -6.86757490e-02, -9.23072323e-02, 1.30558778e-02,
          -2.41850652e-02, -1.38663724e-02, -1.95090678e-02,
          -2.09221914e-02, 1.13742530e-01, 8.35462958e-02,
          1.05480984e-01, 8.91126245e-02, 1.28809527e-01, 7.28486776e-02,
          2.73579229e-02, -2.88952924e-02, 5.50333969e-02,
          2.25243866e-02, 8.06015432e-02, 6.28464520e-02, 1.41594470e-01,
          1.85377195e-01, 4.06764187e-02, -3.22033875e-02,
          -1.05100021e-01, -8.89337584e-02, -7.84326252e-03,
          -8.08570907e-02, -1.32295310e-01, -6.11517020e-02,
          7.41366521e-02, 5.46027627e-03, 4.50099520e-02, 4.46862392e-02,
          -1.56307511e-03, -2.39477716e-02, 5.00527434e-02,
          -1.56950522e-02, -3.72389406e-02, -7.59944692e-02,
          -6.96155727e-02, -2.12408882e-02, -1.02998167e-02,
          -1.34666460e-02, 2.28621528e-01, 1.27129063e-01,
          1.28216133e-01, 6.85159490e-02, 8.58437344e-02, 6.29497096e-02,
          7.30915070e-02, 3.44499126e-02, 1.58006907e-01, 5.14362380e-02,
          3.07396837e-02, 1.52298555e-01, 1.44661978e-01, 1.30652174e-01,
          -3.80548462e-02, -2.67562807e-01, -1.95969805e-01,
          -5.08572049e-02, 2.25609336e-02, 1.16947778e-02,
          -1.19187847e-01, 7.14516044e-02, 1.27628490e-01,
          -1.44255226e-02, -1.12664983e-01, -3.13660532e-01,
          -1.84214368e-01, 3.10566872e-02, -7.06077227e-03,
          -6.23461790e-02, -8.62620920e-02, -6.83547631e-02,
          -3.52296680e-02, -8.65579303e-03, -2.98902337e-02,
          -2.69013550e-02, 5.54265222e-03, 8.48110672e-03,
          -7.48746097e-03, -1.23338755e-02, 1.70993211e-03,
          -2.67801504e-03, 2.75440165e-03, 4.88830847e-04,
          2.91701034e-02, -5.65247051e-02, -1.80855244e-02,
          2.96480134e-02, 3.40735838e-02, 4.55595776e-02, 3.19420062e-02,
          2.80706268e-02, 1.20196026e-03, -9.39658731e-02,
          -9.43361223e-02, -8.13476369e-03, -2.24753730e-02,
          2.47918945e-02, 3.15409228e-02, -2.81910393e-02,
          -2.60294098e-02, -6.40652403e-02, -1.07610457e-01,
          -2.27504130e-02, -4.64175418e-02, -6.99741617e-02,
          -2.86444351e-02, -1.37811275e-02, -5.65155176e-03,
          -4.28662961e-03, -9.00592469e-03, -1.36675844e-02,
          -6.34404123e-02, -5.14797308e-02, -2.61729583e-02,
          -2.72791740e-03, 9.89066344e-03, 1.29521759e-02,
          5.88944973e-03, -5.76733844e-03, -3.07656135e-02,
          -7.53967762e-02, -2.24947724e-02, 6.42993581e-03,
          3.13431732e-02, 3.82580683e-02, 1.83925293e-02, 4.45637256e-02,
          9.33920592e-03, -6.95934594e-02, 9.58191976e-02,
          1.07373156e-01, 1.64237887e-01, 1.22990638e-01, 1.74990416e-01,
          1.36592537e-01, 2.31630020e-02, -1.09183773e-01,
          3.86044127e-03, 1.09387198e-02, -8.93347617e-03,
          4.46950048e-02, 4.96030450e-02, 4.33078334e-02, 1.75505038e-02,
          4.31078626e-03, -2.73209810e-02, -3.34449075e-02,
          -1.01265229e-01, -7.08716437e-02, -7.71265626e-02,
          -3.40154581e-02, -5.63655188e-03, -2.40206979e-02,
          7.36960210e-03, -1.49584180e-02, -9.61035788e-02,
          -1.85496986e-01, -1.85924828e-01, -2.56201357e-01,
          -1.24037080e-01, 2.75247507e-02, 2.70729270e-02,
          1.60050169e-01, 4.84358780e-02, -5.44369407e-02,
          2.05903009e-01, 1.23887911e-01, -6.88912673e-03,
          -5.87991662e-02, 5.29502332e-02, 7.51736239e-02,
          2.39265665e-01, 2.48601690e-01, 1.17002323e-01, 9.33874249e-02,
          4.73849624e-02, 1.53892398e-01, 7.47472271e-02, 7.80934542e-02,
          2.34996919e-02, -8.22015479e-02, -8.49669129e-02,
          2.13192008e-03, -1.00953698e-01, -9.51874033e-02,
          -8.97187442e-02, -2.98594180e-02, -3.86703275e-02,
          -2.30864752e-02, 6.05688356e-02, 7.25250319e-02,
          -1.13368273e-01, -3.74255717e-01, -3.41644973e-01,
          -2.85280973e-01, -7.67945796e-02, -2.70495433e-02,
          -3.20027495e-04, -1.91709828e-02, 3.79123911e-02,
          -1.43065497e-01, -1.61950082e-01, -1.16427504e-01,
          -2.59969503e-01, -2.14140877e-01, -9.70446542e-02,
          -1.22779578e-01, -8.87043402e-02, -1.58445701e-01,
          1.56297430e-01, -7.32238069e-02, -3.64311524e-02,
          8.26009735e-03, 1.49859618e-02, 3.91882397e-02, 3.74517702e-02,
          2.51561701e-02, -6.17003394e-03, -6.75806627e-02,
          -1.60907693e-02, -1.00878598e-02, -1.18621560e-02,
          -5.24649955e-03, -2.06718612e-02, -7.35756755e-03,
          -1.90066919e-02, 5.28264642e-02, -1.48193473e-02,
          -4.68539260e-02, -3.63876447e-02, -5.27873933e-02,
          -2.64486782e-02, -4.78109457e-02, -1.17098810e-02,
          -2.72998083e-02, 2.10055321e-01, 1.61514863e-01,
          -4.18045511e-03, -4.83652651e-02, -4.99566607e-02,
          -2.61517223e-02, -2.51989253e-02, 1.87549996e-03,
          -6.42208941e-03, 1.33081088e-02, 6.60710931e-02,
          8.88950378e-02, -1.70252919e-02, -4.49815020e-03,
          2.83251936e-03, -4.33621462e-03, 2.84846220e-03,
          1.63989910e-03, -7.59436470e-03, 3.98571193e-02,
          -2.45062672e-02, 4.33205254e-03, 1.45237017e-02,
          1.27518177e-02, 1.28715392e-02, 1.12169851e-02, 2.85545131e-03,
          -2.56082322e-02, -3.80705670e-02, 9.75716636e-02,
          7.69749731e-02, 1.28791451e-01, 9.29896683e-02, 1.37895316e-01,
          8.76387879e-02, 2.04796670e-03, -1.26090571e-01,
          5.23223635e-03, -2.59651244e-02, -4.99399975e-02,
          6.51810244e-02, 9.80316028e-02, 7.79027343e-02, 1.16407014e-02,
          -4.31402400e-02, -1.21874444e-01, -1.23711213e-01,
          -1.76658873e-02, -4.27904725e-02, -6.24129139e-02,
          -2.54963036e-03, 1.63047872e-02, -6.75469579e-04,
          -1.01522356e-02, -1.89676192e-02, -2.68937908e-02,
          -9.81405824e-02, -6.77399039e-02, -1.19636625e-01,
          -7.29367658e-02, -9.25242342e-03, 7.15650292e-03,
          1.16230495e-01, 1.78700596e-01, -3.95884253e-02,
          2.84821421e-01, 1.40484661e-01, 5.32086045e-02, 1.05627021e-02,
          6.27290905e-02, 5.50517254e-02, 1.53298020e-01, 1.54044315e-01,
          6.67295158e-02, 1.16251167e-02, -1.20999645e-02,
          2.04172075e-01, 1.07397400e-01, 1.13638684e-01,
          -2.45972406e-02, -1.77221373e-01, -1.08437091e-01,
          -5.52886836e-02, -1.37886882e-01, -7.78287873e-02,
          -7.71568567e-02, 1.45618366e-02, 4.02120799e-02,
          -3.54170762e-02, -8.79189298e-02, -1.78220540e-01,
          -2.04064384e-01, -1.39761522e-01, -1.58083737e-01,
          -1.57985628e-01, -6.02262877e-02, -2.20256429e-02,
          -6.29473943e-03, -1.41654750e-02, -1.41710052e-02,
          -7.77837187e-02, -1.53678715e-01, -1.09893486e-01,
          -1.91631407e-01, -1.79667786e-01, -8.33405778e-02,
          -1.02389723e-01, -6.65670261e-02, -1.48303464e-01,
          8.98910612e-02, -4.77910936e-02, -1.34558141e-01,
          -8.91149626e-04, 3.42879966e-02, 7.61290863e-02,
          6.29565194e-02, 3.66705470e-02, -3.69316116e-02,
          -1.76794633e-01, -1.22047693e-01, -8.23888630e-02,
          -3.64614725e-02, 1.91436205e-02, 1.90676674e-02,
          -3.33317295e-02, -2.26947609e-02, -5.02092578e-02,
          -1.28353804e-01, -2.07676925e-02, -1.53762735e-02,
          -2.34784763e-02, -1.20075317e-02, -1.83670074e-02,
          -3.68161290e-03, -9.94426664e-03, 7.56446049e-02,
          1.00779697e-01, 2.85957213e-02, -5.59772961e-02,
          -4.55770455e-02, -2.27207225e-02, -2.42151096e-02,
          1.96419700e-04, -5.42599196e-03, -3.75288911e-03,
          6.38413131e-02, -2.03178870e-03, -3.61450575e-02,
          -1.63266789e-02, -3.35465971e-04, -1.44214593e-02,
          4.32389509e-03, 1.03159295e-03, -2.15650070e-02,
          5.35150692e-02, 2.20190976e-02, -6.57367613e-03,
          -2.32831016e-02, -5.90609154e-03, -8.41500703e-03,
          -2.86361133e-03, -5.48899872e-03, -7.92885479e-03,
          -3.04698721e-02, 7.10862279e-02, 5.01222536e-02,
          7.24665672e-02, 5.92098795e-02, 7.78312162e-02, 4.57037129e-02,
          1.22061959e-02, -3.69537659e-02, 1.56190060e-02,
          -1.04424567e-03, -2.32667178e-02, 9.94497389e-02,
          1.56696588e-01, 1.30709633e-01, 4.23855260e-02,
          -3.91613096e-02, -1.14525825e-01, -9.50831324e-02,
          -2.65848842e-02, -5.96305095e-02, -1.14339709e-01,
          5.74270543e-03, 6.01644181e-02, 3.30256075e-02, 2.09362358e-02,
          -1.36592453e-02, -4.83753122e-02, -1.03669511e-02,
          3.09405681e-02, 2.42997576e-02, 1.60457119e-02,
          -2.72522885e-02, -1.93378329e-02, -5.27682481e-03,
          -9.06012021e-03, -1.42453760e-02, 2.60169685e-01,
          1.49055988e-01, 1.47184774e-01, 8.35830197e-02, 9.25752521e-02,
          6.40864894e-02, 7.17540681e-02, 5.25772236e-02, 1.98846489e-01,
          -6.35969192e-02, -1.44046862e-02, 1.68057367e-01,
          1.61441624e-01, 1.82467759e-01, 4.52311663e-03,
          -7.80410692e-02, -4.76150513e-02, -2.21565496e-02,
          8.47226232e-02, -2.03677975e-02, -3.36752906e-02,
          1.18734010e-01, 1.78085953e-01, -2.72458512e-02,
          -1.74348310e-01, -3.84363860e-01, -2.32914150e-01,
          1.07616363e-02, -1.35877691e-02, -6.05094321e-02,
          -8.61411169e-02, -6.00060783e-02, -2.92734019e-02,
          -1.05215786e-02, -3.44952680e-02, -3.47448289e-02,
          -2.44140849e-02, -6.10833429e-03, -2.92073954e-02,
          -2.96765622e-02, 4.90663294e-03, -8.04284681e-03,
          5.16541302e-03, -1.54915545e-02, 6.71070293e-02,
          -3.80635783e-02, -6.01764061e-02, 3.93392444e-02,
          7.99538493e-02, 1.22889094e-01, 8.07927996e-02, 6.20360896e-02,
          4.96151042e-04, -1.93941787e-01, -1.23294123e-01,
          -8.81709382e-02, -7.81855807e-02, 5.25197573e-02,
          6.22228496e-02, -6.37990385e-02, -6.78645521e-02,
          -1.24771900e-01, -2.38000035e-01, -7.58735687e-02,
          -5.34822606e-02, -1.59236610e-01, -6.10011294e-02,
          -4.91678976e-02, -2.90138777e-02, -2.60473136e-02,
          -3.35462131e-02, -5.07299937e-02, 3.38291526e-02,
          -2.21500210e-02, -1.33884083e-02, -4.10514604e-03,
          -6.05801772e-03, 2.32911459e-03, 1.22856023e-03,
          -4.24815854e-03, 1.27174288e-01, -3.24980877e-02,
          -2.00243704e-02, -1.57878529e-02, 2.99921754e-04,
          -9.46251024e-03, 8.73305835e-03, 3.83502734e-03,
          -1.80708393e-02, 1.63381491e-02, 2.87394063e-03,
          -1.77503526e-02, -6.20204769e-02, -1.32440422e-02,
          -2.01848540e-02, -6.89304434e-03, -1.31123494e-02,
          -1.54840359e-02, -6.15215898e-02, -2.76195966e-02,
          -2.16000751e-02, -3.18755582e-02, -7.61703029e-03,
          -1.94370132e-02, -5.86147932e-03, -8.93021375e-03,
          -6.57314481e-03, -1.41286841e-02 ]
   uncompressed_sv_total: 20
   uncompressed_support_vectors:
      - [ 4.66076890e-03, 1.38523914e-02, 9.65484045e-03, 1.39206939e-03,
          1.38743536e-03, 1.18314207e-03, 1.53016299e-03, 1.74077519e-03,
          2.48628389e-03, 4.63423021e-02, 5.67281991e-02, 2.04856247e-02,
          1.04660019e-02, 1.46399289e-02, 1.91425849e-02, 2.25156285e-02,
          2.24172622e-02, 2.42989473e-02, 6.73736557e-02, 3.32473814e-02,
          1.77754462e-02, 2.02390738e-02, 2.38023009e-02, 2.53130067e-02,
          2.49594990e-02, 2.20804885e-02, 4.03450094e-02, 2.45311819e-02,
          8.09298083e-03, 7.20322365e-03, 7.07636215e-03, 7.07716262e-03,
          5.90218883e-03, 6.71567488e-03, 1.62855368e-02, 4.12804931e-02,
          2.84831543e-02, 4.83819284e-02, 5.35200350e-02, 1.89198330e-02,
          1.74957309e-02, 1.63807254e-02, 1.85274277e-02, 2.01894958e-02,
          2.30339766e-02, 1.30894184e-01, 1.24874771e-01, 8.73815566e-02,
          6.56429827e-02, 6.65664375e-02, 7.34537244e-02, 8.69314820e-02,
          8.90777782e-02, 1.09846033e-01, 1.91209808e-01, 1.44891739e-01,
          1.17869861e-01, 1.10506698e-01, 1.53621629e-01, 1.42779768e-01,
          1.71211317e-01, 1.55833945e-01, 2.01183170e-01, 5.81663810e-02,
          4.64028269e-02, 3.33638079e-02, 2.85770986e-02, 3.14049162e-02,
          3.01332660e-02, 4.34665531e-02, 4.73988093e-02, 5.49430400e-02,
          4.21524681e-02, 6.86556101e-02, 6.90818429e-02, 3.87980603e-02,
          2.48374604e-02, 2.02103611e-02, 2.18980461e-02, 2.22599041e-02,
          2.64501590e-02, 1.51879042e-01, 1.83037922e-01, 2.02737615e-01,
          1.53551117e-01, 1.10641830e-01, 8.35412964e-02, 7.44833648e-02,
          7.08278194e-02, 1.04927331e-01, 2.16338068e-01, 2.05538839e-01,
          2.05071613e-01, 2.16338068e-01, 2.16338068e-01, 2.16338068e-01,
          2.02621996e-01, 1.92281544e-01, 2.16338068e-01, 7.14742765e-02,
          5.60397506e-02, 4.90787439e-02, 4.66007628e-02, 6.16381355e-02,
          5.26865087e-02, 6.14508167e-02, 6.19057007e-02, 7.10807145e-02,
          1.13625396e-02, 2.06703190e-02, 3.80129665e-02, 2.69211400e-02,
          1.64378714e-02, 1.07504744e-02, 8.25556647e-03, 7.62213627e-03,
          8.76751356e-03, 2.85041258e-02, 4.77132387e-02, 9.36269537e-02,
          7.09064901e-02, 4.69955057e-02, 3.32280323e-02, 2.52237897e-02,
          2.18283292e-02, 2.27194764e-02, 3.17981243e-02, 3.35525349e-02,
          4.31778915e-02, 5.12634106e-02, 5.55638298e-02, 4.43364680e-02,
          3.42372619e-02, 3.27738896e-02, 3.23011391e-02, 1.15539515e-02,
          1.13971243e-02, 1.14917504e-02, 1.27779627e-02, 1.55971665e-02,
          1.71100851e-02, 1.65032744e-02, 1.41035095e-02, 1.18086692e-02,
          2.20928155e-02, 2.25489717e-02, 7.32936338e-03, 4.97994944e-03,
          7.43563054e-03, 1.01542613e-02, 1.12729017e-02, 1.03596523e-02,
          1.12010418e-02, 6.85855746e-02, 2.96679363e-02, 1.88064240e-02,
          2.14277655e-02, 2.34339815e-02, 2.24829838e-02, 2.21934505e-02,
          2.17407010e-02, 4.69632857e-02, 5.50556220e-02, 1.89867076e-02,
          1.63214728e-02, 1.53454849e-02, 1.55245746e-02, 1.37424339e-02,
          1.75031554e-02, 5.35238087e-02, 1.14220507e-01, 1.25064943e-02,
          5.29314252e-03, 4.12164861e-03, 3.81708052e-03, 4.18171706e-03,
          5.11152670e-03, 1.55072948e-02, 5.25402725e-02, 4.75878380e-02,
          5.74452467e-02, 5.14137447e-02, 3.91916484e-02, 3.17159370e-02,
          3.35968584e-02, 3.65737230e-02, 4.21106480e-02, 4.10675816e-02,
          5.07687181e-02, 1.93769276e-01, 1.44341514e-01, 1.13859929e-01,
          1.08419344e-01, 1.52662858e-01, 1.39822185e-01, 1.75168648e-01,
          1.63067356e-01, 2.06592068e-01, 1.33074299e-01, 1.07435502e-01,
          7.58537650e-02, 6.29039332e-02, 6.52353689e-02, 6.42330796e-02,
          8.97947550e-02, 1.01542383e-01, 1.19612128e-01, 3.24908048e-02,
          2.77770124e-02, 2.10038759e-02, 1.82832070e-02, 1.99429281e-02,
          2.14000568e-02, 3.14438008e-02, 4.27222773e-02, 3.84282582e-02,
          6.65739924e-02, 7.22870082e-02, 8.62022042e-02, 7.17994049e-02,
          5.93499392e-02, 4.43680882e-02, 3.87746058e-02, 3.57567854e-02,
          5.16059473e-02, 2.17472896e-01, 2.13686809e-01, 1.99959084e-01,
          2.17472896e-01, 2.17472896e-01, 2.17472896e-01, 2.09059149e-01,
          1.99159458e-01, 2.17472896e-01, 1.42539650e-01, 1.09587297e-01,
          9.56183001e-02, 9.29685682e-02, 1.18747905e-01, 1.17341533e-01,
          1.48517475e-01, 1.53310671e-01, 1.50921926e-01, 2.83862688e-02,
          2.14393921e-02, 1.89379063e-02, 2.03798637e-02, 2.78545301e-02,
          3.99229415e-02, 6.33407384e-02, 6.52590692e-02, 4.10082340e-02,
          1.17285140e-02, 1.85326375e-02, 3.48970406e-02, 2.92523410e-02,
          2.10966896e-02, 1.45885395e-02, 1.09132780e-02, 9.56083182e-03,
          9.67989396e-03, 3.26102301e-02, 3.26961726e-02, 3.82704064e-02,
          4.56522107e-02, 5.22858761e-02, 4.45658453e-02, 3.57221849e-02,
          3.42550687e-02, 3.34492363e-02, 2.69147754e-02, 2.60478500e-02,
          2.71752421e-02, 3.10742147e-02, 3.85776162e-02, 4.28103171e-02,
          4.18033227e-02, 3.50559689e-02, 2.83829458e-02, 9.64598265e-03,
          8.44887830e-03, 9.18261241e-03, 1.10773109e-02, 1.48324361e-02,
          1.75751913e-02, 2.10836567e-02, 1.81786083e-02, 1.21752033e-02,
          3.79110910e-02, 1.40657648e-02, 1.06865643e-02, 1.20096989e-02,
          1.22644855e-02, 1.05828149e-02, 1.05504459e-02, 1.19413808e-02,
          3.04882787e-02, 6.73107952e-02, 2.43130308e-02, 2.03155670e-02,
          1.85894202e-02, 1.89713091e-02, 1.76090468e-02, 2.46896073e-02,
          8.80820155e-02, 1.65305316e-01, 3.37933376e-02, 1.41071836e-02,
          1.12926448e-02, 1.10533657e-02, 1.31262159e-02, 1.76045578e-02,
          6.48537427e-02, 1.77008659e-01, 1.31700858e-01, 3.81089398e-03,
          1.53257942e-03, 1.47308677e-03, 2.28947774e-03, 4.19606222e-03,
          5.83071169e-03, 3.44479308e-02, 4.13299054e-02, 1.20996283e-02,
          1.04060628e-01, 7.75659382e-02, 5.92709370e-02, 5.61816655e-02,
          7.88695142e-02, 7.16403276e-02, 9.43388715e-02, 8.96890983e-02,
          1.10719956e-01, 1.66497424e-01, 1.34997025e-01, 9.41085070e-02,
          7.64584243e-02, 7.67875984e-02, 7.75235221e-02, 1.05608448e-01,
          1.24196231e-01, 1.47258446e-01, 9.50751454e-02, 7.95990527e-02,
          6.28334880e-02, 5.88309504e-02, 6.78431094e-02, 7.58379102e-02,
          1.26667634e-01, 1.64366364e-01, 1.23870358e-01, 4.07022275e-02,
          2.43382268e-02, 2.04483457e-02, 3.12279761e-02, 4.94584553e-02,
          5.94328865e-02, 1.67400688e-01, 1.17537692e-01, 5.37715927e-02,
          1.71022534e-01, 1.17411204e-01, 1.03573941e-01, 1.11003742e-01,
          1.79657832e-01, 1.21862493e-01, 1.13873892e-01, 1.08122222e-01,
          1.68971971e-01, 1.58871219e-01, 1.18716255e-01, 1.03025481e-01,
          1.03375725e-01, 1.31415844e-01, 1.48827642e-01, 2.00306371e-01,
          2.00306371e-01, 1.81354105e-01, 8.66729319e-02, 6.78037256e-02,
          6.00518696e-02, 6.40709922e-02, 8.51337314e-02, 1.16335399e-01,
          1.82659492e-01, 1.90096468e-01, 1.22603916e-01, 2.89563723e-02,
          2.28713024e-02, 2.10904200e-02, 2.65389141e-02, 4.04675454e-02,
          4.93429862e-02, 6.22782744e-02, 4.53586206e-02, 3.43385898e-02,
          1.78296492e-02, 1.71642397e-02, 1.80698764e-02, 2.14816295e-02,
          2.63363961e-02, 2.42706593e-02, 2.03536432e-02, 1.93318166e-02,
          1.84696540e-02, 3.48012745e-02, 3.30111496e-02, 3.52647044e-02,
          4.12077084e-02, 5.19837886e-02, 5.78969494e-02, 5.68945594e-02,
          4.73318957e-02, 3.75167690e-02, 3.01889796e-02, 2.59800926e-02,
          2.76747923e-02, 3.30115259e-02, 4.51004989e-02, 5.75489700e-02,
          7.55713508e-02, 6.41612783e-02, 3.98547016e-02, 1.09471548e-02,
          9.23096202e-03, 8.65177531e-03, 1.01390164e-02, 1.54410955e-02,
          2.17457507e-02, 3.14647779e-02, 2.50432435e-02, 1.44566773e-02,
          1.46987494e-02, 2.18960308e-02, 2.33440883e-02, 9.86598525e-03,
          8.87890160e-03, 8.37032218e-03, 9.63794347e-03, 1.04499692e-02,
          1.16596259e-02, 6.98482171e-02, 6.36813641e-02, 4.53784913e-02,
          3.47623788e-02, 3.38076428e-02, 3.34979296e-02, 3.64833362e-02,
          3.83858792e-02, 5.53110987e-02, 1.13033518e-01, 8.09328929e-02,
          6.64412826e-02, 6.42844290e-02, 9.66811553e-02, 7.84635469e-02,
          8.91293958e-02, 8.24705586e-02, 1.16462678e-01, 3.19434553e-02,
          2.33356878e-02, 1.61869898e-02, 1.43141700e-02, 1.73873194e-02,
          1.63960550e-02, 2.40346529e-02, 2.55139433e-02, 3.01574487e-02,
          4.36536893e-02, 7.45027885e-02, 8.50612894e-02, 4.82350923e-02,
          2.89214421e-02, 2.22196933e-02, 2.25725248e-02, 2.25409307e-02,
          2.73253303e-02, 1.39594153e-01, 1.83531493e-01, 2.15086862e-01,
          1.83757097e-01, 1.22823410e-01, 8.91182050e-02, 7.91146308e-02,
          7.32596442e-02, 9.80528444e-02, 2.15086862e-01, 1.97195560e-01,
          2.07310721e-01, 2.15086862e-01, 2.15086862e-01, 2.15086862e-01,
          1.94578007e-01, 1.85928389e-01, 2.15086862e-01, 6.67519793e-02,
          5.64164110e-02, 5.15274741e-02, 4.93351109e-02, 6.40234426e-02,
          5.67544661e-02, 6.23960383e-02, 6.13713004e-02, 6.70274496e-02,
          2.88631357e-02, 5.06505370e-02, 9.31663364e-02, 7.17529655e-02,
          4.95180190e-02, 3.20729874e-02, 2.37611234e-02, 2.12106537e-02,
          2.34388616e-02, 7.39715025e-02, 1.18724354e-01, 2.15086862e-01,
          1.69199586e-01, 1.28269851e-01, 9.85191762e-02, 7.39276037e-02,
          6.03237487e-02, 6.07256629e-02, 7.60166645e-02, 8.16239640e-02,
          1.04141466e-01, 1.23866074e-01, 1.39393955e-01, 1.12557098e-01,
          8.69667530e-02, 8.19848031e-02, 7.77333006e-02, 2.93942578e-02,
          2.88244821e-02, 3.00139040e-02, 3.29346135e-02, 3.93839888e-02,
          4.11351770e-02, 3.94384339e-02, 3.45802456e-02, 2.99237594e-02,
          9.97855235e-03, 1.25017837e-02, 1.92618053e-02, 2.21893936e-02,
          3.04803457e-02, 2.04989873e-02, 1.23859104e-02, 9.80486348e-03,
          9.49415751e-03, 2.56936643e-02, 2.66025849e-02, 3.28094363e-02,
          3.92275974e-02, 5.65642975e-02, 5.41034602e-02, 4.17973474e-02,
          3.24730463e-02, 2.73027942e-02, 2.74005011e-02, 2.53225360e-02,
          2.65851468e-02, 2.95596290e-02, 3.78518067e-02, 3.59936319e-02,
          3.46178748e-02, 3.39007229e-02, 3.03655267e-02, 1.16572855e-02,
          1.17105721e-02, 1.15667861e-02, 1.12267733e-02, 1.21757668e-02,
          1.04796709e-02, 1.04289437e-02, 1.10386088e-02, 1.08255791e-02,
          3.33012268e-02, 2.88023297e-02, 2.27822233e-02, 1.84543878e-02,
          1.90489218e-02, 1.79555900e-02, 1.88194569e-02, 1.90619938e-02,
          2.80775819e-02, 1.22292727e-01, 8.55858997e-02, 6.74102083e-02,
          6.65730983e-02, 1.03038251e-01, 8.38134959e-02, 1.00264050e-01,
          9.34799910e-02, 1.27411708e-01, 7.50915110e-02, 5.56624606e-02,
          3.79315577e-02, 3.23840566e-02, 3.62781771e-02, 3.61707695e-02,
          5.22313789e-02, 5.73630147e-02, 6.76871315e-02, 1.54909920e-02,
          1.32129556e-02, 9.95349884e-03, 8.79985746e-03, 1.00288093e-02,
          1.11614205e-02, 1.45955654e-02, 1.56336315e-02, 1.53618809e-02,
          6.41209260e-02, 7.60059282e-02, 1.06076613e-01, 8.88097510e-02,
          6.79227710e-02, 4.94595915e-02, 4.35124338e-02, 3.91706116e-02,
          5.04486263e-02, 2.19035015e-01, 2.19035015e-01, 2.14376494e-01,
          2.19035015e-01, 2.19035015e-01, 2.19035015e-01, 2.11057723e-01,
          2.03344747e-01, 2.19035015e-01, 1.41518548e-01, 1.17325529e-01,
          1.08172856e-01, 1.07370637e-01, 1.36619046e-01, 1.38977394e-01,
          1.66742757e-01, 1.66246653e-01, 1.53737217e-01, 3.15988585e-02,
          2.40897294e-02, 2.24455744e-02, 2.50959136e-02, 3.45995724e-02,
          4.98860292e-02, 7.87376016e-02, 7.94865936e-02, 4.75995950e-02,
          3.24987248e-02, 4.92226668e-02, 8.48201066e-02, 7.31275082e-02,
          5.95723763e-02, 4.51393872e-02, 3.35175917e-02, 2.77573485e-02,
          2.73958277e-02, 8.20209607e-02, 8.36517215e-02, 9.97662842e-02,
          1.18776925e-01, 1.39099717e-01, 1.18066274e-01, 9.48168784e-02,
          9.05374065e-02, 8.53295028e-02, 7.47168362e-02, 7.24130124e-02,
          7.68934637e-02, 8.63143802e-02, 1.04432479e-01, 1.10129796e-01,
          1.05823942e-01, 9.06524733e-02, 7.67979696e-02, 2.69294828e-02,
          2.46504713e-02, 2.70195417e-02, 3.21837738e-02, 4.17841226e-02,
          4.55119759e-02, 4.99662235e-02, 4.25444879e-02, 3.13561521e-02,
          1.15356781e-02, 1.13846688e-02, 1.29797123e-02, 1.61640029e-02,
          2.25905739e-02, 2.30092388e-02, 1.88006982e-02, 1.49979182e-02,
          1.25039294e-02, 2.95410957e-02, 2.73735803e-02, 2.81641185e-02,
          2.97307130e-02, 3.66062336e-02, 3.41397189e-02, 3.41828726e-02,
          3.50642130e-02, 3.21939290e-02, 3.09237409e-02, 3.14453468e-02,
          3.11902743e-02, 3.08453627e-02, 3.31512243e-02, 2.88010519e-02,
          2.81285513e-02, 2.88446955e-02, 2.81202197e-02, 1.20147411e-02,
          1.25719188e-02, 1.30860945e-02, 1.36180678e-02, 1.51356487e-02,
          1.30488100e-02, 1.18717160e-02, 1.13390191e-02, 1.11505259e-02,
          6.43946156e-02, 4.47345674e-02, 3.36958580e-02, 3.33211310e-02,
          5.22313155e-02, 4.29321975e-02, 5.44046313e-02, 5.10277599e-02,
          6.68461919e-02, 8.90693441e-02, 6.66099861e-02, 4.49015126e-02,
          3.74301337e-02, 3.98903526e-02, 4.20826003e-02, 5.98656200e-02,
          6.76543117e-02, 7.87235647e-02, 4.42834571e-02, 3.78938988e-02,
          2.98094656e-02, 2.80582290e-02, 3.30930240e-02, 3.66773903e-02,
          5.04201725e-02, 5.29955663e-02, 4.65809964e-02, 1.98777951e-02,
          1.23089468e-02, 1.04884347e-02, 1.57642644e-02, 2.49821413e-02,
          3.00647672e-02, 7.00907558e-02, 4.41449732e-02, 2.38331370e-02,
          1.67631805e-01, 1.19874045e-01, 1.08756043e-01, 1.16805896e-01,
          1.81669831e-01, 1.25935122e-01, 1.12051167e-01, 1.07861623e-01,
          1.65727407e-01, 1.55690819e-01, 1.25174835e-01, 1.15988120e-01,
          1.20077476e-01, 1.53828725e-01, 1.76459625e-01, 2.04309329e-01,
          2.04309329e-01, 1.84234127e-01, 9.57674161e-02, 7.47023895e-02,
          6.91744983e-02, 7.62768313e-02, 1.02731436e-01, 1.44822344e-01,
          2.04309329e-01, 2.04309329e-01, 1.42198220e-01, 3.10885347e-02,
          2.55820323e-02, 2.36607064e-02, 2.87647881e-02, 4.27931882e-02,
          5.32978475e-02, 6.95737600e-02, 5.45117259e-02, 3.80975455e-02,
          4.38668281e-02, 4.27123122e-02, 4.70608585e-02, 5.56431934e-02,
          6.85443655e-02, 6.18029870e-02, 5.19750230e-02, 4.97812890e-02,
          4.63373773e-02, 9.61225182e-02, 9.20302644e-02, 9.91905183e-02,
          1.13443486e-01, 1.38952196e-01, 1.46854579e-01, 1.40668854e-01,
          1.19013175e-01, 9.95316058e-02, 8.23348686e-02, 7.44268671e-02,
          8.01151097e-02, 9.45693925e-02, 1.26009464e-01, 1.47338375e-01,
          1.75950453e-01, 1.46384850e-01, 9.98720899e-02, 2.98213121e-02,
          2.60644108e-02, 2.51019578e-02, 2.95099765e-02, 4.53820191e-02,
          6.00905009e-02, 8.00739080e-02, 6.24147020e-02, 3.78193483e-02,
          1.59346499e-02, 1.48692336e-02, 1.50126824e-02, 1.49860019e-02,
          1.76319573e-02, 1.58893894e-02, 1.65518560e-02, 1.78563874e-02,
          1.69142950e-02, 4.10446078e-02, 4.20489870e-02, 4.17880304e-02,
          4.20478135e-02, 4.50731851e-02, 3.95458117e-02, 3.80499512e-02,
          3.80384102e-02, 3.68706360e-02, 3.59649658e-02, 3.80315669e-02,
          4.01979797e-02, 4.18034904e-02, 4.74770404e-02, 4.02239114e-02,
          3.58133465e-02, 3.38703804e-02, 3.36061455e-02, 1.09965112e-02,
          1.17940502e-02, 1.28329331e-02, 1.43292760e-02, 1.90948974e-02,
          1.60647444e-02, 1.33690489e-02, 1.14299646e-02, 1.07844630e-02,
          2.41767541e-02, 4.32756431e-02, 5.65219857e-02, 3.27827744e-02,
          1.86301060e-02, 1.33988550e-02, 1.25546567e-02, 1.23169711e-02,
          1.52200172e-02, 6.62462413e-02, 9.88465622e-02, 1.57112613e-01,
          1.18767746e-01, 7.44266510e-02, 5.15067615e-02, 4.48094383e-02,
          4.05770727e-02, 4.78508063e-02, 1.32415220e-01, 9.73027721e-02,
          1.10600740e-01, 1.26067385e-01, 1.71392053e-01, 1.19896218e-01,
          9.73540843e-02, 9.30700675e-02, 1.35507643e-01, 3.19511630e-02,
          2.93278396e-02, 2.83091813e-02, 2.78818570e-02, 3.56442854e-02,
          3.33178937e-02, 3.41797620e-02, 3.23516056e-02, 3.29186395e-02,
          4.01811972e-02, 6.77748173e-02, 1.24186605e-01, 1.02954015e-01,
          7.87208900e-02, 5.09133562e-02, 3.67735848e-02, 3.19858119e-02,
          3.41610163e-02, 1.04637511e-01, 1.59191638e-01, 2.03639746e-01,
          2.03639746e-01, 1.90094724e-01, 1.56358436e-01, 1.16368838e-01,
          9.10952315e-02, 8.88488665e-02, 1.03488944e-01, 1.10739730e-01,
          1.38105035e-01, 1.63870230e-01, 1.90265417e-01, 1.55563921e-01,
          1.22019663e-01, 1.15718514e-01, 1.07068650e-01, 4.18818705e-02,
          4.10214029e-02, 4.32168879e-02, 4.62149344e-02, 5.41145876e-02,
          5.39856255e-02, 5.18540144e-02, 4.70050015e-02, 4.20293957e-02,
          3.39898765e-02, 4.00639102e-02, 5.64714409e-02, 6.86975718e-02,
          1.07229300e-01, 7.44556487e-02, 4.46153395e-02, 3.46662439e-02,
          3.27244662e-02, 8.87146518e-02, 8.82287547e-02, 1.02693327e-01,
          1.24527283e-01, 1.87227219e-01, 1.81735754e-01, 1.47491127e-01,
          1.16487719e-01, 9.68017951e-02, 9.54326913e-02, 8.60865936e-02,
          8.75469372e-02, 9.42843780e-02, 1.21163733e-01, 1.20787852e-01,
          1.20916255e-01, 1.16072632e-01, 1.05418578e-01, 3.98658291e-02,
          4.00477648e-02, 3.86246778e-02, 3.75457071e-02, 4.10283171e-02,
          3.48551348e-02, 3.48342620e-02, 3.71214375e-02, 3.72780934e-02,
          1.23963682e-02, 1.18171293e-02, 1.23032089e-02, 1.61025319e-02,
          3.42256278e-02, 3.02660242e-02, 1.99823137e-02, 1.57307312e-02,
          1.33047560e-02, 3.65724303e-02, 3.20974216e-02, 3.10509242e-02,
          3.48875038e-02, 5.29566146e-02, 5.59464246e-02, 5.30565567e-02,
          4.68169972e-02, 4.19446714e-02, 3.81023437e-02, 3.17479856e-02,
          2.86599603e-02, 2.93639582e-02, 3.62305753e-02, 3.80692333e-02,
          4.14159857e-02, 4.02714573e-02, 4.07029614e-02, 1.57191977e-02,
          1.55357327e-02, 1.33602554e-02, 1.27037987e-02, 1.44865876e-02,
          1.22365989e-02, 1.20070186e-02, 1.28923105e-02, 1.49364211e-02,
          3.15022022e-02, 4.25992943e-02, 7.04972818e-02, 5.90951405e-02,
          4.21161167e-02, 2.94810701e-02, 2.56485306e-02, 2.26405449e-02,
          2.53739338e-02, 1.57897025e-01, 1.15782045e-01, 1.19737454e-01,
          1.34609774e-01, 1.92623064e-01, 1.35631546e-01, 1.10709794e-01,
          1.07093655e-01, 1.59502521e-01, 7.20513016e-02, 6.52198121e-02,
          6.44007623e-02, 6.64185435e-02, 8.44771340e-02, 8.91335607e-02,
          9.99988317e-02, 9.50490311e-02, 8.16441849e-02, 1.88199766e-02,
          1.46325631e-02, 1.44570833e-02, 1.68279577e-02, 2.34000869e-02,
          3.36942673e-02, 5.17873242e-02, 5.05406447e-02, 2.92061847e-02,
          4.88470346e-02, 7.00407922e-02, 1.10450566e-01, 9.93206576e-02,
          9.11457464e-02, 7.46781528e-02, 5.52983060e-02, 4.41190824e-02,
          4.24006544e-02, 1.17626712e-01, 1.20112836e-01, 1.42760828e-01,
          1.68269098e-01, 1.99858457e-01, 1.69412971e-01, 1.38300717e-01,
          1.34093300e-01, 1.23921037e-01, 1.14406452e-01, 1.11339629e-01,
          1.18652284e-01, 1.29589781e-01, 1.53026491e-01, 1.53963923e-01,
          1.47020340e-01, 1.29557386e-01, 1.14307478e-01, 4.10073996e-02,
          3.88334207e-02, 4.27697971e-02, 5.02037667e-02, 6.34859428e-02,
          6.40873089e-02, 6.51306510e-02, 5.56364991e-02, 4.47452888e-02,
          4.24868762e-02, 4.06289101e-02, 4.46240492e-02, 5.47793396e-02,
          7.70146996e-02, 8.09707791e-02, 7.06246570e-02, 5.70113398e-02,
          4.71439064e-02, 1.08398452e-01, 9.83945355e-02, 9.85866413e-02,
          1.01344518e-01, 1.25148401e-01, 1.20907836e-01, 1.24761499e-01,
          1.25472963e-01, 1.17437929e-01, 1.13193318e-01, 1.15600675e-01,
          1.12024151e-01, 1.09833136e-01, 1.17926009e-01, 1.01277359e-01,
          9.97536555e-02, 1.04048572e-01, 1.03736989e-01, 4.67820019e-02,
          4.96481396e-02, 5.14392741e-02, 5.05085699e-02, 5.41375168e-02,
          4.67535891e-02, 4.34043668e-02, 4.25991565e-02, 4.26793993e-02,
          1.78055298e-02, 1.52761089e-02, 1.44860391e-02, 1.55159067e-02,
          1.99683681e-02, 2.31594276e-02, 2.47501396e-02, 2.22377349e-02,
          2.04776973e-02, 4.23693210e-02, 3.59694809e-02, 3.23597975e-02,
          3.28067504e-02, 4.02253009e-02, 3.94976586e-02, 4.25584391e-02,
          4.26090993e-02, 4.41675894e-02, 4.61856835e-02, 4.68850508e-02,
          4.16810513e-02, 3.88537943e-02, 4.14549001e-02, 3.47589850e-02,
          3.38932686e-02, 3.68778035e-02, 4.31018211e-02, 2.16877405e-02,
          2.38348674e-02, 2.47739777e-02, 2.18198542e-02, 2.01148633e-02,
          1.61241870e-02, 1.52044678e-02, 1.65016800e-02, 1.87343471e-02,
          7.25403875e-02, 5.42620644e-02, 5.16017973e-02, 5.64917289e-02,
          8.39806721e-02, 6.03832603e-02, 5.03328554e-02, 4.87089679e-02,
          7.21525699e-02, 6.89340010e-02, 6.06640689e-02, 6.07604198e-02,
          6.57599494e-02, 8.49545076e-02, 9.87870842e-02, 1.18703119e-01,
          1.13264054e-01, 8.56714323e-02, 4.95943651e-02, 3.87721993e-02,
          3.77334021e-02, 4.31491509e-02, 5.90214878e-02, 8.55723768e-02,
          1.36560172e-01, 1.33222803e-01, 7.65350461e-02, 1.58077050e-02,
          1.34591386e-02, 1.24770496e-02, 1.45507986e-02, 2.09801048e-02,
          2.75707766e-02, 3.88142839e-02, 3.24605070e-02, 2.03493610e-02,
          5.39587885e-02, 5.27141169e-02, 5.90887479e-02, 6.86134771e-02,
          8.42832848e-02, 7.44782761e-02, 6.36875182e-02, 6.25943244e-02,
          5.76499924e-02, 1.27237499e-01, 1.22943997e-01, 1.32394403e-01,
          1.47326365e-01, 1.75722271e-01, 1.77112624e-01, 1.67364165e-01,
          1.44912139e-01, 1.26891807e-01, 1.06814504e-01, 1.00491486e-01,
          1.09056190e-01, 1.27211526e-01, 1.65843338e-01, 1.78241223e-01,
          1.94304168e-01, 1.61177620e-01, 1.20758563e-01, 3.81691046e-02,
          3.47793289e-02, 3.44053768e-02, 4.05983925e-02, 6.26817718e-02,
          7.70876557e-02, 9.34823751e-02, 7.16850683e-02, 4.62692119e-02,
          4.98727635e-02, 4.57364954e-02, 4.51849401e-02, 4.42364998e-02,
          5.21747917e-02, 4.78889234e-02, 5.09142168e-02, 5.40219620e-02,
          5.25168367e-02, 1.30069807e-01, 1.34292662e-01, 1.30546167e-01,
          1.28930822e-01, 1.36921629e-01, 1.19006202e-01, 1.16031513e-01,
          1.19020142e-01, 1.17797881e-01, 1.20726988e-01, 1.29067644e-01,
          1.36176050e-01, 1.34669021e-01, 1.47219658e-01, 1.23815179e-01,
          1.12373240e-01, 1.08931132e-01, 1.10509261e-01, 3.63730714e-02,
          3.82300243e-02, 4.15351875e-02, 4.63570282e-02, 5.90820983e-02,
          4.71743755e-02, 3.99681553e-02, 3.58347520e-02, 3.53282616e-02,
          1.90588031e-02, 1.65638085e-02, 1.48019670e-02, 1.48515683e-02,
          1.81013327e-02, 1.63901448e-02, 1.74339470e-02, 1.80714354e-02,
          1.93667710e-02, 5.45128882e-02, 5.63639328e-02, 5.17067462e-02,
          4.73954305e-02, 4.78498973e-02, 3.98978516e-02, 3.88367660e-02,
          4.28695157e-02, 5.02626076e-02, 5.65854348e-02, 6.20251074e-02,
          6.53722808e-02, 5.93191609e-02, 5.67879379e-02, 4.48713861e-02,
          4.16026115e-02, 4.37010117e-02, 4.89528105e-02, 1.64657459e-02,
          1.61474906e-02, 1.82250515e-02, 2.15304159e-02, 2.57977918e-02,
          2.01032888e-02, 1.75127164e-02, 1.60225462e-02, 1.63570959e-02,
          2.13161502e-02, 3.37946080e-02, 6.11291006e-02, 5.57372048e-02,
          4.84128483e-02, 3.11625954e-02, 2.17637047e-02, 1.84249301e-02,
          1.90194231e-02, 5.61012737e-02, 7.88725764e-02, 1.20978825e-01,
          1.06942728e-01, 1.08274028e-01, 9.53008905e-02, 7.04884827e-02,
          5.33212163e-02, 5.00209033e-02, 5.39660491e-02, 5.68110980e-02,
          6.82287887e-02, 8.07765722e-02, 9.76667106e-02, 8.18775669e-02,
          6.60002977e-02, 6.30460382e-02, 5.69025092e-02, 2.29508951e-02,
          2.26091594e-02, 2.38510333e-02, 2.46443264e-02, 2.80984249e-02,
          2.65432373e-02, 2.54257619e-02, 2.41793822e-02, 2.24632900e-02,
          4.42562848e-02, 4.96578515e-02, 6.46994933e-02, 8.20669904e-02,
          1.42146289e-01, 1.01921767e-01, 6.16071709e-02, 4.73063290e-02,
          4.33327854e-02, 1.18096329e-01, 1.13890253e-01, 1.26274750e-01,
          1.53142959e-01, 2.02661753e-01, 2.02661753e-01, 1.98353380e-01,
          1.58625022e-01, 1.31360307e-01, 1.27471387e-01, 1.12267435e-01,
          1.11271620e-01, 1.17005095e-01, 1.50603428e-01, 1.55824840e-01,
          1.61007121e-01, 1.52279928e-01, 1.40498757e-01, 5.23459651e-02,
          5.24940453e-02, 4.95643765e-02, 4.83195223e-02, 5.33284247e-02,
          4.48545665e-02, 4.50128466e-02, 4.80449162e-02, 4.94224504e-02,
          4.08532731e-02, 3.84728350e-02, 3.90615053e-02, 4.97920811e-02,
          1.01670973e-01, 9.49238837e-02, 6.51309416e-02, 5.10451086e-02,
          4.38453071e-02, 1.20186128e-01, 1.04317650e-01, 9.89887267e-02,
          1.09786466e-01, 1.63444772e-01, 1.71122715e-01, 1.59805670e-01,
          1.50096625e-01, 1.38194561e-01, 1.26862884e-01, 1.06500864e-01,
          9.32961330e-02, 9.36597064e-02, 1.13798887e-01, 1.15021631e-01,
          1.24457926e-01, 1.26468584e-01, 1.32140473e-01, 5.09067588e-02,
          4.99488413e-02, 4.28570807e-02, 4.04880419e-02, 4.60951254e-02,
          3.87838371e-02, 3.79590839e-02, 4.08877358e-02, 4.78923246e-02,
          1.48024894e-02, 1.37163699e-02, 1.34442812e-02, 1.64987203e-02,
          2.51939222e-02, 2.68726852e-02, 3.84660028e-02, 2.60135252e-02,
          1.67674720e-02, 4.89696674e-02, 4.14737612e-02, 3.71114202e-02,
          4.03630212e-02, 5.32808527e-02, 5.39047532e-02, 5.14900424e-02,
          6.04772232e-02, 5.81055023e-02, 5.47451861e-02, 4.62842770e-02,
          3.86260338e-02, 3.60158607e-02, 4.15334366e-02, 3.72348651e-02,
          4.08780687e-02, 4.90164980e-02, 5.56331128e-02, 1.94036979e-02,
          1.79950185e-02, 1.62451752e-02, 1.59033872e-02, 1.83284190e-02,
          1.43139530e-02, 1.43516939e-02, 1.51315611e-02, 1.78902447e-02,
          2.62574796e-02, 3.47631536e-02, 4.87415306e-02, 4.71904352e-02,
          5.03254794e-02, 4.48379293e-02, 3.32464017e-02, 2.57196203e-02,
          2.38773711e-02, 6.11724779e-02, 6.20938577e-02, 7.24603161e-02,
          8.40777978e-02, 1.02010131e-01, 8.69180262e-02, 7.30118752e-02,
          7.20990822e-02, 6.53988123e-02, 6.35578632e-02, 6.24972321e-02,
          6.62691444e-02, 6.99263737e-02, 8.01049471e-02, 7.62222186e-02,
          7.19720423e-02, 6.62187189e-02, 6.11986108e-02, 2.26449408e-02,
          2.22361963e-02, 2.44919173e-02, 2.82658283e-02, 3.45937237e-02,
          3.20942476e-02, 2.95245275e-02, 2.55150460e-02, 2.29839329e-02,
          5.69085293e-02, 5.30680493e-02, 5.63856140e-02, 6.77374229e-02,
          9.50111076e-02, 1.02992788e-01, 9.52721685e-02, 7.75417686e-02,
          6.41638264e-02, 1.44024611e-01, 1.28008634e-01, 1.25607669e-01,
          1.26972198e-01, 1.57280982e-01, 1.55865058e-01, 1.64408386e-01,
          1.62821874e-01, 1.55488670e-01, 1.50069356e-01, 1.53562933e-01,
          1.45957887e-01, 1.41965181e-01, 1.52695477e-01, 1.29881516e-01,
          1.29042506e-01, 1.36123821e-01, 1.38937861e-01, 6.53461143e-02,
          7.01637417e-02, 7.26578161e-02, 6.78071752e-02, 7.05338195e-02,
          6.07140809e-02, 5.72683141e-02, 5.75027317e-02, 5.87986372e-02,
          5.89160100e-02, 4.99880612e-02, 4.63291183e-02, 4.89407554e-02,
          6.25345409e-02, 6.95328042e-02, 7.34433532e-02, 7.07657486e-02,
          6.73930049e-02, 1.40294552e-01, 1.20261237e-01, 1.05309412e-01,
          1.04741998e-01, 1.26867652e-01, 1.21112473e-01, 1.29968241e-01,
          1.34522319e-01, 1.43085912e-01, 1.48815423e-01, 1.49379998e-01,
          1.32390738e-01, 1.24032907e-01, 1.32349357e-01, 1.10162683e-01,
          1.06734872e-01, 1.16358057e-01, 1.37747318e-01, 6.79302961e-02,
          7.50068128e-02, 7.71322325e-02, 6.99290112e-02, 6.39031678e-02,
          5.07983267e-02, 4.75513600e-02, 5.17182723e-02, 5.91361411e-02,
          2.44483501e-02, 2.00827029e-02, 1.74264051e-02, 1.80111919e-02,
          2.24355925e-02, 2.20775828e-02, 2.22979113e-02, 2.72361189e-02,
          2.79943720e-02, 6.03078865e-02, 5.22811934e-02, 4.42045368e-02,
          4.11107503e-02, 4.71377224e-02, 4.12687585e-02, 4.49958071e-02,
          5.30426651e-02, 6.05067015e-02, 5.35432920e-02, 4.99305949e-02,
          4.51987647e-02, 4.49768901e-02, 5.16407974e-02, 3.99142429e-02,
          3.96223404e-02, 4.21474576e-02, 4.97272387e-02, 2.09712982e-02,
          2.26917397e-02, 2.22818758e-02, 2.14115661e-02, 2.23093834e-02,
          1.72650218e-02, 1.64128877e-02, 1.80048030e-02, 2.04793382e-02,
          2.46854480e-02, 2.41902210e-02, 2.71681529e-02, 3.06446869e-02,
          3.74897048e-02, 3.25984769e-02, 2.86574308e-02, 2.90935934e-02,
          2.65857670e-02, 6.24882430e-02, 6.12547584e-02, 6.54023141e-02,
          7.04207867e-02, 8.12887326e-02, 7.74879307e-02, 7.19096810e-02,
          6.46322966e-02, 5.96030317e-02, 5.13101108e-02, 5.03856540e-02,
          5.49924970e-02, 6.32444769e-02, 8.01167563e-02, 7.81361163e-02,
          7.54522979e-02, 6.28303662e-02, 5.35228103e-02, 1.78431794e-02,
          1.71285085e-02, 1.74587667e-02, 2.05256883e-02, 3.15130092e-02,
          3.56032215e-02, 3.85930650e-02, 2.91824341e-02, 2.04729885e-02,
          5.77973276e-02, 5.20596355e-02, 5.05745411e-02, 4.91009019e-02,
          5.82134426e-02, 5.39777428e-02, 5.80981597e-02, 6.07740842e-02,
          6.06028102e-02, 1.52620092e-01, 1.58303156e-01, 1.51343584e-01,
          1.46732837e-01, 1.54856980e-01, 1.33407563e-01, 1.31801650e-01,
          1.37868747e-01, 1.39640287e-01, 1.48554847e-01, 1.60261527e-01,
          1.69213191e-01, 1.60453036e-01, 1.70189425e-01, 1.41779870e-01,
          1.30617350e-01, 1.29120037e-01, 1.33724362e-01, 4.41500358e-02,
          4.54344004e-02, 4.95213568e-02, 5.57527766e-02, 6.87352270e-02,
          5.23961559e-02, 4.52192985e-02, 4.20031287e-02, 4.28209007e-02,
          5.49438372e-02, 4.83218729e-02, 4.22258079e-02, 4.16312143e-02,
          5.03549129e-02, 4.49945815e-02, 4.76990752e-02, 5.03879040e-02,
          5.48789948e-02, 1.53385043e-01, 1.56579643e-01, 1.43107951e-01,
          1.33102059e-01, 1.34494826e-01, 1.10884286e-01, 1.06780462e-01,
          1.18031330e-01, 1.40430257e-01, 1.55469239e-01, 1.72106192e-01,
          1.79446191e-01, 1.66275769e-01, 1.57225683e-01, 1.24552734e-01,
          1.15210325e-01, 1.21356033e-01, 1.36016428e-01, 4.63437214e-02,
          4.69587259e-02, 5.59944212e-02, 6.30795062e-02, 7.46594369e-02,
          5.98556809e-02, 5.10485694e-02, 4.59883697e-02, 4.58532609e-02,
          2.33931970e-02, 2.09129527e-02, 1.80178415e-02, 1.67657323e-02,
          1.91537160e-02, 1.63212549e-02, 1.75394360e-02, 2.00743433e-02,
          2.30190046e-02, 5.27398549e-02, 4.95046265e-02, 4.50985953e-02,
          4.54984605e-02, 5.16960546e-02, 3.95353064e-02, 3.89278159e-02,
          4.19908240e-02, 4.95533906e-02, 4.89947423e-02, 5.58259971e-02,
          5.54547533e-02, 5.20910025e-02, 5.40212914e-02, 4.19606529e-02,
          3.94985564e-02, 4.28219326e-02, 4.77244481e-02, 1.73786636e-02,
          2.50127669e-02, 3.87059823e-02, 2.55525000e-02, 2.87441183e-02,
          2.02618483e-02, 1.61966961e-02, 1.58370342e-02, 1.67233944e-02,
          2.05252059e-02, 2.17786264e-02, 2.57544033e-02, 3.43584754e-02,
          6.75430149e-02, 5.02666272e-02, 3.09534967e-02, 2.34090183e-02,
          2.06024107e-02, 5.71275167e-02, 5.28973974e-02, 5.54272234e-02,
          6.65131807e-02, 1.05954446e-01, 1.06932372e-01, 9.62305143e-02,
          7.80664906e-02, 6.50131032e-02, 6.16337247e-02, 5.27794659e-02,
          5.06166406e-02, 5.18494360e-02, 6.66000992e-02, 7.19700232e-02,
          7.69957379e-02, 7.16802552e-02, 6.76860213e-02, 2.49058884e-02,
          2.49749869e-02, 2.27916632e-02, 2.23323125e-02, 2.49674730e-02,
          2.07665842e-02, 2.09065713e-02, 2.23198626e-02, 2.36989651e-02,
          4.84910496e-02, 4.53705005e-02, 4.51649725e-02, 5.64296581e-02,
          1.09944880e-01, 1.06822647e-01, 7.69830197e-02, 6.02559075e-02,
          5.21165133e-02, 1.41477913e-01, 1.22618660e-01, 1.14786021e-01,
          1.26222551e-01, 1.84341818e-01, 1.90081596e-01, 1.75369024e-01,
          1.74094692e-01, 1.62874401e-01, 1.50764778e-01, 1.28108621e-01,
          1.10055625e-01, 1.08469591e-01, 1.30120650e-01, 1.27104416e-01,
          1.36543915e-01, 1.43774271e-01, 1.53942451e-01, 5.90399988e-02,
          5.76209128e-02, 4.96487245e-02, 4.68528681e-02, 5.33761755e-02,
          4.46523391e-02, 4.36777435e-02, 4.69353944e-02, 5.52301668e-02,
          3.71402949e-02, 3.39866988e-02, 3.37313823e-02, 4.19688113e-02,
          6.20293953e-02, 6.56668991e-02, 1.12204105e-01, 8.05647373e-02,
          4.43636999e-02, 1.37203127e-01, 1.13906153e-01, 1.02049790e-01,
          1.12558082e-01, 1.44736022e-01, 1.43842220e-01, 1.47341073e-01,
          1.86928242e-01, 1.69712737e-01, 1.54846877e-01, 1.28327325e-01,
          1.08018450e-01, 1.02671266e-01, 1.19358949e-01, 1.05365030e-01,
          1.17051408e-01, 1.44114792e-01, 1.61729410e-01, 5.59584610e-02,
          5.11563569e-02, 4.62766476e-02, 4.53240238e-02, 5.27455732e-02,
          4.07353230e-02, 4.07879502e-02, 4.32261340e-02, 5.15146144e-02,
          3.28669115e-03, 2.46626372e-03, 2.75474996e-03, 4.42410074e-03,
          5.32401679e-03, 3.63321207e-03, 1.67624783e-02, 2.19983179e-02,
          6.96137687e-03, 3.87332998e-02, 2.39334144e-02, 2.13550143e-02,
          2.44121552e-02, 2.88828462e-02, 2.33160630e-02, 4.34656441e-02,
          9.57031772e-02, 7.37864152e-02, 7.04434589e-02, 3.62753756e-02,
          2.98006777e-02, 3.06611080e-02, 3.81299369e-02, 3.25250328e-02,
          3.73875424e-02, 6.68656379e-02, 1.01471357e-01, 3.84669602e-02,
          1.98687855e-02, 1.45610254e-02, 1.39694819e-02, 1.76942889e-02,
          1.33821955e-02, 1.35742556e-02, 1.52542172e-02, 3.13663892e-02,
          2.68222634e-02, 2.41642874e-02, 2.46948805e-02, 2.86278054e-02,
          3.98275182e-02, 4.51387390e-02, 4.47439961e-02, 3.67756598e-02,
          3.08142025e-02, 6.69566393e-02, 5.80869094e-02, 5.54130599e-02,
          5.51681258e-02, 6.84420243e-02, 6.96789920e-02, 7.52549693e-02,
          7.32777193e-02, 7.18459710e-02, 6.98329657e-02, 7.17521310e-02,
          6.62362799e-02, 6.38382062e-02, 6.87947273e-02, 5.78260794e-02,
          5.79650998e-02, 6.18852191e-02, 6.52318597e-02, 3.19677703e-02,
          3.47602628e-02, 3.61437760e-02, 3.20333354e-02, 3.19918320e-02,
          2.72005424e-02, 2.61359625e-02, 2.69697420e-02, 2.83261053e-02,
          6.73472360e-02, 5.70406169e-02, 5.20400628e-02, 5.44820391e-02,
          6.93536252e-02, 7.38298148e-02, 7.69310296e-02, 7.87045360e-02,
          7.65787438e-02, 1.60740048e-01, 1.39708504e-01, 1.20252751e-01,
          1.17454544e-01, 1.40653908e-01, 1.31154746e-01, 1.39999062e-01,
          1.48694173e-01, 1.61210805e-01, 1.65899768e-01, 1.64890200e-01,
          1.46416306e-01, 1.38459340e-01, 1.48506582e-01, 1.22613549e-01,
          1.18367754e-01, 1.28732815e-01, 1.53095260e-01, 7.39254951e-02,
          8.21512714e-02, 8.39128047e-02, 7.79939070e-02, 7.11166561e-02,
          5.63075505e-02, 5.23132160e-02, 5.69050275e-02, 6.51227385e-02,
          6.63890168e-02, 5.36127798e-02, 4.68273163e-02, 4.92408052e-02,
          6.03977442e-02, 5.82731329e-02, 6.12087660e-02, 7.98587054e-02,
          7.90258348e-02, 1.66500166e-01, 1.41181737e-01, 1.19894780e-01,
          1.13476515e-01, 1.31477728e-01, 1.13501646e-01, 1.24856606e-01,
          1.50788575e-01, 1.70603186e-01, 1.47903293e-01, 1.36275366e-01,
          1.23320781e-01, 1.22339517e-01, 1.42992765e-01, 1.09501451e-01,
          1.08515024e-01, 1.15265168e-01, 1.37299180e-01, 5.91666140e-02,
          6.39631599e-02, 5.79883531e-02, 5.39973266e-02, 5.95537052e-02,
          4.55463678e-02, 4.37500812e-02, 4.81836870e-02, 5.61513044e-02,
          2.07578372e-02, 1.23924213e-02, 1.09230829e-02, 1.19142430e-02,
          1.40044121e-02, 1.16677880e-02, 1.84797104e-02, 4.27425280e-02,
          3.84950750e-02, 8.32653567e-02, 4.17700894e-02, 3.38487513e-02,
          3.45416591e-02, 4.35479358e-02, 3.65014262e-02, 4.06951979e-02,
          6.62371367e-02, 1.09608911e-01, 1.02570102e-01, 5.81350736e-02,
          3.87483574e-02, 3.63110341e-02, 4.63083275e-02, 3.45247574e-02,
          3.45643871e-02, 3.78236175e-02, 7.61436522e-02, 3.30119208e-02,
          3.55113409e-02, 1.63340028e-02, 1.08529581e-02, 1.41692739e-02,
          1.02746719e-02, 9.97087266e-03, 1.08900173e-02, 1.83101855e-02,
          2.64463015e-02, 2.33544149e-02, 2.21346505e-02, 2.14247871e-02,
          2.55627371e-02, 2.38816198e-02, 2.60179006e-02, 2.67734248e-02,
          2.75199842e-02, 7.10504428e-02, 7.41812512e-02, 6.92861825e-02,
          6.57132044e-02, 6.87241405e-02, 5.84640056e-02, 5.86145632e-02,
          6.26873150e-02, 6.56194016e-02, 7.21202716e-02, 7.85645619e-02,
          8.34422782e-02, 7.59739727e-02, 7.76304081e-02, 6.35460913e-02,
          5.94843179e-02, 6.01172000e-02, 6.37864769e-02, 2.10945737e-02,
          2.11823098e-02, 2.32511181e-02, 2.65779607e-02, 3.18155997e-02,
          2.31701862e-02, 2.04072092e-02, 1.96131803e-02, 2.05508005e-02,
          6.20501712e-02, 5.54186180e-02, 4.77875210e-02, 4.63037901e-02,
          5.55125661e-02, 4.91178408e-02, 5.18700220e-02, 5.54957092e-02,
          6.11733720e-02, 1.68513492e-01, 1.70021459e-01, 1.55442178e-01,
          1.47194788e-01, 1.49852008e-01, 1.22184582e-01, 1.16784953e-01,
          1.28840297e-01, 1.54093489e-01, 1.67874098e-01, 1.87977612e-01,
          1.94674417e-01, 1.83487281e-01, 1.72233447e-01, 1.36986911e-01,
          1.26331970e-01, 1.33265957e-01, 1.48872554e-01, 5.14476821e-02,
          5.38308211e-02, 6.75121695e-02, 7.27322325e-02, 8.48885253e-02,
          6.89997301e-02, 5.79885431e-02, 5.17297126e-02, 5.06214388e-02,
          6.47064298e-02, 5.64713925e-02, 4.86654192e-02, 4.59524244e-02,
          5.30351065e-02, 4.46083061e-02, 4.81946282e-02, 5.64048216e-02,
          6.44596219e-02, 1.43199638e-01, 1.32824823e-01, 1.20419338e-01,
          1.20685808e-01, 1.40932307e-01, 1.07067674e-01, 1.05401315e-01,
          1.12957552e-01, 1.34651497e-01, 1.38485491e-01, 1.61718085e-01,
          1.46151438e-01, 1.29368529e-01, 1.41058147e-01, 1.08048245e-01,
          1.02725051e-01, 1.12598144e-01, 1.29382849e-01, 4.65278253e-02,
          7.46822879e-02, 1.07115410e-01, 6.08791225e-02, 6.97540343e-02,
          4.71014827e-02, 3.73216420e-02, 3.81291695e-02, 4.31399979e-02,
          3.61372493e-02, 1.77132096e-02, 1.41896419e-02, 1.42911430e-02,
          1.81017853e-02, 1.48434024e-02, 1.60195678e-02, 2.32088957e-02,
          4.25641537e-02, 9.90624055e-02, 6.11487031e-02, 3.73415835e-02,
          3.42118368e-02, 4.40745987e-02, 3.25097181e-02, 3.22842710e-02,
          3.47624570e-02, 6.80077672e-02, 6.80255815e-02, 8.56622681e-02,
          4.15274352e-02, 2.29877606e-02, 2.94096228e-02, 2.13166382e-02,
          2.05909479e-02, 2.26190332e-02, 3.72972265e-02, 8.71563796e-03,
          2.03736983e-02, 1.59735065e-02, 3.98508413e-03, 5.47115318e-03,
          3.26674618e-03, 2.64982786e-03, 3.26973340e-03, 5.65598113e-03 ]
      - [ 0., 0., 0., 0., 0., 0., 0., 0., 0., 3.10845717e-05,
          8.28832981e-06, 5.46467902e-07, 8.94943408e-09, 5.23863446e-06,
          2.58804622e-09, 5.98212807e-07, 2.09811333e-07, 9.79440392e-06,
          6.65717339e-03, 5.58659318e-04, 6.70491718e-05, 5.52661331e-05,
          7.94081134e-05, 4.70344639e-05, 5.45405492e-05, 1.02624828e-04,
          3.30821541e-03, 3.75605840e-03, 1.17940785e-04, 6.57783457e-05,
          5.09947604e-05, 7.20719763e-05, 4.15209652e-05, 5.76713428e-05,
          2.48673023e-04, 4.68135159e-03, 3.06306197e-03, 2.15827804e-02,
          2.43201703e-02, 3.36460443e-03, 3.65125877e-03, 2.71113240e-03,
          1.40415027e-03, 1.17420265e-03, 1.48882403e-03, 1.35884061e-01,
          2.14987323e-01, 1.27606079e-01, 6.75220340e-02, 5.40582500e-02,
          3.61590758e-02, 2.91196965e-02, 3.15461829e-02, 4.92927283e-02,
          2.14987323e-01, 1.85090035e-01, 9.05062556e-02, 9.18957740e-02,
          8.72368366e-02, 6.80455863e-02, 6.57819957e-02, 7.16012716e-02,
          1.45846084e-01, 8.70407969e-02, 3.46091352e-02, 3.15425582e-02,
          3.12486235e-02, 3.35476883e-02, 3.08157317e-02, 3.29720005e-02,
          4.55962643e-02, 1.17624089e-01, 1.95318554e-02, 5.90806045e-02,
          1.56772152e-01, 8.13878030e-02, 5.50763085e-02, 3.25841159e-02,
          1.99626628e-02, 1.67004187e-02, 1.56746972e-02, 1.55146196e-01,
          2.14987323e-01, 2.14987323e-01, 2.14987323e-01, 1.96074978e-01,
          1.30782738e-01, 1.04672536e-01, 1.14224657e-01, 1.32833362e-01,
          1.88309819e-01, 1.80523306e-01, 1.95551351e-01, 1.90063685e-01,
          1.69206008e-01, 1.30399808e-01, 1.30585253e-01, 1.51628762e-01,
          1.82799488e-01, 5.95675409e-02, 6.38261959e-02, 6.16262071e-02,
          5.97858950e-02, 6.09976314e-02, 5.82323447e-02, 5.80390207e-02,
          5.92228398e-02, 5.91507591e-02, 1.47161493e-02, 1.87779330e-02,
          4.15844135e-02, 6.56505227e-02, 5.18296175e-02, 3.01495865e-02,
          2.45724507e-02, 1.89881269e-02, 1.42444093e-02, 6.20979629e-02,
          7.85261914e-02, 1.08186468e-01, 1.17081217e-01, 1.00791782e-01,
          7.16989785e-02, 5.73069043e-02, 5.29148988e-02, 5.37143573e-02,
          8.38512480e-02, 1.11834057e-01, 1.15378588e-01, 9.08953175e-02,
          7.84792677e-02, 6.09883219e-02, 5.63217066e-02, 5.64178899e-02,
          6.47235513e-02, 2.75560897e-02, 3.18859704e-02, 2.99893469e-02,
          2.64971126e-02, 2.50939224e-02, 2.21325159e-02, 2.19770074e-02,
          2.32372712e-02, 2.42409967e-02, 2.93627963e-05, 7.96654876e-06,
          4.34436430e-07, 8.97715502e-09, 4.06019262e-06, 2.64982103e-09,
          4.51623066e-07, 1.61059859e-07, 8.87946135e-06, 9.17776115e-03,
          6.52309100e-04, 1.03607716e-04, 8.58115163e-05, 1.13756010e-04,
          7.05061757e-05, 8.43343805e-05, 1.62787168e-04, 5.30068157e-03,
          6.77956454e-03, 1.97021829e-04, 1.30225410e-04, 9.65925065e-05,
          1.56212103e-04, 8.10921119e-05, 1.18203607e-04, 6.32395619e-04,
          1.02186287e-02, 4.30037580e-05, 1.18423031e-06, 3.29464319e-06,
          9.74362706e-08, 1.87423520e-05, 1.37349218e-07, 3.70066141e-06,
          3.12874836e-05, 1.51678643e-04, 7.58885518e-02, 1.15634806e-01,
          5.35430945e-02, 3.55844423e-02, 2.82392204e-02, 1.86687820e-02,
          1.55520532e-02, 1.70731321e-02, 2.77332645e-02, 2.10119173e-01,
          1.62267029e-01, 8.85265321e-02, 9.01966691e-02, 8.95219222e-02,
          7.34070316e-02, 7.33670369e-02, 8.01808089e-02, 1.74219847e-01,
          1.83160111e-01, 8.19465294e-02, 7.65053183e-02, 7.53135011e-02,
          8.25355425e-02, 7.65991211e-02, 8.18924904e-02, 1.35552660e-01,
          2.10119173e-01, 2.57121213e-02, 1.88501086e-02, 1.86417885e-02,
          1.93201490e-02, 2.36176793e-02, 2.55134236e-02, 3.73713337e-02,
          9.47040990e-02, 7.49155805e-02, 7.41638839e-02, 1.01163857e-01,
          1.24073997e-01, 1.08718321e-01, 8.18952471e-02, 5.56611829e-02,
          4.83744256e-02, 5.55269718e-02, 6.54936284e-02, 1.87321708e-01,
          1.81100219e-01, 1.89103499e-01, 1.81272581e-01, 1.69228911e-01,
          1.36959091e-01, 1.36580959e-01, 1.53500751e-01, 1.82792187e-01,
          1.47778556e-01, 1.54140547e-01, 1.48860991e-01, 1.47067517e-01,
          1.51659071e-01, 1.47589281e-01, 1.50969684e-01, 1.58965409e-01,
          1.53099552e-01, 4.86882366e-02, 4.69825938e-02, 4.81642298e-02,
          5.13877682e-02, 5.98781109e-02, 6.58837259e-02, 7.85207599e-02,
          8.79257098e-02, 6.41875789e-02, 2.91030891e-02, 3.71356197e-02,
          4.84876782e-02, 4.73777279e-02, 4.01359014e-02, 2.95450520e-02,
          2.46820878e-02, 2.34607458e-02, 2.45924629e-02, 8.56546983e-02,
          1.13373332e-01, 1.13822103e-01, 8.86058882e-02, 7.65208751e-02,
          6.05100952e-02, 5.68247102e-02, 5.71699739e-02, 6.59941733e-02,
          6.69262856e-02, 7.43200257e-02, 6.77974299e-02, 6.18296824e-02,
          6.04803115e-02, 5.58172762e-02, 5.77265844e-02, 6.17367178e-02,
          6.19608909e-02, 2.14407220e-02, 2.17654090e-02, 2.00456642e-02,
          2.10950151e-02, 2.41799615e-02, 2.66120825e-02, 3.14310119e-02,
          2.93735191e-02, 2.43478697e-02, 5.34227025e-03, 3.18521168e-04,
          6.76210257e-05, 5.60342050e-05, 7.12334077e-05, 4.47288839e-05,
          5.54378348e-05, 1.10451998e-04, 3.62731074e-03, 5.24794916e-03,
          1.44081467e-04, 1.10925728e-04, 7.68195678e-05, 1.53851783e-04,
          6.72932802e-05, 1.04521838e-04, 6.82391517e-04, 9.46632400e-03,
          5.94073426e-05, 1.84837643e-06, 5.23036306e-06, 1.21458925e-07,
          2.97737861e-05, 1.73293174e-07, 5.75268041e-06, 4.11656220e-05,
          1.99286602e-04, 0., 0., 0., 0., 0., 0., 0., 0., 0.,
          1.47392213e-01, 6.10326380e-02, 3.88219096e-02, 3.92193757e-02,
          4.10466716e-02, 3.57872695e-02, 3.68726291e-02, 4.04891036e-02,
          9.51595455e-02, 1.75913945e-01, 8.81686285e-02, 8.38920251e-02,
          8.20893720e-02, 9.15404260e-02, 8.58865306e-02, 9.17302296e-02,
          1.76817507e-01, 2.11532548e-01, 5.40242791e-02, 4.09844853e-02,
          4.08494361e-02, 4.37794477e-02, 5.46926372e-02, 6.19091094e-02,
          1.09187514e-01, 2.11532548e-01, 1.59131661e-01, 2.11140863e-03,
          2.04886263e-03, 2.30968418e-03, 3.01924534e-03, 4.58020717e-03,
          6.06519310e-03, 2.71189343e-02, 2.68072579e-02, 4.94955806e-03,
          8.26693773e-02, 8.16349015e-02, 8.24058801e-02, 7.76158422e-02,
          7.60855302e-02, 6.51302338e-02, 6.42410964e-02, 6.92864433e-02,
          8.08142200e-02, 1.65614977e-01, 1.68295860e-01, 1.63215160e-01,
          1.63363546e-01, 1.70547992e-01, 1.68469340e-01, 1.77034736e-01,
          1.91499487e-01, 1.79344252e-01, 1.22330032e-01, 1.20925985e-01,
          1.26683220e-01, 1.39690101e-01, 1.67012811e-01, 1.85578123e-01,
          2.11532548e-01, 2.11532548e-01, 1.60375074e-01, 2.36336496e-02,
          2.72552483e-02, 3.25474627e-02, 4.01614606e-02, 5.17224707e-02,
          6.77016526e-02, 1.36002436e-01, 6.22162074e-02, 2.48624031e-02,
          3.88381258e-02, 5.07708266e-02, 4.99624200e-02, 3.87046933e-02,
          3.29862051e-02, 2.69093476e-02, 2.58320495e-02, 2.60095987e-02,
          2.99965236e-02, 7.37172291e-02, 7.90673345e-02, 7.04030842e-02,
          6.58720583e-02, 6.64187893e-02, 6.37985915e-02, 6.87054396e-02,
          7.36713707e-02, 7.15685412e-02, 5.55548668e-02, 5.76909073e-02,
          5.59415855e-02, 6.34214953e-02, 7.36715868e-02, 7.70262703e-02,
          8.65569636e-02, 7.80178234e-02, 6.30952120e-02, 1.82728749e-02,
          2.26061046e-02, 2.64513027e-02, 3.20308618e-02, 4.18439806e-02,
          4.37154323e-02, 3.43636423e-02, 2.12626737e-02, 1.77430268e-02,
          1.56885793e-03, 1.09114293e-02, 1.34764034e-02, 1.99939194e-03,
          2.11477512e-03, 1.53957354e-03, 7.92505336e-04, 6.59020385e-04,
          8.28138960e-04, 5.07266968e-02, 9.72294360e-02, 5.87850660e-02,
          3.15736346e-02, 2.51075439e-02, 1.72780361e-02, 1.38547616e-02,
          1.49100274e-02, 2.11586636e-02, 9.54080671e-02, 6.47190958e-02,
          3.79057638e-02, 3.87559831e-02, 3.61154117e-02, 2.81379186e-02,
          2.70005055e-02, 2.93863174e-02, 5.04235402e-02, 2.72464752e-02,
          1.36408499e-02, 1.27377743e-02, 1.26903122e-02, 1.34750530e-02,
          1.24832029e-02, 1.30860489e-02, 1.67237893e-02, 3.56483646e-02,
          1.76675227e-02, 4.24808227e-02, 1.25088960e-01, 8.04026723e-02,
          5.26572913e-02, 3.13837156e-02, 1.99512448e-02, 1.62454732e-02,
          1.48358112e-02, 1.14706524e-01, 1.63799822e-01, 2.03645900e-01,
          2.03645900e-01, 1.61077723e-01, 1.06912896e-01, 8.60315487e-02,
          9.28333551e-02, 1.05895907e-01, 1.47633567e-01, 1.40943155e-01,
          1.55773759e-01, 1.47760719e-01, 1.31657600e-01, 1.01067595e-01,
          1.02219790e-01, 1.18839115e-01, 1.44928053e-01, 4.68407422e-02,
          5.06338626e-02, 4.84439284e-02, 4.66587879e-02, 4.74399962e-02,
          4.51999269e-02, 4.50715534e-02, 4.55101989e-02, 4.57969941e-02,
          2.79243458e-02, 3.45359035e-02, 6.42227456e-02, 1.11544959e-01,
          1.06093928e-01, 6.30270541e-02, 4.90543246e-02, 3.97186130e-02,
          2.86618099e-02, 1.16530679e-01, 1.49731383e-01, 1.94836542e-01,
          2.03645900e-01, 1.92960724e-01, 1.42535731e-01, 1.10831343e-01,
          9.85075757e-02, 9.75899175e-02, 1.51784033e-01, 2.03645900e-01,
          2.03645900e-01, 1.75995260e-01, 1.52707055e-01, 1.20269418e-01,
          1.05290592e-01, 1.00085743e-01, 1.10429354e-01, 4.95779365e-02,
          5.84899373e-02, 5.59595302e-02, 4.90008593e-02, 4.59709689e-02,
          3.93482260e-02, 3.83503363e-02, 4.13937159e-02, 4.32412960e-02,
          1.16535993e-02, 1.26814870e-02, 1.49596632e-02, 2.20149569e-02,
          4.52186316e-02, 4.26187404e-02, 2.89592519e-02, 2.42643654e-02,
          1.56538207e-02, 4.47520167e-02, 5.50477281e-02, 6.91739172e-02,
          7.51240104e-02, 8.45229477e-02, 8.03806707e-02, 7.79357105e-02,
          5.43994494e-02, 4.24505360e-02, 4.70284484e-02, 6.61205426e-02,
          7.57564232e-02, 7.90052712e-02, 8.29729810e-02, 6.91282898e-02,
          5.28313704e-02, 4.24157865e-02, 3.99060249e-02, 1.30445026e-02,
          1.63256358e-02, 1.78190153e-02, 1.84642673e-02, 2.11181976e-02,
          1.79035589e-02, 1.53097492e-02, 1.41128646e-02, 1.26573863e-02,
          3.03079393e-02, 4.82412390e-02, 2.63745487e-02, 1.79168712e-02,
          1.39913410e-02, 9.50537622e-03, 7.95877352e-03, 8.75766296e-03,
          1.27634797e-02, 1.08750239e-01, 6.34365305e-02, 4.05215137e-02,
          4.15203422e-02, 4.06573191e-02, 3.32340263e-02, 3.27470265e-02,
          3.54984663e-02, 6.40855357e-02, 6.53205365e-02, 3.61539125e-02,
          3.43455262e-02, 3.40959653e-02, 3.69043872e-02, 3.45893949e-02,
          3.62967104e-02, 5.38150184e-02, 1.02421425e-01, 1.12443715e-02,
          9.09914356e-03, 9.09442175e-03, 9.62271541e-03, 1.16462000e-02,
          1.26435217e-02, 1.76788773e-02, 3.85330468e-02, 2.86839791e-02,
          6.02885112e-02, 7.50036985e-02, 1.04120150e-01, 9.60108489e-02,
          7.29015619e-02, 4.92297262e-02, 4.30621095e-02, 4.90608960e-02,
          5.70829064e-02, 1.63864627e-01, 1.58564597e-01, 1.67151824e-01,
          1.56168774e-01, 1.45145610e-01, 1.17337301e-01, 1.18170954e-01,
          1.32780313e-01, 1.60322651e-01, 1.28432900e-01, 1.35104463e-01,
          1.28832862e-01, 1.26503110e-01, 1.29889309e-01, 1.26250431e-01,
          1.29571334e-01, 1.34097397e-01, 1.30096585e-01, 4.26158495e-02,
          4.14484739e-02, 4.20731939e-02, 4.46554981e-02, 5.17113283e-02,
          5.70000894e-02, 6.68732002e-02, 6.78640530e-02, 5.23452125e-02,
          6.04725257e-02, 7.92808831e-02, 9.82376710e-02, 9.54748467e-02,
          8.39583576e-02, 6.44124895e-02, 5.26424833e-02, 4.77467477e-02,
          4.89667803e-02, 1.70641392e-01, 2.03378990e-01, 2.03378990e-01,
          1.91575021e-01, 1.64776027e-01, 1.29493341e-01, 1.15157425e-01,
          1.11207590e-01, 1.24164619e-01, 1.32743880e-01, 1.48849204e-01,
          1.37246504e-01, 1.24158859e-01, 1.21193700e-01, 1.09651402e-01,
          1.11973874e-01, 1.22785576e-01, 1.23292580e-01, 4.31536473e-02,
          4.34407070e-02, 3.96406911e-02, 4.18777503e-02, 4.82216887e-02,
          5.20504639e-02, 6.09164648e-02, 5.97767681e-02, 5.00050858e-02,
          2.31911298e-02, 2.89047342e-02, 3.46050039e-02, 3.57156284e-02,
          3.73052321e-02, 3.43946703e-02, 3.36906798e-02, 2.44319793e-02,
          2.07945965e-02, 4.98049371e-02, 7.14642778e-02, 8.36604983e-02,
          8.80051106e-02, 9.23336148e-02, 7.59804621e-02, 5.72260357e-02,
          4.55857068e-02, 4.26994525e-02, 3.59017253e-02, 4.24770936e-02,
          4.40885201e-02, 4.54293862e-02, 5.34483679e-02, 4.63918075e-02,
          4.17504869e-02, 4.04994488e-02, 3.58129628e-02, 1.58148967e-02,
          1.78886373e-02, 1.77804586e-02, 1.82924625e-02, 1.99078675e-02,
          1.73065811e-02, 1.72149055e-02, 1.83138885e-02, 1.62691809e-02,
          4.93568815e-02, 2.42351722e-02, 1.74651220e-02, 1.77148301e-02,
          1.83976926e-02, 1.59761719e-02, 1.61386095e-02, 1.74332410e-02,
          3.35600786e-02, 6.44524619e-02, 3.91247869e-02, 3.77224311e-02,
          3.73412929e-02, 4.10823226e-02, 3.89132872e-02, 4.08357196e-02,
          6.88128248e-02, 1.16991483e-01, 2.44344827e-02, 2.02935562e-02,
          2.04330776e-02, 2.23242026e-02, 2.77407244e-02, 3.15459371e-02,
          5.33865094e-02, 1.02995858e-01, 6.28965124e-02, 1.27251202e-03,
          1.26418669e-03, 1.44186884e-03, 1.89701479e-03, 2.84036901e-03,
          3.71851330e-03, 1.59481950e-02, 1.43260760e-02, 2.67275423e-03,
          7.25566000e-02, 7.20859766e-02, 7.28232488e-02, 6.69676960e-02,
          6.48207441e-02, 5.55322506e-02, 5.52402958e-02, 5.94304949e-02,
          7.04456568e-02, 1.43352419e-01, 1.46792188e-01, 1.40076190e-01,
          1.39410898e-01, 1.44849807e-01, 1.43135160e-01, 1.51593924e-01,
          1.60000205e-01, 1.50904655e-01, 1.07732184e-01, 1.07664950e-01,
          1.12351194e-01, 1.24062605e-01, 1.47220001e-01, 1.61734894e-01,
          1.99416384e-01, 1.86016649e-01, 1.30551681e-01, 2.41469685e-02,
          2.82388013e-02, 3.36055048e-02, 4.16050330e-02, 5.35604209e-02,
          6.90923259e-02, 1.15271255e-01, 4.82581519e-02, 2.40329560e-02,
          7.67679140e-02, 1.07098423e-01, 1.07033819e-01, 8.37262198e-02,
          7.05690756e-02, 5.59956729e-02, 5.10527156e-02, 5.00642098e-02,
          5.62689267e-02, 1.45186469e-01, 1.55988008e-01, 1.39634803e-01,
          1.29893795e-01, 1.31446600e-01, 1.24815956e-01, 1.33067474e-01,
          1.46843731e-01, 1.42660275e-01, 1.12075053e-01, 1.15790285e-01,
          1.11890279e-01, 1.28542542e-01, 1.48008958e-01, 1.50341570e-01,
          1.67852804e-01, 1.58494323e-01, 1.29447564e-01, 3.88450176e-02,
          4.81371135e-02, 5.62549122e-02, 6.94928840e-02, 8.89608711e-02,
          8.21756646e-02, 6.23267852e-02, 4.46137898e-02, 3.76330540e-02,
          2.10062135e-02, 3.05854324e-02, 3.65543813e-02, 3.87285836e-02,
          4.08306532e-02, 3.33068818e-02, 2.48290077e-02, 1.97009668e-02,
          1.83298551e-02, 4.04284634e-02, 4.58517261e-02, 4.57519293e-02,
          4.67535444e-02, 5.58981448e-02, 4.95423153e-02, 4.66261916e-02,
          4.71927412e-02, 4.13664281e-02, 4.41758856e-02, 5.16179539e-02,
          5.41432910e-02, 6.00995906e-02, 6.14167489e-02, 4.92092557e-02,
          4.68466543e-02, 4.85548489e-02, 4.37611789e-02, 1.85782760e-02,
          2.28857901e-02, 2.61628795e-02, 3.62536758e-02, 3.61846946e-02,
          2.00824905e-02, 1.68099254e-02, 1.66098345e-02, 1.60645898e-02,
          7.79529987e-03, 1.48603059e-02, 4.70907353e-02, 3.75173762e-02,
          2.41614673e-02, 1.46189323e-02, 9.65735316e-03, 7.61177065e-03,
          6.80993730e-03, 4.14170064e-02, 5.14851063e-02, 8.86522457e-02,
          8.30844119e-02, 6.44276589e-02, 4.28703241e-02, 3.45590785e-02,
          3.65003124e-02, 4.06066626e-02, 5.63173369e-02, 5.49731664e-02,
          6.16591685e-02, 5.66292107e-02, 5.03600501e-02, 3.84655334e-02,
          3.88614759e-02, 4.47491519e-02, 5.48562743e-02, 1.79489031e-02,
          1.96559709e-02, 1.86900627e-02, 1.78741235e-02, 1.80526450e-02,
          1.70840118e-02, 1.69924833e-02, 1.69919059e-02, 1.72112398e-02,
          2.56290250e-02, 3.10052764e-02, 4.98066209e-02, 9.16960686e-02,
          1.03681646e-01, 6.30138218e-02, 4.63874526e-02, 3.92444432e-02,
          2.76407972e-02, 1.07088275e-01, 1.39101222e-01, 1.73902825e-01,
          1.87115178e-01, 1.79239303e-01, 1.36702657e-01, 1.04417965e-01,
          9.05419886e-02, 8.80303010e-02, 1.35304868e-01, 2.00853273e-01,
          2.01064020e-01, 1.64643735e-01, 1.43942356e-01, 1.14787094e-01,
          9.73693132e-02, 8.91778320e-02, 9.53124911e-02, 4.32793386e-02,
          5.18738627e-02, 5.03759980e-02, 4.40776832e-02, 4.14065607e-02,
