%YAML:1.0
---
opencv_ml_svm:
   format: 3
   svmType: C_SVC
   kernel:
      type: LINEAR
   C: 1.2500000000000000e+01
   term_criteria: { epsilon:1.1920928955078125e-07, iterations:1000 }
   var_count: 2160
   class_count: 2
   class_labels: !!opencv-matrix
      rows: 2
      cols: 1
      dt: i
      data: [ 0, 1 ]
   sv_total: 1
   support_vectors:
      - [ 1.72364805e-02, 5.24738505e-02, 9.21788160e-03,
          -1.19014150e-02, -2.33318880e-02, -1.83588378e-02,
          -1.76684670e-02, -1.29444385e-02, -6.60302257e-03,
          2.51684815e-01, 7.86411017e-02, -6.82277977e-03,
          -4.21384014e-02, -8.26169103e-02, -7.15778247e-02,
          -5.93581684e-02, -4.71582189e-02, 1.95790809e-02,
          -1.11156693e-02, -8.76878127e-02, -5.16006425e-02,
          -5.63745759e-02, -6.82082251e-02, -6.11869060e-02,
          -5.44460416e-02, -6.71962202e-02, 4.59319633e-03,
          -4.07240093e-02, -2.05455422e-02, -2.64126826e-02,
          -2.84591988e-02, -3.23451422e-02, -3.20567675e-02,
          -2.76656449e-02, -2.30049733e-02, 2.88102198e-02,
          9.82701406e-02, 1.74849719e-01, 8.09411928e-02, 5.72485775e-02,
          5.54929785e-02, 1.93979237e-02, 7.28630973e-03, 7.66409002e-03,
          1.29624794e-03, -1.13689445e-01, 2.29747221e-02,
          -7.42073683e-03, 2.75488734e-01, 1.77255809e-01,
          8.81011188e-02, -7.49911815e-02, -3.98646474e-01,
          -3.15171272e-01, -2.03796342e-01, -1.73465043e-01,
          2.22664569e-02, 1.79019794e-01, 7.16672912e-02,
          -1.08529693e-02, -1.00944936e-01, -3.85608554e-01,
          -3.60431671e-01, 9.62425489e-03, 3.55922687e-03,
          3.22744362e-02, 4.48211357e-02, 2.33915844e-03,
          -3.15030068e-02, -4.20476571e-02, -1.06435835e-01,
          -3.50807048e-02, -1.19775794e-01, -1.69832826e-01,
          -4.04433846e-01, -6.46744668e-02, 1.05548851e-01,
          -1.87651608e-02, -1.53487502e-03, -2.04103272e-02,
          -1.09630063e-01, -1.19190685e-01, -9.18735657e-03,
          1.14170186e-01, 5.29468536e-01, 4.82894719e-01, 5.67232911e-03,
          -9.75035653e-02, -2.12629527e-01, -2.49906763e-01,
          2.44905025e-01, 1.93966538e-01, 1.48638174e-01, 1.57540619e-01,
          1.81512475e-01, 8.56072381e-02, 9.34544392e-03,
          -1.54197335e-01, 1.04942590e-01, 2.08105147e-01,
          1.96237341e-01, 4.46589328e-02, -2.45202351e-02,
          -1.44566670e-01, -2.05810308e-01, -2.25942239e-01,
          -2.38128498e-01, -7.68510476e-02, -1.09184325e-01,
          -6.08812943e-02, -1.06252534e-02, -1.13650849e-02,
          1.01850435e-01, -8.04011747e-02, 1.13329096e-02,
          -2.56734286e-02, -5.41371331e-02, 4.19666655e-02,
          8.06702524e-02, 2.95298576e-01, 2.59125710e-01,
          -1.56942271e-02, -3.28071058e-01, -1.81900606e-01,
          -7.50347972e-02, -4.12294129e-03, 2.65050769e-01,
          -2.93892622e-01, -2.74939209e-01, -1.38412520e-01,
          -6.80100843e-02, -5.89936273e-03, 1.39153108e-01,
          2.38499507e-01, 3.29228938e-01, 7.29942694e-02, 6.36731237e-02,
          -8.04970227e-03, -3.92108262e-02, -8.87201652e-02,
          -1.03421070e-01, -7.68707991e-02, -1.42965233e-02,
          5.45159504e-02, 1.48900300e-01, 3.65699157e-02,
          -2.65497970e-03, -1.60656143e-02, -3.14647555e-02,
          -2.80228108e-02, -2.21742671e-02, -1.78704821e-02,
          1.53497458e-02, -6.88318014e-02, -6.91755041e-02,
          -4.59314957e-02, -4.91483510e-02, -5.90485111e-02,
          -5.64307533e-02, -5.18438369e-02, -6.48997724e-02,
          3.38217579e-02, -1.86688825e-02, -3.58810835e-02,
          -6.12462088e-02, -7.22483620e-02, -7.07233325e-02,
          -7.14658201e-02, -4.65637073e-02, -4.69508441e-03,
          3.93455662e-02, 2.25501247e-02, -1.22370459e-02,
          -2.33524218e-02, -3.64272967e-02, -2.57870816e-02,
          -2.50771772e-02, 5.10801328e-03, 8.79480764e-02,
          1.00703016e-01, 2.04167664e-02, -2.00690970e-01,
          -5.67637570e-02, 1.41938254e-01, 8.83093551e-02,
          3.90867814e-02, -3.93666811e-02, -1.87999442e-01,
          -1.31964520e-01, -1.56309217e-01, -3.98775004e-02,
          6.31078929e-02, 1.68663293e-01, 3.74953225e-02,
          -2.35229395e-02, -6.27127364e-02, -3.13980818e-01,
          -3.54321718e-01, -9.47625563e-03, 8.38602036e-02,
          5.59536181e-02, 1.04596198e-01, 9.62955877e-02,
          -1.74805362e-04, -5.21610491e-02, -1.78736612e-01,
          -7.46186897e-02, 8.58830810e-02, 6.30032644e-02,
          2.01143753e-02, 7.20841438e-02, 1.17279850e-01, 5.75964674e-02,
          -1.01875188e-03, 9.89780128e-02, 9.85165089e-02,
          -1.92639846e-02, -1.66103598e-02, 2.19056427e-01,
          3.81126881e-01, 1.84656799e-01, 3.02733872e-02,
          -1.76586043e-02, -5.37293293e-02, -6.79502040e-02,
          2.00211093e-01, 1.27403438e-01, 1.90452501e-01, 2.08634749e-01,
          1.53392658e-01, -7.49293249e-04, -6.87563792e-02,
          -2.72293925e-01, 5.41130640e-02, 2.74218231e-01,
          5.26897132e-01, 2.46013388e-01, 2.20485721e-02,
          -2.24633545e-01, -3.79344493e-01, -4.23948526e-01,
          -2.11022481e-01, -4.02199700e-02, 6.83462471e-02,
          1.48565471e-01, 1.75265417e-01, 2.20214158e-01, 1.42472744e-01,
          -1.05165884e-01, -2.24634334e-01, 3.40302587e-02,
          3.30093056e-02, 5.56135997e-02, 3.76617908e-02, 9.79403257e-02,
          6.59490153e-02, -5.34135960e-02, -1.09191656e-01,
          -5.22502884e-02, -2.28283019e-03, 3.10809650e-02,
          3.31536621e-01, -1.47734091e-01, -1.74130097e-01,
          -7.74739534e-02, -1.25276446e-02, 1.87668502e-02,
          1.42048419e-01, 2.30917081e-01, 3.46575856e-01, 1.64743453e-01,
          1.86943695e-01, 2.56796945e-02, -7.25564212e-02,
          -1.94626778e-01, -2.42925510e-01, -2.04729065e-01,
          -1.40655600e-02, 1.36214390e-01, 3.90491448e-02,
          6.29179925e-03, -2.81929504e-02, -5.34318276e-02,
          -1.12167634e-01, -1.62004247e-01, -1.41447902e-01,
          -1.05232829e-02, 4.47962619e-02, -1.91375166e-02,
          -3.94335352e-02, -2.49462817e-02, -2.24311240e-02,
          -2.64365152e-02, -2.63182502e-02, -2.85407118e-02,
          -3.83852609e-02, -5.11489483e-03, -1.81477647e-02,
          -4.30109650e-02, -6.95554093e-02, -8.31327438e-02,
          -7.27585182e-02, -7.48030692e-02, -4.40168418e-02,
          2.67085014e-03, 5.19745089e-02, 4.01422232e-02,
          -3.81550416e-02, -6.04204498e-02, -8.99214745e-02,
          -6.23958930e-02, -6.48142546e-02, 1.07991276e-02,
          2.00395808e-01, 1.97262138e-01, -1.18233720e-02,
          -2.51553264e-02, -2.71815900e-02, -3.44325490e-02,
          -3.38941216e-02, -3.11082508e-02, -7.48730358e-03,
          1.18847413e-03, -3.53623112e-03, -1.55910224e-01,
          -1.11973427e-01, 8.51694681e-03, 5.51692285e-02,
          -1.69852432e-02, -3.81619334e-02, -4.94746827e-02,
          -1.45907432e-01, -1.90525964e-01, 1.24897324e-02,
          7.37468600e-02, -3.41050662e-02, 2.67418250e-02,
          9.41140279e-02, -1.30978283e-02, -9.95244905e-02,
          -9.70395878e-02, -4.28001173e-02, 1.53584182e-01,
          1.09761812e-01, 5.34562953e-02, 1.75635561e-01, 2.37867922e-01,
          8.06825757e-02, -3.87640595e-02, 9.33694188e-03,
          2.39922404e-02, 5.03211282e-02, 3.56960259e-02, 3.16325426e-02,
          9.27929301e-03, -3.72717716e-02, -3.58042191e-03,
          3.38803679e-01, 3.65948260e-01, 1.31057009e-01, 1.84358865e-01,
          -8.43648147e-03, 5.52849285e-02, 7.93466941e-02,
          8.53050034e-03, -7.52567500e-02, -9.94610190e-02,
          -1.60695210e-01, 4.49641533e-02, 2.13693291e-01,
          4.08054352e-01, 2.91244239e-01, -1.85139421e-02,
          -2.65360951e-01, -4.72190529e-01, -5.33023119e-01,
          -8.33401307e-02, -2.56235637e-02, 2.08794605e-02,
          1.61037326e-01, 3.46167028e-01, 5.34846365e-01, 3.68118644e-01,
          -2.36207515e-01, -5.00046909e-01, -1.05693601e-01,
          -9.29821283e-03, -5.92934042e-02, -5.14030829e-02,
          -7.55807618e-03, -2.28793547e-02, -1.09247163e-01,
          -5.43014035e-02, 2.28136167e-01, 9.98706967e-02,
          -7.16704950e-02, 1.67979911e-01, -2.78206468e-02,
          -6.09177351e-02, -3.27244662e-02, -1.52805736e-02,
          -1.06832078e-02, 4.88653630e-02, 9.33476388e-02,
          1.60982609e-01, 1.60368323e-01, 1.88046873e-01,
          -7.68033715e-05, -1.36423036e-01, -2.81209350e-01,
          -3.48081142e-01, -3.21713507e-01, -3.40648927e-02,
          1.54532537e-01, 1.31779071e-02, -4.73829992e-02,
          -8.18169117e-02, -1.28639579e-01, -2.79835790e-01,
          -3.80827159e-01, -3.33492458e-01, -4.99480776e-02,
          3.91128585e-02, -9.28931162e-02, -9.66122672e-02,
          -8.40544775e-02, -9.44971591e-02, -1.17793150e-01,
          -7.12831393e-02, -3.54840234e-02, -7.17249885e-02,
          -9.35035497e-02, 8.20995774e-03, 8.29270780e-02,
          -6.76098885e-03, 9.86314099e-03, 2.57861428e-02,
          8.14436004e-03, 1.13564194e-03, -4.03639721e-03,
          -1.89207643e-02, -7.53409564e-02, -2.09796980e-01,
          -1.72391847e-01, 9.91837010e-02, 8.35367590e-02,
          3.48396227e-02, -4.91926149e-02, -2.20895052e-01,
          -2.04874694e-01, -7.52644315e-02, -3.15270647e-02,
          1.49305984e-02, 6.56119063e-02, 2.32647173e-02,
          -1.64611638e-02, -5.43959029e-02, -1.92108810e-01,
          -1.71698511e-01, 1.85178164e-02, 9.02006496e-03,
          1.41300559e-02, 1.61973760e-02, -2.51931883e-03,
          -2.14395989e-02, -2.37122066e-02, -4.69038785e-02,
          -6.60075108e-03, -1.40534818e-01, -1.80269316e-01,
          -3.99455100e-01, -8.78678188e-02, 9.79713127e-02,
          -3.68156843e-02, 4.58634412e-03, -1.59566235e-02,
          -1.05396658e-01, 1.51782269e-02, 8.46392438e-02,
          2.21027225e-01, 6.92826629e-01, 3.01407695e-01,
          -1.10505477e-01, -1.02602415e-01, -6.28411621e-02,
          -7.57996738e-02, 3.13021928e-01, 2.03798376e-02,
          1.08422548e-01, 9.25709214e-03, 3.11482660e-02,
          -4.52573318e-03, 7.33354315e-02, 8.85563567e-02,
          4.01983023e-01, 2.39009529e-01, 1.91231132e-01, 1.71155315e-02,
          -4.85756509e-02, -1.54143229e-01, -1.95722014e-01,
          -1.89977586e-01, -1.43382877e-01, 1.38562294e-02,
          -1.97754189e-01, -9.18529481e-02, 6.61396515e-03,
          -1.51993958e-02, 2.57383555e-01, -9.10351276e-02,
          5.21371178e-02, -5.72333150e-02, -1.16932832e-01,
          3.81899811e-03, 2.51915514e-01, 3.31630975e-01, 4.07997966e-01,
          -1.61852136e-01, -5.04566848e-01, -3.17343414e-01,
          -1.71500072e-01, -5.07447235e-02, 3.27858686e-01,
          -7.20204860e-02, -1.55669183e-01, -8.58362019e-02,
          1.47657434e-03, 1.74052995e-02, 2.75199562e-01, 3.90718371e-01,
          4.93146062e-01, 9.92428511e-02, 9.72542316e-02, 1.96891986e-02,
          -1.79121662e-02, -6.25707060e-02, -1.00854278e-01,
          -8.47624168e-02, -2.60386746e-02, 6.73123300e-02,
          3.97995673e-03, 2.93242019e-02, 3.51983197e-02,
          -1.99475070e-03, 4.75108288e-02, -3.80514674e-02,
          -8.27065408e-02, -9.73702520e-02, -5.74892722e-02,
          -4.82828543e-02, -1.05247974e-01, -7.66281188e-02,
          -1.08264662e-01, -1.94637522e-01, -4.30660993e-01,
          -2.76051044e-01, -1.52811185e-01, -9.18140262e-02,
          -2.89027225e-02, -7.09375143e-02, -2.60664336e-02,
          -3.45403180e-02, -6.28113747e-02, -1.83844849e-01,
          -1.78688347e-01, -1.48922741e-01, -7.44919553e-02,
          -1.30487774e-02, -2.92163081e-02, -5.87460846e-02,
          -5.08756079e-02, -4.31630686e-02, -4.49077301e-02,
          -4.38225195e-02, -5.49211018e-02, -2.38634255e-02,
          -3.92117910e-02, -9.15357396e-02, -5.33308573e-02,
          5.13604544e-02, 3.71768735e-02, 1.03190746e-02,
          -3.28526571e-02, -1.12735257e-01, -9.30740833e-02,
          -1.38324067e-01, -5.50521761e-02, 1.76891331e-02,
          5.48442192e-02, -3.39150848e-03, -3.72906178e-02,
          -5.03715351e-02, -1.72945812e-01, -1.79562196e-01,
          6.11394644e-02, 4.52700481e-02, 1.76292975e-02, 3.12170926e-02,
          1.94552075e-02, -3.53171714e-02, -6.24552369e-02,
          -1.12848125e-01, -5.58894575e-02, 2.87138931e-02,
          2.98086405e-02, 1.39400046e-02, 3.63849513e-02, 4.99852896e-02,
          4.69313003e-03, -3.88025343e-02, 1.49891553e-02,
          1.81029253e-02, 5.08181415e-02, 7.00003356e-02, 2.73144126e-01,
          3.22080165e-01, 8.95888135e-02, -4.42476757e-02,
          -3.59600410e-02, 7.73697160e-03, 2.42948011e-02,
          3.53975296e-01, 6.22238591e-02, 1.35072291e-01, 5.17054088e-02,
          3.19550000e-02, -8.50749910e-02, -1.08808363e-02,
          4.08239756e-03, 3.80780876e-01, 3.01955283e-01, 6.73703253e-01,
          1.78428486e-01, -3.35814469e-02, -2.96708822e-01,
          -4.15082544e-01, -3.84330332e-01, -1.61634117e-01,
          -2.30327453e-02, 7.51695782e-02, 1.36232376e-01,
          1.45351067e-01, 1.87631875e-01, 9.55508202e-02,
          -1.35306269e-01, -2.15153068e-01, 8.13367888e-02,
          6.35927543e-02, 6.50724098e-02, 6.08347803e-02, 2.19892070e-01,
          1.71768323e-01, -1.09989233e-01, -2.87292123e-01,
          -1.17574610e-01, -2.93699838e-02, 2.99270824e-02,
          4.50986624e-01, -8.57383460e-02, -1.69688746e-01,
          -7.38591561e-03, 1.19277179e-01, 9.83716920e-02,
          3.05774152e-01, 3.93380433e-01, 5.40364683e-01, 2.41286919e-01,
          2.93032825e-01, 1.02513455e-01, -3.75782736e-02,
          -1.69558913e-01, -2.93847501e-01, -2.99699008e-01,
          -1.24337345e-01, 1.24878265e-01, 1.69882849e-02,
          -7.84854069e-02, -1.30597472e-01, -1.29022270e-01,
          -2.01267496e-01, -3.04108709e-01, -2.61296928e-01,
          -9.99311581e-02, 2.05362272e-02, -3.10781021e-02,
          -4.81079221e-02, -1.34284031e-02, -1.34355444e-02,
          -6.54003844e-02, -1.92637324e-01, -1.29469708e-01,
          -6.38757423e-02, -4.78951447e-02, 2.16124975e-03,
          -3.12862732e-02, -2.69466117e-02, -3.27447206e-02,
          -5.05340584e-02, -1.26898095e-01, -1.20078638e-01,
          -1.31192580e-01, -4.55153659e-02, -9.40180942e-02,
          -1.55359790e-01, -2.20811337e-01, -1.60243422e-01,
          -1.12890214e-01, -1.45581573e-01, -1.63224325e-01,
          -1.85970381e-01, -1.10456549e-01, -1.80184588e-01,
          -2.73383111e-01, -2.44168073e-01, -1.35619566e-01,
          -7.20992908e-02, -1.44516408e-01, -1.71987697e-01,
          -1.75005570e-01, -1.53358385e-01, 6.79508597e-03,
          -5.05843014e-03, 2.66010556e-02, 4.13077325e-02,
          1.21826781e-02, -3.92863061e-03, -3.29388957e-03,
          -4.47729230e-02, -4.28196490e-02, 1.39702842e-01,
          1.07725583e-01, 4.16969657e-02, 5.36285825e-02, 7.51692578e-02,
          9.45963711e-03, -3.08353137e-02, -5.08506149e-02,
          5.05922996e-02, 8.99857134e-02, 8.78146067e-02, 7.29876608e-02,
          1.26182064e-01, 1.45304129e-01, 3.22921090e-02,
          -2.86670979e-02, 2.22731963e-01, 1.06444567e-01,
          2.69522574e-02, 2.45867465e-02, 2.40210406e-02, 1.21985814e-02,
          -1.57322269e-02, -5.55342808e-03, 1.87294886e-01,
          2.64660060e-01, 5.61279841e-02, 3.52749169e-01, 9.20232162e-02,
          9.20813233e-02, 7.81900063e-02, 3.18719372e-02,
          -2.39020903e-02, 1.01428526e-02, 2.65324824e-02,
          2.38801241e-01, 4.65821624e-01, 8.20236206e-01, 3.66503000e-01,
          8.60491022e-02, -1.71843246e-01, -3.56376469e-01,
          -3.23560208e-01, 5.12940139e-02, 1.43287450e-01,
          1.97386563e-01, 3.01603824e-01, 4.08022881e-01, 5.67749381e-01,
          4.03079480e-01, -1.43712565e-01, -3.07704955e-01,
          1.84099659e-01, 2.36873507e-01, -1.90952234e-02,
          5.53460419e-03, 3.24688032e-02, 7.53468322e-03,
          -6.96583986e-02, -2.25743232e-03, 2.61721104e-01,
          8.49196762e-02, -4.38313186e-02, 3.15123677e-01,
          4.82043624e-02, -1.57236774e-02, 5.06763607e-02,
          1.04792558e-01, 1.01069279e-01, 1.83409706e-01, 2.24204987e-01,
          3.10731441e-01, 3.69238079e-01, 4.14131910e-01, 1.57115355e-01,
          -4.57662717e-02, -1.88415140e-01, -3.48109782e-01,
          -3.50977480e-01, -1.40887454e-01, 2.00818270e-01,
          1.61375999e-02, -1.91124707e-01, -2.07851633e-01,
          -1.37733027e-01, -2.90570229e-01, -5.99754691e-01,
          -3.45791548e-01, -2.78232247e-02, 7.21304417e-02,
          -1.61854610e-01, -1.71678796e-01, -1.27847835e-01,
          -1.16584681e-01, -1.37361884e-01, -6.29416704e-02,
          -3.37278806e-02, -1.39382333e-01, -1.67335421e-01,
          4.12574224e-02, 2.81402990e-02, 6.47157244e-03,
          -9.51744616e-03, -1.45123843e-02, -1.83140133e-02,
          -9.38195735e-03, -1.85934119e-02, 2.52663046e-02,
          -9.52176824e-02, -1.81396320e-01, -2.55242407e-01,
          -1.73051506e-01, -9.43422019e-02, -1.42806634e-01,
          -1.64316550e-01, -1.71884716e-01, -1.02345563e-01,
          -4.11796093e-01, -6.22901022e-01, -5.29913127e-01,
          -2.63239086e-01, -9.12262276e-02, -2.49688685e-01,
          -3.35133493e-01, -3.59855771e-01, -3.30225646e-01,
          -9.88163054e-02, -6.10579140e-02, -5.90117835e-02,
          -6.70714378e-02, -5.81793003e-02, -6.41812980e-02,
          -1.38012230e-01, -1.65815517e-01, -1.31752416e-01,
          -6.08214624e-02, -7.41785243e-02, -1.14000097e-01,
          -4.78151888e-02, 4.22242619e-02, -1.57958437e-02,
          1.17316805e-02, 2.73148855e-03, -3.52200717e-02,
          9.10010338e-02, 1.24744117e-01, 3.03280115e-01, 3.20061982e-01,
          8.68028626e-02, -6.64597228e-02, -1.36439865e-02,
          5.85725494e-02, 5.32683767e-02, 3.34453642e-01,
          -2.75319815e-02, 4.94043045e-02, -1.85618959e-02,
          -2.24965136e-03, 1.18872244e-02, 9.49875638e-02,
          1.69129431e-01, 3.27541769e-01, 1.30478278e-01, 9.78237689e-02,
          8.05344153e-03, -2.55855564e-02, -7.69691765e-02,
          -8.98371190e-02, -7.50675350e-02, -2.98776254e-02,
          4.77331057e-02, -1.49997726e-01, -5.35687245e-03,
          1.06464475e-01, 9.92879830e-03, 2.75443256e-01,
          -2.54739486e-02, 7.28445128e-02, -5.70856780e-02,
          -1.06177874e-01, -5.65428403e-04, 2.90435791e-01,
          3.01096052e-01, 2.12176368e-01, 1.58462301e-02,
          -4.93694931e-01, -2.13582218e-01, -1.24116234e-01,
          -1.90610271e-02, 3.11635911e-01, -7.26948529e-02,
          -6.73475936e-02, 1.35553569e-01, 1.29767895e-01,
          1.12877853e-01, 3.53343815e-01, 4.16125536e-01, 4.64769483e-01,
          9.85884070e-02, 1.01931736e-01, 6.09038733e-02, 4.20537665e-02,
          2.30737031e-02, -1.62689611e-02, -1.58876181e-02,
          7.73680303e-03, 7.24039972e-02, 2.07569152e-02, 3.05734668e-02,
          2.88095903e-02, 1.25464692e-03, 1.58848211e-01, 3.14669535e-02,
          -1.12969413e-01, -1.64301291e-01, -8.22007507e-02,
          4.80987728e-02, -8.47317129e-02, -1.56699747e-01,
          -1.91357523e-01, -2.22030357e-01, -5.68545997e-01,
          -1.87038258e-01, 1.20527737e-01, -1.17294423e-01,
          9.01390687e-02, 1.02665462e-01, 1.20776258e-01,
          -4.40700501e-02, -8.36916938e-02, -2.60054290e-01,
          -4.06088606e-02, -9.84015409e-03, 1.83404218e-02,
          9.12541300e-02, 2.51832921e-02, -6.32560328e-02,
          -6.52013049e-02, -6.05650544e-02, -6.51912540e-02,
          -5.11892326e-02, -1.06971422e-02, 8.97982270e-02,
          2.21225116e-02, -3.92473377e-02, -5.94657660e-02,
          -4.24596891e-02, 1.55167142e-02, -1.77854616e-02,
          -3.38627249e-02, -2.14541536e-02, 3.08585670e-02,
          2.87599117e-01, 2.91825056e-01, 1.69391990e-01,
          -8.09578970e-02, -1.63197041e-01, -1.20810546e-01,
          3.00841853e-02, -2.85427384e-02, -7.80286640e-02,
          1.21714540e-01, 9.56620947e-02, 9.53498781e-02,
          -1.81231443e-02, -1.11312091e-01, -2.24473968e-01,
          -1.67478964e-01, -9.87756252e-02, 8.60300809e-02,
          3.22111994e-02, -1.00710234e-02, -5.04393876e-02,
          -6.20849431e-02, -6.86858743e-02, -9.16445032e-02,
          -9.10208374e-02, 2.75477152e-02, 8.61867443e-02,
          6.48566112e-02, 7.09773079e-02, 1.44065380e-01, 1.11439608e-01,
          8.97132978e-03, -3.07871662e-02, 1.60976511e-03,
          4.59472165e-02, 5.30491807e-02, 4.09334242e-01, 1.44145098e-02,
          4.42900471e-02, -9.10464767e-03, -2.70134304e-02,
          -3.06166187e-02, 5.80808707e-02, 1.33914888e-01,
          3.55183840e-01, 3.27932596e-01, 3.13988239e-01, 6.72736540e-02,
          -5.05334698e-02, -1.90507531e-01, -2.33381674e-01,
          -1.95006862e-01, -2.19844412e-02, 1.06673703e-01,
          4.71466668e-02, 6.01393245e-02, 5.24020419e-02, 6.20511621e-02,
          2.11751889e-02, -6.54027760e-02, -8.38964880e-02,
          7.63924941e-02, 6.23098426e-02, 2.84574833e-02, 2.38083978e-03,
          1.89658836e-01, 1.83893070e-01, -7.89812505e-02,
          -2.56069392e-01, -7.34468251e-02, -1.64949317e-02,
          2.53957175e-02, 4.35894132e-01, -1.67743750e-02,
          -1.05086230e-02, 2.02766806e-01, 2.33777732e-01,
          2.28512391e-01, 4.21376377e-01, 4.54444528e-01, 5.37435591e-01,
          2.18777984e-01, 2.84425974e-01, 1.85232624e-01, 8.91578496e-02,
          -1.17140124e-02, -1.55583411e-01, -2.07737386e-01,
          -1.17476262e-01, 1.42178535e-01, 3.04921367e-03,
          -1.04879558e-01, -1.37305215e-01, -1.03731237e-01,
          -1.51857689e-01, -2.77089387e-01, -2.70684034e-01,
          -1.64615199e-01, 3.91931972e-03, 1.79761765e-03,
          -4.57068831e-02, -4.05073203e-02, -6.78443536e-02,
          -1.06022649e-01, -2.60678202e-01, -1.81277674e-02,
          6.84503689e-02, -5.14995456e-02, 2.56618351e-01,
          2.29399458e-01, 1.72760725e-01, -9.41754505e-03,
          -4.33343127e-02, -1.05534926e-01, 6.88299071e-03,
          7.23681599e-02, 1.82592943e-01, -2.45552771e-02,
          -8.99019018e-02, -2.40227386e-01, -1.86640173e-01,
          -1.20588548e-01, -1.85591936e-01, -1.83793485e-01,
          -1.06309816e-01, 5.21386862e-02, -2.96277136e-01,
          -5.07268012e-01, -4.95739222e-01, -2.79272020e-01,
          -1.51079461e-01, -2.83280849e-01, -3.23721051e-01,
          -2.98330486e-01, -2.45849416e-01, 1.41382262e-01,
          1.39963701e-01, 8.92717540e-02, -2.43542865e-02,
          -7.22280219e-02, -4.71178629e-02, 4.67788465e-02,
          8.45036004e-03, -1.20601412e-02, 2.12607577e-01,
          1.54103294e-01, 1.35566354e-01, -7.40814395e-03,
          -1.28189519e-01, -2.51378149e-01, -2.00295553e-01,
          -5.16254455e-03, 2.33819485e-01, 5.67210764e-02,
          -1.09877042e-01, -2.18672097e-01, -1.80400237e-01,
          -1.39221445e-01, -1.66089758e-01, -1.29708692e-01,
          1.22248769e-01, 2.19871044e-01, -4.79869246e-02,
          -2.29046032e-01, -3.54861438e-01, -1.37103170e-01,
          -7.91192725e-02, -6.43597692e-02, -2.77654361e-02,
          -1.15296859e-02, -2.08478421e-02, 2.37191349e-01,
          7.05666021e-02, 5.80668114e-02, 4.53348681e-02, 2.78143175e-02,
          1.43225249e-02, 5.16629703e-02, 8.90380293e-02, 1.96956247e-01,
          4.47947294e-01, 4.76839244e-01, 2.05758229e-01, 6.16922900e-02,
          -6.37854785e-02, -1.40366584e-01, -1.01739772e-01,
          1.46052495e-01, 2.37274975e-01, 1.77377462e-01, 1.92442745e-01,
          2.07448483e-01, 2.60603100e-01, 1.94155633e-01,
          -7.00154051e-04, -3.14750597e-02, 2.95869112e-01,
          2.42148027e-01, 1.69499312e-02, 2.84200013e-02, 3.65592837e-02,
          2.46073492e-02, -8.42624868e-04, 4.33751270e-02,
          1.73569262e-01, 3.80285606e-02, 2.88534141e-03, 3.43177348e-01,
          1.32105619e-01, 7.25666136e-02, 1.45635992e-01, 2.28172079e-01,
          2.21019968e-01, 2.88877785e-01, 3.02951038e-01, 3.57086718e-01,
          5.12248456e-01, 5.30281007e-01, 3.56868833e-01, 2.05408499e-01,
          1.23603724e-01, -6.08140677e-02, -1.02446556e-01,
          -9.86081548e-03, 3.90655756e-01, 1.12732142e-01,
          -1.35509580e-01, -1.00329079e-01, 6.58680126e-02,
          -1.52449897e-02, -2.69772291e-01, 7.93242827e-02,
          1.20979019e-01, 1.83418691e-01, -9.65839848e-02,
          -1.02152795e-01, -4.21923958e-02, -7.24373246e-03,
          1.47315059e-02, 5.76565377e-02, 3.05657350e-02,
          -8.42446759e-02, -1.01811789e-01, 3.10401410e-01,
          2.66084939e-01, 1.90355912e-01, 9.40600261e-02, 7.18598589e-02,
          6.13493137e-02, 8.89199153e-02, 1.43732354e-01, 2.78574735e-01,
          1.00430921e-01, 5.85889928e-02, -3.06027047e-02,
          -4.90787998e-02, 7.71156028e-02, -4.27208357e-02,
          -3.82951722e-02, 5.13394438e-02, 1.83403462e-01,
          -4.61446851e-01, -3.59540075e-01, -5.56305051e-01,
          -4.80207562e-01, -1.93119794e-02, -3.43749195e-01,
          -4.80821788e-01, -4.59630996e-01, -4.30737853e-01,
          -3.53841484e-02, 9.47758481e-02, 2.31660437e-02,
          -2.58413982e-02, -2.39921082e-03, -7.29674771e-02,
          -1.78603634e-01, -2.12903708e-01, -1.46347567e-01,
          1.73021764e-01, 1.26311406e-01, 9.90925804e-02, 3.47002521e-02,
          -1.75619926e-02, -6.54442087e-02, -4.34467569e-02,
          9.43879709e-02, 2.13880524e-01, 1.48355708e-01,
          -7.13722855e-02, -1.80551991e-01, -9.92555842e-02,
          -1.94358546e-02, -4.12622243e-02, 2.53784712e-02,
          2.48880818e-01, 3.26115102e-01, 4.63921055e-02,
          -2.18929887e-01, -5.88387072e-01, -1.57537833e-01,
          -7.90477917e-02, -6.25686496e-02, 8.02039169e-03,
          2.67074257e-02, -9.77993757e-03, 2.67737508e-02,
          8.78232941e-02, -5.63103333e-03, -2.33925674e-02,
          -2.91888826e-02, -7.22095696e-03, 3.89886871e-02,
          4.17717732e-02, -3.06400261e-03, -5.38716726e-02,
          3.30407657e-02, 9.38167796e-02, 4.56853025e-03, 9.30455253e-02,
          -6.97007403e-03, 2.03154087e-02, -3.94974351e-02,
          -5.56625500e-02, -4.16264832e-02, -2.08241120e-02,
          1.57059640e-01, 6.40645400e-02, -1.00472793e-01,
          -2.96830595e-01, -1.02021791e-01, -7.61900246e-02,
          -3.16216350e-02, 7.33738318e-02, -1.49330467e-01,
          -1.48376942e-01, -1.05428221e-02, 3.83572355e-02,
          3.42441946e-02, 1.31414756e-01, 1.35379493e-01, 1.43220663e-01,
          1.77884959e-02, 2.24881526e-02, 2.00420730e-02, 1.98371448e-02,
          2.45685242e-02, 1.11103021e-02, 4.94121294e-03,
          -1.62064855e-03, 1.25970114e-02, -6.58785133e-03,
          -2.76362970e-02, -3.57801095e-02, -8.83277133e-03,
          1.51440024e-01, 7.19007999e-02, -7.81661570e-02,
          -1.43153057e-01, -6.88822865e-02, 1.11691020e-01,
          -1.67887397e-02, -1.49732649e-01, -8.92017782e-02,
          -2.63215810e-01, -5.06136715e-01, -2.21284285e-01,
          1.37034699e-01, -1.29120752e-01, 2.39917070e-01,
          2.68501341e-01, 2.27683634e-01, -8.58197436e-02,
          -1.63734168e-01, -3.18754077e-01, -9.81087238e-02,
          1.20350748e-01, 8.69582370e-02, 1.40312478e-01, 5.71078621e-02,
          -3.65115963e-02, -6.12411089e-02, -7.16364980e-02,
          -8.06227252e-02, -5.42779192e-02, 4.12797444e-02,
          1.60789460e-01, 9.77922380e-02, -3.06517836e-02,
          -9.38972980e-02, -8.67421478e-02, 1.05823493e-02,
          -7.07935989e-02, -7.05688372e-02, -4.41388180e-03,
          1.12379365e-01, 6.72001839e-01, 5.89015245e-01, 4.78270978e-01,
          -5.69764189e-02, -2.67865241e-01, -1.97763890e-01,
          -2.66170595e-02, 2.62775809e-01, 6.11463413e-02,
          2.05096722e-01, 1.09264873e-01, 1.80853680e-01, 8.97600874e-02,
          -3.99774797e-02, -3.20075125e-01, -3.32023054e-01,
          1.54275388e-01, 6.17964752e-02, 2.20760908e-02,
          -5.22471592e-02, -8.83174464e-02, -8.96123573e-02,
          -9.66718495e-02, -1.58567756e-01, -2.11604163e-01,
          -2.48946319e-03, 1.04373701e-01, 9.36204009e-03,
          2.06292141e-02, 1.94170140e-02, 5.96379209e-03,
          -2.90427059e-02, -3.47398445e-02, 1.03058845e-01,
          3.03252608e-01, 3.62362675e-02, -5.79212718e-02,
          -8.51964355e-02, 6.80565089e-02, 6.78149462e-02,
          -1.43248839e-02, -1.17800951e-01, -5.91874262e-03,
          1.89806715e-01, 1.34970963e-01, -1.43919379e-01,
          -2.95004874e-01, -4.82660085e-02, 1.45633101e-01,
          1.94352984e-01, 3.23932618e-02, -9.18123946e-02,
          -1.18461542e-01, -3.04447003e-02, -6.35304227e-02,
          -6.66909367e-02, -1.56983119e-02, 7.22453790e-03,
          1.17017385e-02, -2.60070469e-02, -9.81910676e-02,
          -1.05223753e-01, -7.17841387e-02, -7.67828571e-03,
          -4.25258093e-02, 3.10032032e-02, 3.65378112e-02,
          -5.10384068e-02, -1.10929601e-01, -2.67067030e-02,
          -8.53069779e-03, 4.87039750e-03, 1.38978720e-01,
          -7.50623420e-02, -1.16899572e-01, -9.67958383e-03,
          1.03336573e-01, 1.23091780e-01, 1.94580942e-01, 1.79794967e-01,
          1.95773467e-01, 4.27113362e-02, 7.06142485e-02, 6.77325577e-02,
          5.27164191e-02, 4.21352461e-02, -1.46751171e-02,
          -5.03510833e-02, -4.29448187e-02, 2.77184658e-02,
          -1.66706089e-02, -6.72492757e-02, -7.74193779e-02,
          -5.28004616e-02, -6.13255277e-02, -1.21820733e-01,
          -1.36451200e-01, -1.16236828e-01, -2.23487969e-02,
          7.00722039e-02, 2.27958430e-02, -3.60339843e-02,
          -9.42716300e-02, -7.33188987e-02, -1.50773823e-01,
          1.10617168e-01, 1.85887903e-01, -9.65119246e-03,
          4.96216834e-01, 4.68657434e-01, 3.68334472e-01, 1.17233051e-02,
          -9.33947787e-02, -1.45262033e-01, 1.29791470e-02,
          2.20464826e-01, 3.47906560e-01, 1.98488548e-01, 5.77900372e-02,
          -1.35789931e-01, -1.23100922e-01, -8.05351809e-02,
          -1.27468616e-01, -6.84375241e-02, 1.15803801e-01,
          3.36623996e-01, -2.10766643e-01, -4.15527612e-01,
          -4.46968853e-01, -2.74467021e-01, -1.58432648e-01,
          -2.42971376e-01, -2.54341125e-01, -1.99059099e-01,
          -1.45943716e-01, 3.32890421e-01, 3.07199836e-01,
          2.56024092e-01, 3.79463546e-02, -7.66048357e-02,
          -4.68202457e-02, 1.33115157e-01, 6.80799708e-02,
          9.90473032e-02, 2.20944673e-01, 1.54893160e-01, 2.85278410e-01,
          1.48276836e-01, 2.92740227e-03, -2.83089310e-01,
          -3.46882731e-01, 1.52259007e-01, 1.47882283e-01,
          -5.19469604e-02, -1.97404921e-01, -3.18722785e-01,
          -1.91879645e-01, -1.19178683e-01, -1.92748964e-01,
          -2.21639141e-01, 2.16106579e-01, 2.57220268e-01,
          -5.72001487e-02, -3.72245371e-01, -6.44412339e-01,
          -2.36096248e-01, -9.85422581e-02, -3.96717116e-02,
          2.23290883e-02, 4.09730338e-02, -7.72858830e-03,
          -2.33027823e-02, -5.19975647e-02, 3.28581333e-02,
          5.20380884e-02, 1.96940955e-02, -4.49247956e-02,
          1.36962030e-02, 7.10077360e-02, 7.05956966e-02,
          -9.77515578e-02, -2.57861942e-01, -3.73032950e-02,
          1.45143703e-01, 2.11817220e-01, 6.18787110e-02,
          -9.77816731e-02, -1.17662467e-01, 1.19727943e-02,
          -9.85251740e-02, -1.26094148e-01, -3.10947690e-02,
          3.23921703e-02, 3.86248417e-02, -4.08549160e-02,
          -1.90350264e-01, -1.76005512e-01, -1.12227663e-01,
          -6.27387986e-02, -2.02218611e-02, -6.13691509e-02,
          -7.36241462e-04, 4.60366867e-02, 5.31752892e-02,
          4.56108386e-03, -3.19110341e-02, -7.87512064e-02,
          1.11710109e-01, 4.49756682e-02, 1.61465984e-02, 4.30685580e-02,
          9.36246961e-02, 9.89892036e-02, 1.19453833e-01, 1.10768557e-01,
          1.23431608e-01, 1.38129056e-01, 1.43246725e-01, 1.10289954e-01,
          7.79136345e-02, 7.04029948e-02, 1.42807316e-03,
          -3.00313309e-02, 1.62144750e-02, 1.28017217e-01,
          -1.71283204e-02, -1.38356566e-01, -1.17149845e-01,
          -1.82512105e-02, -1.94534026e-02, -1.44143775e-01,
          -1.59633890e-01, -1.47501975e-01, -3.19999061e-03,
          -5.21348305e-02, -5.04401475e-02, -2.48383973e-02,
          -3.39674344e-03, 1.17067983e-02, 1.44977979e-02,
          -1.43446727e-02, -5.89310750e-02, -5.72600998e-02,
          3.76158684e-01, 3.38047951e-01, 2.54939824e-01, 9.66469496e-02,
          3.72017510e-02, 2.09058858e-02, 5.91647290e-02, 1.71401918e-01,
          3.38646412e-01, 3.05175841e-01, 1.56206816e-01, 4.64212522e-03,
          -5.57417572e-02, 4.79341373e-02, -4.38429005e-02,
          2.59676948e-02, 2.06697226e-01, 4.20781434e-01,
          -2.81577647e-01, -3.55211437e-01, -5.27771533e-01,
          -4.25415933e-01, -1.23430021e-01, -3.44709814e-01,
          -4.16781068e-01, -3.43694061e-01, -2.43245512e-01,
          3.85816395e-02, 1.96328118e-01, 7.66449124e-02,
          -1.00481510e-02, -1.28369881e-02, -7.26626366e-02,
          -1.17022559e-01, -1.21228710e-01, -8.02122802e-02,
          3.31125051e-01, 2.08219036e-01, 1.84579149e-01, 1.14151299e-01,
          5.78335896e-02, -5.60799316e-02, -7.69416243e-02,
          1.55441418e-01, 4.08902496e-01, -8.88999377e-04,
          -1.64604291e-01, -2.86889672e-01, -6.85893670e-02,
          7.34023675e-02, 2.68963482e-02, 6.73245117e-02, 4.93110210e-01,
          3.71125937e-01, 1.19471915e-01, 4.84729223e-02,
          -1.32046059e-01, -2.57975847e-01, -3.56126875e-02,
          6.06314279e-02, 1.77588180e-01, 7.54667372e-02, 1.71946079e-01,
          6.34627342e-02, 2.05745652e-01, 9.11297426e-02,
          -2.46196948e-02, -3.04081645e-02, 7.56632537e-03,
          9.54649746e-02, 1.12020165e-01, 2.33654957e-02, 2.11645123e-02,
          -7.17533603e-02, 5.65656507e-03, 7.39622787e-02,
          1.10912040e-01, 5.67044392e-02, -2.21968032e-02,
          -2.79848464e-02, 7.62207210e-02, 9.89708528e-02,
          7.13262567e-03, 3.63133959e-02, 1.01350576e-01, 1.04699917e-01,
          2.33758520e-02, -1.18335746e-01, -8.66190121e-02,
          -1.26407098e-03, -1.85102914e-02, 2.46735692e-01,
          -4.45931926e-02, 3.93487588e-02, 1.53791919e-01,
          1.85517117e-01, 8.88225511e-02, -5.27504412e-03,
          -1.21612899e-01, 7.42258271e-03, 2.90459007e-01,
          1.40494615e-01, -3.37154418e-02, 1.00609716e-02,
          3.06506641e-02, 3.69945616e-02, 3.62898260e-02, 2.03775074e-02,
          -1.84602365e-02, -5.01501597e-02, -7.16123655e-02,
          -4.13712971e-02, 4.03266959e-02, 2.31349654e-02,
          -5.18663339e-02, -8.54810253e-02, -3.44793983e-02,
          9.42239910e-02, 3.29696536e-02, -1.35440111e-01,
          -1.87732562e-01, -1.51544079e-01, -2.49936223e-01,
          -1.09260023e-01, 4.79577966e-02, -1.33435741e-01,
          1.25071481e-01, 1.38911188e-01, 9.83596817e-02,
          -1.12249449e-01, -1.95351824e-01, -2.93575376e-01,
          -2.49783710e-01, -1.21788055e-01, 4.34641814e-04,
          5.10527231e-02, -1.11476367e-03, -5.44817932e-02,
          -7.88028017e-02, -9.51752141e-02, -9.96349901e-02,
          -7.75038153e-02, 1.01996660e-02, 8.44503716e-02,
          1.16497390e-01, -7.45506957e-03, -8.12499300e-02,
          -1.05093814e-01, -4.39439118e-02, -1.40642017e-01,
          -1.53867811e-01, -2.66025737e-02, 1.03350312e-01,
          5.23278058e-01, 5.10979116e-01, 5.30378282e-01, 1.68004800e-02,
          -2.69265205e-01, -3.03639114e-01, -8.85007903e-02,
          -1.24293314e-02, 1.41631633e-01, 6.60610497e-02,
          -7.44238719e-02, 3.37832384e-02, 5.75665720e-02,
          1.42873731e-02, -3.51498425e-01, -4.36848015e-01,
          -9.22192528e-04, 7.75557151e-03, -1.36279061e-01,
          -1.75937712e-01, -1.63521096e-01, -1.36264294e-01,
          -1.41939640e-01, -2.24875882e-01, -3.65984708e-01,
          -1.89543843e-01, -8.34769160e-02, -7.25771347e-03,
          3.41264606e-02, 4.04915288e-02, 3.59252980e-03,
          -1.09122992e-01, -8.73155221e-02, 2.29711503e-01,
          7.96612561e-01, 8.50658566e-02, -2.50441313e-01,
          -3.19012672e-01, 5.35008274e-02, 1.06266610e-01,
          -1.07759908e-01, -3.35860163e-01, -9.35324281e-02,
          2.55491376e-01, 3.81535769e-01, -3.50460321e-01,
          -7.47455716e-01, -2.37434417e-01, 2.24393666e-01,
          3.37321013e-01, -1.73001513e-02, -1.92858443e-01,
          -1.54851109e-01, -8.22921693e-02, -3.71035375e-02,
          -1.53139129e-01, -5.74951172e-02, 7.88542558e-04,
          2.57638749e-02, -6.34186715e-02, -2.28983074e-01,
          -2.49120325e-01, -9.63970199e-02, -5.74310962e-03,
          -1.32017164e-03, 2.71966890e-03, 1.91848166e-03,
          -6.25221152e-03, 3.93694965e-03, 3.06834839e-02,
          1.80985540e-01, 3.46951745e-02, 2.59209331e-02,
          -1.23311672e-02, 5.54344943e-03, 1.16373934e-02,
          1.19880252e-02, 1.12462183e-03, 7.74567062e-03, 5.08213937e-01,
          6.41510010e-01, 1.37328669e-01, -4.59351130e-02,
          -1.83721515e-03, 4.13125455e-02, 5.19961417e-02,
          1.13743925e-02, -8.69612116e-03, -1.27694453e-03,
          6.64403021e-01, 2.08095431e-01, -4.13821116e-02,
          -1.19938394e-02, 1.05503201e-02, 3.13750356e-02,
          1.37400953e-02, 5.39920945e-03, -9.00957640e-03,
          6.30035251e-02, 7.59693012e-02, 5.39779142e-02,
          -7.12417299e-03, -4.34595942e-02, -2.58090030e-02,
          -5.56002557e-02, 3.97952087e-02, 9.55846608e-02,
          -2.63363472e-03, 2.78623670e-01, 2.63991922e-01,
          2.07850814e-01, -1.68931689e-02, -1.22633554e-01,
          -1.80771932e-01, -1.18335895e-01, 3.39930467e-02,
          1.95745632e-01, 1.37895495e-01, -2.60732975e-02,
          -1.23495683e-01, -1.35200858e-01, -1.22097753e-01,
          -1.35433272e-01, -7.69689754e-02, 8.46717954e-02,
          2.29932070e-01, -9.52996463e-02, -2.18392670e-01,
          -2.34796673e-01, -1.54223070e-01, -9.65650827e-02,
          -1.12417176e-01, -1.11560777e-01, -8.33393261e-02,
          -5.20471409e-02, 3.12874198e-01, 2.77500123e-01,
          3.11459571e-01, 1.22629814e-01, -2.14939322e-02,
          -5.98317347e-02, 1.16702378e-01, 8.57314393e-02,
          1.28850475e-01, 1.73802912e-01, -6.91509526e-03,
          2.28773862e-01, 1.63986623e-01, 1.42953962e-01,
          -1.91791475e-01, -3.73992920e-01, -8.70135892e-03,
          1.49154544e-01, -1.06390238e-01, -3.11491936e-01,
          -3.44206214e-01, -1.66890040e-01, -9.44748074e-02,
          -2.16775388e-01, -4.33709145e-01, -4.18021018e-03,
          1.86367437e-01, -9.81085822e-02, -3.40264529e-01,
          -5.52572966e-01, -1.94898263e-01, -5.28653711e-02,
          1.62468739e-02, 2.16086637e-02, -2.82080704e-03,
          -6.91214129e-02, -6.74407259e-02, -1.29469573e-01,
          5.28458655e-02, 1.10782832e-01, 4.58663329e-02,
          -1.01884775e-01, 2.59359144e-02, 2.42401794e-01,
          3.15944195e-01, -1.41224209e-02, -5.34811199e-01,
          -9.96266156e-02, 2.98980802e-01, 4.48810637e-01,
          1.28070638e-01, -1.28149867e-01, -9.36063975e-02,
          -2.18448881e-02, -1.24333531e-01, -1.35091498e-01,
          -3.91800180e-02, 9.11865681e-02, 1.74097091e-01,
          -2.33215336e-02, -3.67908806e-01, -3.40529740e-01,
          1.20847132e-02, 9.93774533e-02, 1.54114544e-01,
          -9.14620757e-02, 1.64604897e-03, 1.02343559e-01,
          1.11326739e-01, 3.66070750e-03, -6.20454513e-02,
          -1.34886846e-01, 1.94913056e-02, -1.42690470e-03,
          5.00817830e-03, 8.09338782e-03, 1.37141710e-02, 2.42710533e-03,
          6.24382665e-05, 1.74764812e-01, 3.35148066e-01, 2.35592589e-01,
          -2.91046854e-02, 9.69793275e-03, 5.33234216e-02,
          6.79097697e-02, 2.45421417e-02, 8.25273618e-03,
          -4.25557792e-03, 6.41771138e-01, 6.12053990e-01,
          -4.85464334e-02, -1.36125693e-02, 3.03130206e-02,
          8.54809806e-02, 4.18392904e-02, 2.57714055e-02, 7.90951657e-04,
          1.34672254e-01, 2.41294727e-01, 1.49392396e-01, 8.23849696e-04,
          1.30748767e-02, 3.50378715e-02, 1.77264232e-02, 1.95458215e-02,
          1.27877323e-02, 6.96199946e-04, 1.71646789e-01, 1.51238471e-01,
          1.13291167e-01, 8.62555020e-03, -5.18629067e-02,
          -7.21788928e-02, -4.56856862e-02, 5.17606735e-02,
          1.58806130e-01, 7.70673007e-02, -1.21242121e-01,
          -1.87626123e-01, -1.68085203e-01, -1.17703192e-01,
          -1.39255613e-01, -7.38486722e-02, 6.92012534e-02,
          2.04341784e-01, -1.83046192e-01, -3.91755313e-01,
          -4.87717718e-01, -3.27115506e-01, -1.90802947e-01,
          -2.30562046e-01, -2.48417646e-01, -1.94011897e-01,
          -1.36524469e-01, 1.67460181e-02, 1.00321814e-01,
          1.90112349e-02, -2.89849602e-02, -4.22628336e-02,
          -5.61473183e-02, -4.78270240e-02, -4.62009683e-02,
          -4.51083854e-02, 1.86502546e-01, 3.63724194e-02,
          3.93735804e-02, 5.61140291e-02, 5.97804748e-02,
          -6.48807660e-02, -1.67578235e-01, 6.41866121e-03,
          2.54429936e-01, -1.50080845e-01, -3.61512959e-01,
          -4.26729977e-01, -1.27452970e-01, 5.09444531e-03,
          -7.34265074e-02, -2.28678420e-01, 2.52810419e-01,
          1.43650278e-01, 4.25787158e-02, -1.73017710e-01,
          -2.69485742e-01, -2.60839760e-01, -1.28989276e-02,
          1.18734606e-01, 9.09050256e-02, 1.21334001e-01, 1.26771763e-01,
          1.81887709e-02, 1.84094563e-01, 5.93736619e-02,
          -3.91250812e-02, -1.85105503e-02, 1.12823108e-02,
          6.70083389e-02, 7.04157948e-02, -2.00361479e-02,
          1.01779021e-01, -1.73786014e-01, -1.82035379e-02,
          1.31126136e-01, 2.10953549e-01, 9.59550589e-02,
          -4.69565392e-02, -4.22986187e-02, 2.93348104e-01,
          -1.40729040e-01, 8.04519057e-02, 2.21301131e-02,
          1.56680599e-01, 2.34812602e-01, 2.96198968e-02,
          -3.14759135e-01, -2.52439559e-01, 1.19877890e-01,
          3.14917624e-01, 2.53756195e-01, -9.52512696e-02,
          5.44402935e-02, 3.01040232e-01, 3.62032861e-01, 1.31674349e-01,
          -6.16099797e-02, -2.79499024e-01, 3.24154757e-02,
          7.75556505e-01, 3.11357439e-01, -4.71606478e-02,
          4.67526391e-02, 8.00716057e-02, 8.72342810e-02, 8.06107521e-02,
          4.39530611e-02, 1.37719691e-01, -1.34376520e-02,
          2.94530485e-03, 2.40021627e-02, 3.24912407e-02, 1.39257284e-02,
          6.79459842e-03, -9.40338802e-03, 2.57077575e-01,
          6.29384458e-01, -1.60533972e-02, -1.22666042e-02,
          2.99674142e-02, 8.80736634e-02, 4.32611369e-02, 2.89711747e-02,
          6.45245705e-03, 8.50550160e-02, 4.82929170e-01, 4.57307607e-01,
          2.11151522e-02, 3.60931456e-02, 9.48574543e-02, 4.75231037e-02,
          5.58669269e-02, 3.83205861e-02, 1.37049519e-02, 2.99976859e-02,
          1.20063156e-01, 2.69860048e-02, 1.05034858e-02, 3.12295780e-02,
          1.13422154e-02, 1.70412418e-02, 1.33548025e-02, 1.81233957e-02 ]
   uncompressed_sv_total: 17
   uncompressed_support_vectors:
      - [ 0., 0., 0., 0., 0., 0., 0., 0., 0., 1.78886785e-05,
          4.35309539e-06, 7.03685998e-09, 0., 2.60996247e-09,
          1.16250360e-08, 4.71077177e-09, 8.73026895e-09, 4.39575842e-06,
          4.98299440e-03, 4.31424938e-04, 6.25924513e-05, 3.50661685e-05,
          3.55727134e-05, 2.42248298e-05, 4.81707830e-05, 7.79681504e-05,
          2.55749305e-03, 2.89616873e-03, 9.91768757e-05, 5.37696433e-05,
          3.44126020e-05, 4.30130385e-05, 2.42754631e-05, 5.00988936e-05,
          1.90978521e-04, 3.59007041e-03, 3.14855273e-03, 1.65446438e-02,
          1.82209369e-02, 1.51060871e-03, 1.60906534e-03, 1.32043683e-03,
          1.66248670e-03, 1.96777936e-03, 1.70250470e-03, 1.11369915e-01,
          1.85865611e-01, 8.26458037e-02, 3.09101567e-02, 4.04496677e-02,
          4.35145609e-02, 4.45945524e-02, 3.82565223e-02, 3.95423472e-02,
          2.03698590e-01, 1.41281202e-01, 6.69536069e-02, 7.21677616e-02,
          8.49676579e-02, 7.98318014e-02, 6.50776401e-02, 5.98911531e-02,
          1.09430239e-01, 7.44821280e-02, 3.20486985e-02, 2.97596604e-02,
          2.90077664e-02, 2.90606134e-02, 2.51874104e-02, 2.51189079e-02,
          3.61646451e-02, 9.49852839e-02, 2.45503001e-02, 5.04136942e-02,
          1.09114558e-01, 3.90234776e-02, 2.08223686e-02, 1.66734979e-02,
          1.87820438e-02, 2.12335605e-02, 2.05193143e-02, 1.71069428e-01,
          2.03698590e-01, 1.66427240e-01, 9.55619067e-02, 1.09923072e-01,
          1.21788464e-01, 1.52473480e-01, 2.01428413e-01, 1.65694341e-01,
          2.03698590e-01, 1.80031642e-01, 1.55117154e-01, 1.38872549e-01,
          1.61135346e-01, 1.95296824e-01, 2.00346678e-01, 2.03698590e-01,
          2.03698590e-01, 9.50688347e-02, 1.05137751e-01, 7.38602430e-02,
          5.67072928e-02, 5.32123074e-02, 4.85567711e-02, 5.31498939e-02,
          6.89627826e-02, 8.09172317e-02, 1.75884273e-02, 2.47197896e-02,
          3.25039215e-02, 3.57561558e-02, 2.45132372e-02, 1.51508981e-02,
          1.40409265e-02, 1.33041730e-02, 1.36369700e-02, 9.15690139e-02,
          1.51693091e-01, 1.26768887e-01, 7.42711276e-02, 5.56099303e-02,
          4.53183874e-02, 4.38703299e-02, 5.23512214e-02, 6.11407720e-02,
          1.45455271e-01, 1.40498936e-01, 1.50414839e-01, 1.04835205e-01,
          7.36673996e-02, 6.96347877e-02, 8.91962498e-02, 1.14861362e-01,
          1.25075817e-01, 6.38150573e-02, 5.29973842e-02, 3.40216085e-02,
          2.54009143e-02, 2.37956420e-02, 2.79258266e-02, 3.96299884e-02,
          5.75493798e-02, 6.48064464e-02, 1.55597518e-05, 3.80867345e-06,
          6.30529540e-09, 0., 2.43056530e-09, 1.06090239e-08,
          4.28750280e-09, 8.05137557e-09, 3.81074528e-06, 6.26775436e-03,
          4.59322298e-04, 8.61890730e-05, 4.96694156e-05, 5.25589130e-05,
          3.37637393e-05, 6.77082498e-05, 1.16666153e-04, 3.73876328e-03,
          4.69070347e-03, 1.53047731e-04, 9.11227107e-05, 5.97325525e-05,
          7.80340051e-05, 4.35512520e-05, 9.03858236e-05, 4.28931759e-04,
          6.98838383e-03, 1.91529907e-05, 3.86499522e-07, 6.56969874e-08,
          1.61896345e-08, 3.68251250e-07, 9.34206739e-08, 3.07399631e-07,
          1.86220514e-05, 8.94267287e-05, 5.45074344e-02, 7.77912587e-02,
          2.98522227e-02, 1.56739857e-02, 2.10888889e-02, 2.24519167e-02,
          2.08456740e-02, 1.72158293e-02, 1.91887543e-02, 2.03936622e-01,
          1.15278184e-01, 6.44814000e-02, 6.89178705e-02, 7.72296488e-02,
          7.07460120e-02, 6.02330789e-02, 5.90882115e-02, 1.21163033e-01,
          1.42837703e-01, 6.92689344e-02, 6.62414879e-02, 6.49252459e-02,
          6.48116171e-02, 5.58864735e-02, 5.55753224e-02, 9.66100842e-02,
          2.03936622e-01, 2.45639365e-02, 1.91872567e-02, 1.88191496e-02,
          1.84466057e-02, 1.72712915e-02, 1.49442414e-02, 2.29239669e-02,
          6.77560940e-02, 5.45499325e-02, 7.15262666e-02, 7.94041827e-02,
          5.36123887e-02, 3.96714061e-02, 4.82961759e-02, 5.65097034e-02,
          6.73025995e-02, 9.02362317e-02, 7.26163909e-02, 1.98071614e-01,
          1.75122246e-01, 1.51180536e-01, 1.32137448e-01, 1.46753788e-01,
          1.71709359e-01, 1.77540883e-01, 2.03936622e-01, 1.97159499e-01,
          2.03936622e-01, 2.03936622e-01, 1.70162261e-01, 1.28124446e-01,
          1.19273759e-01, 1.05627276e-01, 1.14342973e-01, 1.50761530e-01,
          1.76344126e-01, 7.50963613e-02, 7.76388273e-02, 5.64930141e-02,
          4.27531451e-02, 4.00248617e-02, 3.38472314e-02, 4.41193432e-02,
          6.64200783e-02, 6.45267367e-02, 3.97574306e-02, 6.38820529e-02,
          5.46596013e-02, 3.20926756e-02, 2.27292217e-02, 1.79695021e-02,
          1.75348446e-02, 2.22855825e-02, 2.64297165e-02, 1.45030469e-01,
          1.26102567e-01, 1.30674481e-01, 9.27484706e-02, 6.77509904e-02,
          6.79171234e-02, 9.02187228e-02, 1.17365569e-01, 1.30561769e-01,
          1.32183149e-01, 1.10787787e-01, 7.01330528e-02, 5.37321270e-02,
          5.18619232e-02, 6.08410724e-02, 8.87472034e-02, 1.31023645e-01,
          1.40203714e-01, 3.42055336e-02, 2.56138984e-02, 1.81150604e-02,
          1.52940592e-02, 1.65568031e-02, 2.14997921e-02, 3.51874195e-02,
          5.13965972e-02, 4.30806838e-02, 3.82150733e-03, 2.34730105e-04,
          5.72954086e-05, 3.40957704e-05, 3.79391931e-05, 2.31526174e-05,
          4.65027697e-05, 8.47109695e-05, 2.67554377e-03, 3.73397255e-03,
          1.20077268e-04, 7.50006147e-05, 5.00095302e-05, 6.78443175e-05,
          3.76301323e-05, 7.90636986e-05, 4.71245032e-04, 6.62999973e-03,
          2.56042185e-05, 4.88839760e-07, 8.61591687e-08, 2.11669242e-08,
          5.24480413e-07, 1.20577255e-07, 4.07402013e-07, 2.51916099e-05,
          1.19361670e-04, 0., 0., 0., 0., 0., 0., 0., 0., 0.,
          1.10533439e-01, 4.70622033e-02, 3.21407430e-02, 3.39065120e-02,
          3.62883247e-02, 3.23386006e-02, 2.89278664e-02, 3.04647908e-02,
          7.05877244e-02, 1.43878609e-01, 7.79637024e-02, 7.62408078e-02,
          7.51354322e-02, 7.45351985e-02, 6.40899315e-02, 6.38519600e-02,
          1.30351856e-01, 2.07962975e-01, 5.84083274e-02, 4.69131805e-02,
          4.47385386e-02, 4.32240777e-02, 4.04501222e-02, 3.52045186e-02,
          7.07263872e-02, 1.84222311e-01, 1.22586720e-01, 3.93810077e-03,
          3.52460868e-03, 2.69650039e-03, 1.86884752e-03, 2.08835094e-03,
          2.11131526e-03, 2.07761899e-02, 2.25187056e-02, 5.59205422e-03,
          9.88754332e-02, 9.01919827e-02, 7.67793134e-02, 6.49929643e-02,
          6.85721338e-02, 7.64915720e-02, 7.99867883e-02, 9.51730385e-02,
          9.49934646e-02, 2.07962975e-01, 2.07962975e-01, 2.00393334e-01,
          1.48722619e-01, 1.37796059e-01, 1.19358428e-01, 1.28865957e-01,
          1.72712743e-01, 2.01999828e-01, 1.98426738e-01, 1.97249249e-01,
          1.46360323e-01, 1.13616511e-01, 1.08918682e-01, 9.39620212e-02,
          1.48199528e-01, 2.01541856e-01, 1.75460041e-01, 3.66385765e-02,
          3.37781906e-02, 2.80364808e-02, 2.23803334e-02, 2.64645964e-02,
          4.22286578e-02, 1.14115022e-01, 5.87209538e-02, 3.58890332e-02,
          7.46624097e-02, 5.96175790e-02, 5.78628965e-02, 4.17307951e-02,
          3.19298729e-02, 3.38902026e-02, 4.61686924e-02, 6.11391813e-02,
          6.97603971e-02, 1.44342944e-01, 1.19212784e-01, 7.47204572e-02,
          5.86811639e-02, 5.84763549e-02, 6.89305291e-02, 1.04080021e-01,
          1.55543536e-01, 1.59742743e-01, 8.73541087e-02, 6.89246282e-02,
          5.15251905e-02, 4.45699133e-02, 4.84200120e-02, 6.32405356e-02,
          9.78389531e-02, 1.35370553e-01, 1.09661981e-01, 2.47324891e-02,
          2.28599068e-02, 2.06196327e-02, 1.89590696e-02, 2.62416434e-02,
          3.67316939e-02, 3.42840739e-02, 2.42843125e-02, 2.52879355e-02,
          1.55858067e-03, 7.85925426e-03, 9.39941779e-03, 8.09971418e-04,
          8.30204401e-04, 6.95198425e-04, 8.74356192e-04, 1.06506795e-03,
          9.28168767e-04, 3.94685194e-02, 6.84557706e-02, 3.44899446e-02,
          1.31046474e-02, 1.72442310e-02, 1.91988163e-02, 2.05805227e-02,
          1.80354659e-02, 1.65190641e-02, 6.87393695e-02, 4.63967100e-02,
          2.57383883e-02, 2.81040445e-02, 3.33790965e-02, 3.27195525e-02,
          2.66073160e-02, 2.33975127e-02, 3.49666551e-02, 2.21951529e-02,
          1.19084353e-02, 1.14046028e-02, 1.12304576e-02, 1.13242613e-02,
          9.72447079e-03, 9.55390185e-03, 1.26212873e-02, 2.73152199e-02,
          2.08709333e-02, 3.55857983e-02, 8.08068812e-02, 3.70097384e-02,
          1.94962826e-02, 1.50971143e-02, 1.62267368e-02, 1.77079700e-02,
          1.74833965e-02, 1.32787541e-01, 1.54281348e-01, 1.19238637e-01,
          7.45854080e-02, 8.15631896e-02, 8.71106088e-02, 1.08299263e-01,
          1.48925081e-01, 1.29399300e-01, 1.82150781e-01, 1.54571846e-01,
          1.33451685e-01, 1.05111688e-01, 1.13346107e-01, 1.39437020e-01,
          1.56113997e-01, 2.01712817e-01, 1.83516219e-01, 8.43307674e-02,
          8.89388770e-02, 5.72732501e-02, 4.08499502e-02, 3.72965820e-02,
          3.59136313e-02, 4.30850014e-02, 6.09077066e-02, 7.34627768e-02,
          3.07934321e-02, 4.55748774e-02, 5.44987023e-02, 6.17486723e-02,
          4.86281291e-02, 2.84530129e-02, 2.55724713e-02, 2.38300227e-02,
          2.38641314e-02, 1.49172798e-01, 2.08176523e-01, 2.08176523e-01,
          1.49008125e-01, 1.04206674e-01, 8.11240003e-02, 7.53406733e-02,
          8.43627155e-02, 9.63833928e-02, 2.08176523e-01, 2.08176523e-01,
          2.08176523e-01, 1.98960885e-01, 1.38255820e-01, 1.21705487e-01,
          1.43220395e-01, 1.72077432e-01, 1.86120987e-01, 9.39083025e-02,
          7.65263140e-02, 5.50649092e-02, 4.58422974e-02, 4.48924750e-02,
          5.16210310e-02, 6.79033846e-02, 9.12039950e-02, 9.81380641e-02,
          1.03937844e-02, 1.50840776e-02, 2.12441422e-02, 2.18699910e-02,
          2.60356721e-02, 2.07619630e-02, 1.37022538e-02, 1.08222198e-02,
          9.24940780e-03, 4.23416682e-02, 6.29996732e-02, 8.76330882e-02,
          7.35685080e-02, 6.62852451e-02, 5.35151251e-02, 4.96489331e-02,
          4.18743268e-02, 3.41173224e-02, 4.20300886e-02, 5.23919761e-02,
          7.41955414e-02, 6.71634004e-02, 5.93689010e-02, 5.49525917e-02,
          5.23512401e-02, 4.67487834e-02, 4.18510064e-02, 1.58469547e-02,
          1.64111033e-02, 1.64180696e-02, 1.75594483e-02, 1.90644003e-02,
          1.93664692e-02, 1.88598577e-02, 1.83782075e-02, 1.70601662e-02,
          1.84003375e-02, 2.72343531e-02, 1.18064694e-02, 6.39444217e-03,
          8.67336243e-03, 9.66773182e-03, 9.39723570e-03, 7.83525128e-03,
          7.59360287e-03, 6.46581128e-02, 3.80549729e-02, 2.44892389e-02,
          2.64735818e-02, 2.98921745e-02, 2.82801110e-02, 2.37911697e-02,
          2.23062299e-02, 3.70442159e-02, 4.36328389e-02, 2.60274522e-02,
          2.55668331e-02, 2.51773037e-02, 2.52382290e-02, 2.15232894e-02,
          2.10339837e-02, 3.25526968e-02, 6.30309284e-02, 9.84826777e-03,
          8.33721552e-03, 8.06160551e-03, 7.71774910e-03, 7.16901058e-03,
          6.12883409e-03, 9.09104384e-03, 2.33198684e-02, 1.80415399e-02,
          5.59232458e-02, 5.95962442e-02, 4.04687263e-02, 3.00863534e-02,
          3.43364775e-02, 3.87781672e-02, 4.67791148e-02, 6.64376542e-02,
          5.65174818e-02, 1.76052481e-01, 1.49187461e-01, 1.27399147e-01,
          9.88661200e-02, 1.02943949e-01, 1.23638898e-01, 1.40395075e-01,
          1.78924531e-01, 1.73344612e-01, 1.83839932e-01, 2.01377615e-01,
          1.28280655e-01, 9.02629718e-02, 8.20974037e-02, 7.62570798e-02,
          9.05916542e-02, 1.29778832e-01, 1.56306386e-01, 5.84790856e-02,
          5.80777675e-02, 4.04041745e-02, 2.96275970e-02, 2.81015653e-02,
          2.44042836e-02, 3.23507413e-02, 4.82542925e-02, 5.10627627e-02,
          6.28507659e-02, 1.08842753e-01, 1.06856845e-01, 6.40385225e-02,
          4.25678492e-02, 3.20158750e-02, 2.95663532e-02, 3.46092805e-02,
          4.03416343e-02, 2.02057883e-01, 1.96688399e-01, 2.02057883e-01,
          1.71326861e-01, 1.25147685e-01, 1.17229491e-01, 1.43463805e-01,
          1.75022244e-01, 1.92686141e-01, 1.92363173e-01, 1.57642111e-01,
          1.12543590e-01, 9.63012800e-02, 9.74485427e-02, 1.13519236e-01,
          1.54497042e-01, 2.02057883e-01, 2.02057883e-01, 5.35499975e-02,
          4.00248803e-02, 2.99354065e-02, 2.68545784e-02, 3.00209746e-02,
          4.18182723e-02, 6.78374246e-02, 9.25535783e-02, 7.13284686e-02,
          1.69240143e-02, 2.52904724e-02, 3.65041047e-02, 2.91467775e-02,
          2.61130184e-02, 2.19203793e-02, 1.99263599e-02, 1.68441664e-02,
          1.37258843e-02, 3.82534079e-02, 4.48002741e-02, 5.89746982e-02,
          5.69433942e-02, 5.21060899e-02, 4.82181311e-02, 4.69377786e-02,
          4.28032465e-02, 3.91785577e-02, 3.62063050e-02, 3.68296094e-02,
          3.59312147e-02, 3.80323157e-02, 4.20219786e-02, 4.37144525e-02,
          4.36576083e-02, 4.33832407e-02, 3.95078398e-02, 1.68359540e-02,
          1.65830199e-02, 1.53766545e-02, 1.35561228e-02, 1.40825771e-02,
          1.69174876e-02, 2.21557319e-02, 2.35408507e-02, 1.91281512e-02,
          3.18167284e-02, 1.61463078e-02, 1.23497518e-02, 1.31486673e-02,
          1.41449850e-02, 1.28512755e-02, 1.12779094e-02, 1.13952570e-02,
          2.12076921e-02, 4.62557785e-02, 3.02998703e-02, 3.02920435e-02,
          2.98345722e-02, 2.96562482e-02, 2.51926444e-02, 2.46260688e-02,
          4.37746122e-02, 7.57711828e-02, 2.49002930e-02, 2.12373063e-02,
          1.98318008e-02, 1.86926275e-02, 1.73950102e-02, 1.50028262e-02,
          2.97041070e-02, 6.69045374e-02, 4.29629907e-02, 2.12167995e-03,
          1.87026931e-03, 1.41259760e-03, 9.76354000e-04, 1.08468486e-03,
          1.10884861e-03, 1.05647556e-02, 1.03938123e-02, 2.76774657e-03,
          9.01323035e-02, 7.81502351e-02, 6.46430179e-02, 4.91060317e-02,
          4.90624011e-02, 5.69309294e-02, 6.56610653e-02, 8.33413526e-02,
          8.65319818e-02, 2.07819656e-01, 2.07819656e-01, 1.50783733e-01,
          1.05120502e-01, 9.56663117e-02, 8.63929689e-02, 1.02337033e-01,
          1.48105726e-01, 1.79039136e-01, 1.54564038e-01, 1.49716645e-01,
          1.07652649e-01, 8.17544684e-02, 7.95342475e-02, 7.03860596e-02,
          1.06434293e-01, 1.43923774e-01, 1.38666615e-01, 3.14993709e-02,
          2.92581059e-02, 2.45855357e-02, 2.00255644e-02, 2.40037143e-02,
          3.91433723e-02, 8.43946710e-02, 4.09997366e-02, 3.03768702e-02,
          1.11658767e-01, 9.17889327e-02, 9.67697129e-02, 7.67015293e-02,
          5.94976768e-02, 5.93369901e-02, 7.46280029e-02, 9.28817466e-02,
          1.04543738e-01, 2.07819656e-01, 1.71977818e-01, 1.21790208e-01,
          1.06788278e-01, 1.11683510e-01, 1.32310718e-01, 1.87807202e-01,
          2.07819656e-01, 2.07819656e-01, 1.41882032e-01, 1.11616805e-01,
          8.73594955e-02, 7.94041008e-02, 8.85953754e-02, 1.26274839e-01,
          1.95242614e-01, 2.07819656e-01, 1.86923280e-01, 4.28186804e-02,
          3.95748504e-02, 3.65325846e-02, 3.52715217e-02, 5.07906526e-02,
          6.55987412e-02, 6.15944378e-02, 4.60470840e-02, 4.49820794e-02,
          1.85106788e-02, 2.01992877e-02, 2.39478424e-02, 2.51499619e-02,
          2.40872819e-02, 2.24054903e-02, 2.21240725e-02, 2.07041539e-02,
          1.93929579e-02, 4.40653972e-02, 4.41611037e-02, 4.21304256e-02,
          4.38362584e-02, 4.91094179e-02, 5.21144234e-02, 5.36412485e-02,
          5.42855412e-02, 4.86791208e-02, 4.83843647e-02, 4.83082384e-02,
          4.53555286e-02, 4.02718745e-02, 4.18420322e-02, 5.47241792e-02,
          7.22839385e-02, 7.03578964e-02, 5.51697463e-02, 1.71859767e-02,
          1.76111050e-02, 1.68111715e-02, 2.15676930e-02, 2.69893352e-02,
          2.82896943e-02, 3.07804570e-02, 2.26134136e-02, 1.78913642e-02,
          1.02478676e-02, 1.48154069e-02, 3.38570215e-02, 1.97840761e-02,
          1.05298115e-02, 7.89259281e-03, 8.11172463e-03, 8.50851461e-03,
          8.56118090e-03, 6.13900907e-02, 7.02756420e-02, 5.20651042e-02,
          3.44435014e-02, 3.54617350e-02, 3.61438729e-02, 4.38108556e-02,
          6.17320500e-02, 5.74158318e-02, 9.43870842e-02, 8.00371096e-02,
          7.03384280e-02, 4.82015721e-02, 4.65328097e-02, 5.76044358e-02,
          7.06090555e-02, 9.49490666e-02, 9.12585780e-02, 4.32001725e-02,
          4.28583398e-02, 2.58296132e-02, 1.72820874e-02, 1.53294867e-02,
          1.58333387e-02, 2.11244617e-02, 3.20514552e-02, 3.90919074e-02,
          3.11751366e-02, 4.75864932e-02, 5.49062341e-02, 6.22683801e-02,
          5.48228584e-02, 3.10184155e-02, 2.70622578e-02, 2.49148458e-02,
          2.42927372e-02, 1.41549021e-01, 2.08295733e-01, 2.08295733e-01,
          1.68524057e-01, 1.13225505e-01, 8.58853087e-02, 7.80542120e-02,
          8.31144825e-02, 9.17178318e-02, 1.88394010e-01, 2.08295733e-01,
          2.08295733e-01, 2.08295733e-01, 1.48960873e-01, 1.24434493e-01,
          1.35815695e-01, 1.53557733e-01, 1.62846580e-01, 7.99419135e-02,
          6.54364005e-02, 5.23771793e-02, 4.78127040e-02, 4.85396869e-02,
          5.46256974e-02, 6.65055737e-02, 8.27386007e-02, 8.52432176e-02,
          2.43818332e-02, 3.42024863e-02, 4.83524576e-02, 4.98954207e-02,
          5.98671213e-02, 5.71533069e-02, 3.95076498e-02, 2.70882752e-02,
          2.27952562e-02, 9.86454263e-02, 1.39469266e-01, 1.83436900e-01,
          1.65786460e-01, 1.73163265e-01, 1.50342509e-01, 1.34666175e-01,
          1.09146997e-01, 8.44450817e-02, 1.02836736e-01, 1.20770611e-01,
          1.56263202e-01, 1.42146111e-01, 1.39384314e-01, 1.38890773e-01,
          1.38228163e-01, 1.22324422e-01, 1.05675355e-01, 3.96932513e-02,
          4.10954915e-02, 3.99776734e-02, 4.10570130e-02, 4.40477654e-02,
          4.41610888e-02, 4.40386459e-02, 4.38405648e-02, 4.15047333e-02,
          7.41145201e-03, 7.60421855e-03, 8.96657538e-03, 9.77384392e-03,
          1.27221178e-02, 2.09862776e-02, 3.16650234e-02, 1.18846344e-02,
          8.67194030e-03, 3.28216478e-02, 3.16056088e-02, 3.14948484e-02,
          3.76259238e-02, 5.86915947e-02, 7.19475746e-02, 5.95202297e-02,
          4.60737422e-02, 3.75259854e-02, 4.01553549e-02, 3.61767709e-02,
          3.40764038e-02, 3.48799676e-02, 4.33836356e-02, 4.99939062e-02,
          5.76051697e-02, 5.49782068e-02, 4.62893881e-02, 1.71975326e-02,
          1.65790301e-02, 1.49506191e-02, 1.35035077e-02, 1.36805419e-02,
          1.30904028e-02, 1.42885912e-02, 1.58090573e-02, 1.63333062e-02,
          2.85459720e-02, 3.10708713e-02, 2.08346490e-02, 1.48443533e-02,
          1.55559573e-02, 1.66939497e-02, 2.00889148e-02, 2.97519527e-02,
          2.72121225e-02, 9.92349163e-02, 8.23028460e-02, 7.12034330e-02,
          4.87801880e-02, 4.60690036e-02, 5.65093532e-02, 7.06872791e-02,
          9.39013213e-02, 9.54519361e-02, 1.00244083e-01, 1.02700196e-01,
          6.09633699e-02, 4.05181870e-02, 3.60433087e-02, 3.57761197e-02,
          4.75345217e-02, 7.34051690e-02, 8.93533379e-02, 2.89657582e-02,
          2.69844588e-02, 1.80307198e-02, 1.29683325e-02, 1.25032347e-02,
          1.13854548e-02, 1.56434085e-02, 2.37968098e-02, 2.66304947e-02,
          6.31076545e-02, 1.13646857e-01, 1.26326308e-01, 7.81930238e-02,
          5.02060764e-02, 3.68186682e-02, 3.29594463e-02, 3.62135768e-02,
          4.06990498e-02, 1.99530065e-01, 1.93460494e-01, 2.01807380e-01,
          1.96512073e-01, 1.44930080e-01, 1.28694698e-01, 1.45999551e-01,
          1.67918339e-01, 1.81051940e-01, 1.77221641e-01, 1.45729750e-01,
          1.16282292e-01, 1.08950675e-01, 1.14384279e-01, 1.31682709e-01,
          1.66874796e-01, 2.01807380e-01, 2.01807380e-01, 5.37390374e-02,
          4.08037193e-02, 3.21669579e-02, 3.01946122e-02, 3.45921889e-02,
          5.03139496e-02, 8.03860724e-02, 1.02845483e-01, 7.43313953e-02,
          4.27170843e-02, 6.02218993e-02, 8.11088160e-02, 6.93681613e-02,
          7.29859993e-02, 6.63335994e-02, 5.91328107e-02, 4.77722548e-02,
          3.68181020e-02, 1.01645529e-01, 1.13471650e-01, 1.37470275e-01,
          1.32043630e-01, 1.31236091e-01, 1.29007921e-01, 1.30929068e-01,
          1.19535983e-01, 1.06421627e-01, 9.90426317e-02, 1.01878673e-01,
          9.66516212e-02, 9.71334428e-02, 1.04878463e-01, 1.06484957e-01,
          1.08008057e-01, 1.09136090e-01, 1.03180118e-01, 4.61836606e-02,
          4.84403670e-02, 4.49717045e-02, 3.75930071e-02, 3.68574560e-02,
          3.97332646e-02, 4.86361794e-02, 5.24570942e-02, 4.74709868e-02,
          1.41864726e-02, 1.35422330e-02, 1.32869035e-02, 1.57435462e-02,
          2.45657060e-02, 3.05448398e-02, 2.42079720e-02, 1.99209228e-02,
          1.64535176e-02, 4.06943969e-02, 3.64145599e-02, 3.40287425e-02,
          3.40442136e-02, 4.04702984e-02, 4.51767892e-02, 5.37912473e-02,
          5.32895215e-02, 4.59897630e-02, 4.39489819e-02, 4.44893539e-02,
          3.89561951e-02, 3.31490673e-02, 3.23333777e-02, 2.98693031e-02,
          3.22393626e-02, 3.60378362e-02, 3.89918908e-02, 2.02180501e-02,
          2.45214589e-02, 2.05628090e-02, 1.42597603e-02, 1.20941857e-02,
          1.03566414e-02, 1.04933130e-02, 1.26701742e-02, 1.53055014e-02,
          4.86674309e-02, 4.05114293e-02, 3.35697308e-02, 2.28863582e-02,
          2.10703965e-02, 2.54022479e-02, 3.24019156e-02, 4.30506393e-02,
          4.64730598e-02, 1.09874457e-01, 1.13539025e-01, 6.67771325e-02,
          4.42511961e-02, 3.96930613e-02, 3.81382182e-02, 5.06775640e-02,
          7.91490749e-02, 9.68359187e-02, 7.17815831e-02, 6.65505901e-02,
          4.66250144e-02, 3.50150168e-02, 3.45956646e-02, 3.19507867e-02,
          4.69206534e-02, 6.49113283e-02, 6.73914552e-02, 1.60825532e-02,
          1.50183402e-02, 1.27519518e-02, 1.05666826e-02, 1.28415301e-02,
          2.10153386e-02, 3.62111144e-02, 1.72063243e-02, 1.53530529e-02,
          9.86033231e-02, 8.43159109e-02, 9.52744409e-02, 8.25888589e-02,
          6.53139278e-02, 6.18399419e-02, 7.20596388e-02, 8.45119357e-02,
          9.30693001e-02, 1.87728673e-01, 1.52169213e-01, 1.20628580e-01,
          1.15496024e-01, 1.25239477e-01, 1.47761106e-01, 1.96490318e-01,
          2.06499606e-01, 2.06499606e-01, 1.38984635e-01, 1.10324591e-01,
          8.98875594e-02, 8.47372562e-02, 9.66336280e-02, 1.46239489e-01,
          2.06499606e-01, 2.06499606e-01, 1.89183384e-01, 4.44806740e-02,
          4.12131920e-02, 3.84864174e-02, 3.87669280e-02, 5.75457811e-02,
          7.00816065e-02, 6.79584220e-02, 5.17037772e-02, 4.78583574e-02,
          4.70814370e-02, 4.96847406e-02, 5.49752414e-02, 5.66054024e-02,
          5.74616753e-02, 5.58272526e-02, 5.72730228e-02, 5.42441569e-02,
          4.98326644e-02, 1.15864396e-01, 1.18665785e-01, 1.10115282e-01,
          1.07771367e-01, 1.16863661e-01, 1.19935676e-01, 1.24281526e-01,
          1.27444610e-01, 1.20487034e-01, 1.25115752e-01, 1.33231997e-01,
          1.26409560e-01, 1.07604235e-01, 1.05891772e-01, 1.22745290e-01,
          1.50679812e-01, 1.49236917e-01, 1.29224971e-01, 4.27810065e-02,
          4.54011336e-02, 4.94892523e-02, 6.11723438e-02, 6.67329952e-02,
          6.74980581e-02, 7.07589686e-02, 5.37491217e-02, 4.30873297e-02,
          1.92412678e-02, 1.71954241e-02, 1.59666371e-02, 1.56419612e-02,
          1.77083332e-02, 1.89960506e-02, 2.29474138e-02, 2.36632563e-02,
          2.11246349e-02, 5.24794646e-02, 5.51628396e-02, 4.70722094e-02,
          3.80363278e-02, 3.58126126e-02, 3.21150199e-02, 3.44718620e-02,
          3.90503518e-02, 4.41198498e-02, 5.28199039e-02, 6.74125999e-02,
          6.18847981e-02, 4.22773510e-02, 3.59529071e-02, 3.01496349e-02,
          2.92981099e-02, 3.46713960e-02, 4.02911156e-02, 1.23222722e-02,
          1.89901087e-02, 4.12842669e-02, 2.52234507e-02, 1.65096559e-02,
          1.22352652e-02, 1.15654739e-02, 1.19641945e-02, 1.11188702e-02,
          1.51138771e-02, 2.37208083e-02, 2.70287916e-02, 3.03512271e-02,
          3.01449653e-02, 1.68477967e-02, 1.40879434e-02, 1.27458535e-02,
          1.19494796e-02, 6.56381920e-02, 1.21100806e-01, 1.43838882e-01,
          9.16678905e-02, 6.01457506e-02, 4.51074503e-02, 4.04055007e-02,
          4.06814888e-02, 4.28832285e-02, 7.74030387e-02, 9.22403559e-02,
          1.30399182e-01, 1.09873191e-01, 7.75163695e-02, 6.22528344e-02,
          6.15519173e-02, 6.42388090e-02, 6.73267394e-02, 3.08239404e-02,
          2.53114831e-02, 2.38245800e-02, 2.41957251e-02, 2.53758952e-02,
          2.78468337e-02, 3.10767330e-02, 3.54427435e-02, 3.47201116e-02,
          2.81075034e-02, 3.78302820e-02, 5.34162372e-02, 5.55896834e-02,
          6.66324794e-02, 7.39896223e-02, 5.41272573e-02, 3.28941047e-02,
          2.73643192e-02, 1.11396685e-01, 1.48441315e-01, 1.85687408e-01,
          1.81873113e-01, 2.00509980e-01, 2.00013280e-01, 1.72222137e-01,
          1.35478124e-01, 1.01678111e-01, 1.22327626e-01, 1.35526672e-01,
          1.60512760e-01, 1.49086669e-01, 1.60774693e-01, 1.69728592e-01,
          1.74497575e-01, 1.53987601e-01, 1.29535884e-01, 4.84411567e-02,
          4.99616526e-02, 4.75389659e-02, 4.71660346e-02, 5.01005314e-02,
          4.96423766e-02, 5.04874848e-02, 5.13443537e-02, 4.95904610e-02,
          1.90896597e-02, 1.82715692e-02, 2.03440078e-02, 2.20516250e-02,
          3.09627652e-02, 4.98135313e-02, 8.78393576e-02, 3.42810489e-02,
          2.35836394e-02, 9.46554542e-02, 8.90493616e-02, 8.71070400e-02,
          1.02883235e-01, 1.50763884e-01, 1.83737785e-01, 1.68382794e-01,
          1.54936954e-01, 1.16580114e-01, 1.17667347e-01, 1.03874281e-01,
          9.74729583e-02, 9.95972157e-02, 1.20324172e-01, 1.35228828e-01,
          1.57294661e-01, 1.61230773e-01, 1.39416754e-01, 5.00576496e-02,
          4.73151281e-02, 4.23261523e-02, 3.83703001e-02, 3.89383361e-02,
          3.71560417e-02, 4.10183407e-02, 4.55397852e-02, 4.71867993e-02,
          2.08197767e-03, 9.39186895e-04, 8.48158787e-04, 7.99543399e-04,
          2.25020293e-03, 2.33925111e-03, 5.80039807e-03, 6.58272533e-03,
          3.61696538e-03, 1.91993657e-02, 1.47924908e-02, 1.48898121e-02,
          1.81929320e-02, 1.98914018e-02, 1.69061627e-02, 3.14645357e-02,
          7.57373720e-02, 4.48861271e-02, 4.83137332e-02, 2.61953734e-02,
          2.38394402e-02, 2.37067770e-02, 2.67197620e-02, 2.63320170e-02,
          3.20547335e-02, 6.42125681e-02, 9.44769084e-02, 3.63593251e-02,
          1.48827666e-02, 1.07421465e-02, 1.00939246e-02, 1.08290631e-02,
          1.00733899e-02, 1.09692290e-02, 1.27008073e-02, 2.84274854e-02,
          3.13468277e-02, 5.77514097e-02, 7.22538456e-02, 4.60896753e-02,
          2.91018374e-02, 2.12111976e-02, 1.84978470e-02, 1.90057103e-02,
          2.03823280e-02, 8.77515748e-02, 9.08176973e-02, 1.22162312e-01,
          1.08858794e-01, 8.18572044e-02, 6.94922507e-02, 7.13122636e-02,
          7.57161602e-02, 8.04656595e-02, 7.52216503e-02, 6.19988926e-02,
          5.81787266e-02, 6.03184626e-02, 6.54578432e-02, 7.41376579e-02,
          8.67299661e-02, 1.01446219e-01, 9.15956050e-02, 2.62493808e-02,
          2.04372257e-02, 1.71806999e-02, 1.67927705e-02, 1.95985846e-02,
          2.91854814e-02, 4.55250219e-02, 5.46533689e-02, 3.76037098e-02,
          5.26319146e-02, 6.94376677e-02, 8.75912830e-02, 8.13946724e-02,
          9.87685919e-02, 9.58462209e-02, 8.32492113e-02, 6.50992393e-02,
          4.84850407e-02, 1.32720217e-01, 1.41492113e-01, 1.58585370e-01,
          1.53283432e-01, 1.64185941e-01, 1.69327304e-01, 1.77278936e-01,
          1.62672207e-01, 1.41858160e-01, 1.33006319e-01, 1.37729153e-01,
          1.27722412e-01, 1.22830443e-01, 1.29925936e-01, 1.28949523e-01,
          1.32713512e-01, 1.36685267e-01, 1.33654565e-01, 6.20806627e-02,
          6.79917485e-02, 6.28237948e-02, 5.04211001e-02, 4.73017469e-02,
          4.65946198e-02, 5.34525961e-02, 5.90174533e-02, 5.87926134e-02,
          4.51160595e-02, 4.22827117e-02, 4.10592221e-02, 4.83456478e-02,
          6.96307495e-02, 8.50870982e-02, 7.21702948e-02, 7.17997327e-02,
          5.62410429e-02, 1.29849806e-01, 1.13930263e-01, 1.05979301e-01,
          1.05463892e-01, 1.22874245e-01, 1.34788930e-01, 1.62602589e-01,
          1.69323012e-01, 1.49497628e-01, 1.39537483e-01, 1.39026091e-01,
          1.20199986e-01, 1.02672838e-01, 1.00342162e-01, 9.25858170e-02,
          1.00405708e-01, 1.12685591e-01, 1.22216381e-01, 6.54374361e-02,
          8.43318254e-02, 6.49889633e-02, 4.30111885e-02, 3.66517790e-02,
          3.16090100e-02, 3.23780887e-02, 3.90296504e-02, 4.70547900e-02,
          1.03835212e-02, 7.91804120e-03, 7.94666912e-03, 9.65255685e-03,
          1.02163237e-02, 8.66879616e-03, 1.40758492e-02, 3.73389982e-02,
          2.52158288e-02, 6.04711398e-02, 2.96935774e-02, 2.66422462e-02,
          2.57031191e-02, 2.92126779e-02, 2.92003285e-02, 3.52880806e-02,
          6.17909171e-02, 1.05063364e-01, 9.88945588e-02, 4.83566299e-02,
          2.96269804e-02, 2.63967831e-02, 2.74226535e-02, 2.48190500e-02,
          2.64998395e-02, 3.09603717e-02, 6.47047609e-02, 2.77842078e-02,
          3.73656489e-02, 1.54191907e-02, 7.96538219e-03, 7.51087582e-03,
          6.28399709e-03, 6.68746931e-03, 8.11439753e-03, 1.20465728e-02,
          3.96878645e-02, 3.55396643e-02, 4.41667736e-02, 4.21449281e-02,
          3.42307873e-02, 3.09037864e-02, 3.25887613e-02, 3.52600850e-02,
          3.81501652e-02, 7.51870349e-02, 6.12680316e-02, 5.68507947e-02,
          5.98260090e-02, 6.70264065e-02, 7.82960355e-02, 9.66378897e-02,
          1.15652330e-01, 9.79203433e-02, 6.52045980e-02, 5.27422465e-02,
          4.50918116e-02, 4.38275672e-02, 5.07551283e-02, 8.01667124e-02,
          1.21896617e-01, 1.34512499e-01, 9.12938192e-02, 2.22678259e-02,
          2.09027082e-02, 1.96236111e-02, 2.07333267e-02, 3.13752629e-02,
          3.61043066e-02, 3.69351916e-02, 2.81906202e-02, 2.44475622e-02,
          5.76578453e-02, 5.89845255e-02, 6.15384504e-02, 6.24966435e-02,
          6.67858124e-02, 6.71708882e-02, 7.08506182e-02, 6.80197924e-02,
          6.16441406e-02, 1.46194682e-01, 1.52083725e-01, 1.37892768e-01,
          1.28205106e-01, 1.34948000e-01, 1.34144709e-01, 1.40179485e-01,
          1.46318004e-01, 1.44843489e-01, 1.55335709e-01, 1.72791213e-01,
          1.64500698e-01, 1.35688990e-01, 1.28244534e-01, 1.33873954e-01,
          1.52518436e-01, 1.55589178e-01, 1.47780195e-01, 5.10297008e-02,
          5.54306507e-02, 6.84276074e-02, 8.09725821e-02, 7.88586289e-02,
          7.66296536e-02, 7.73407817e-02, 6.12565093e-02, 5.00839017e-02,
          5.71142621e-02, 5.01144156e-02, 4.62244451e-02, 4.49625328e-02,
          5.03630303e-02, 5.35383672e-02, 6.58436194e-02, 6.96161166e-02,
          6.32774904e-02, 1.55415848e-01, 1.61390975e-01, 1.35452345e-01,
          1.09824702e-01, 1.03617452e-01, 9.29209590e-02, 9.97561514e-02,
          1.13544933e-01, 1.28462628e-01, 1.58178002e-01, 2.00685784e-01,
          1.86182171e-01, 1.17115736e-01, 9.94105488e-02, 8.37291703e-02,
          8.26190263e-02, 9.79607478e-02, 1.14025295e-01, 3.11785899e-02,
          5.78242652e-02, 1.20687082e-01, 6.14198819e-02, 3.94965634e-02,
          2.84985043e-02, 2.65469961e-02, 2.83527859e-02, 2.70342119e-02,
          3.06346808e-02, 1.34361684e-02, 1.18959751e-02, 1.12568876e-02,
          1.28717236e-02, 1.29396543e-02, 1.53780645e-02, 2.28165276e-02,
          4.57830466e-02, 1.05487242e-01, 6.04926609e-02, 3.26765999e-02,
          2.75499169e-02, 2.78893560e-02, 2.45676879e-02, 2.59620622e-02,
          3.07988357e-02, 5.99742904e-02, 5.76559454e-02, 9.25451294e-02,
          4.23883088e-02, 1.79292858e-02, 1.64075494e-02, 1.38913151e-02,
          1.46569358e-02, 1.74663700e-02, 2.50181761e-02, 2.50209426e-03,
          1.24527728e-02, 1.22684781e-02, 1.95842166e-03, 1.39957678e-03,
          1.14049367e-03, 1.05153141e-03, 1.16047694e-03, 1.32050866e-03,
          1.57718938e-02, 2.02510096e-02, 2.80967765e-02, 2.94193756e-02,
          3.52025367e-02, 4.63595539e-02, 3.74146029e-02, 1.95796564e-02,
          1.60616487e-02, 6.12680055e-02, 7.51951337e-02, 8.74777958e-02,
          9.45660025e-02, 1.29744813e-01, 1.29828021e-01, 1.06830321e-01,
          8.14834163e-02, 6.01631552e-02, 7.13548809e-02, 7.33052343e-02,
          7.69114196e-02, 7.44943023e-02, 8.97873864e-02, 1.00731626e-01,
          1.08201385e-01, 9.53283384e-02, 7.81890973e-02, 2.90425830e-02,
          2.97602452e-02, 2.76901685e-02, 2.64011156e-02, 2.76744347e-02,
          2.70217881e-02, 2.80477889e-02, 2.93441601e-02, 2.90391743e-02,
          2.44370773e-02, 2.13232748e-02, 2.24508978e-02, 2.40613278e-02,
          3.72521579e-02, 5.70610128e-02, 1.14697427e-01, 4.89254817e-02,
          3.20258401e-02, 1.33435950e-01, 1.22290872e-01, 1.18375145e-01,
          1.40149057e-01, 1.93206117e-01, 2.09593803e-01, 2.09593803e-01,
          2.09593803e-01, 1.77680507e-01, 1.69639289e-01, 1.46970764e-01,
          1.37345091e-01, 1.40047908e-01, 1.65484995e-01, 1.80839926e-01,
          2.09593803e-01, 2.09593803e-01, 2.08327502e-01, 7.17776120e-02,
          6.66222125e-02, 5.89800328e-02, 5.36825843e-02, 5.48055433e-02,
          5.21586165e-02, 5.80123365e-02, 6.45078495e-02, 6.71645775e-02,
          4.18665679e-03, 1.79760414e-03, 1.61065347e-03, 1.49135361e-03,
          4.07058373e-03, 4.30119364e-03, 1.13079017e-02, 1.40896160e-02,
          7.44564226e-03, 4.58803400e-02, 3.38228457e-02, 3.42609771e-02,
          4.11414765e-02, 4.38826643e-02, 3.71345989e-02, 7.45228603e-02,
          2.01711029e-01, 1.21688910e-01, 1.46186501e-01, 6.72093257e-02,
          6.13194406e-02, 6.05604462e-02, 6.81596920e-02, 6.69774935e-02,
          8.17449242e-02, 1.86235860e-01, 2.09593803e-01, 1.24939784e-01,
          4.23489846e-02, 2.84404196e-02, 2.67562736e-02, 2.90249493e-02,
          2.68306118e-02, 2.89730523e-02, 3.40264961e-02, 9.51640084e-02,
          0., 0., 0., 0., 0., 0., 0., 0., 0., 0., 0., 0., 0., 0., 0., 0.,
          0., 0., 3.88804765e-04, 5.82814948e-07, 2.47338704e-07, 0.,
          1.55106261e-06, 0., 0., 5.99744737e-07, 4.88968624e-04,
          4.95916698e-04, 1.46559694e-06, 2.03917944e-06, 0.,
          1.03446173e-05, 9.07743924e-07, 2.81567259e-06, 1.24567748e-06,
          4.71343694e-04, 2.67481841e-02, 3.21660899e-02, 3.68683562e-02,
          3.83491851e-02, 5.44373989e-02, 5.71087375e-02, 4.80219238e-02,
          3.64004299e-02, 2.65900567e-02, 7.20313042e-02, 7.23210424e-02,
          7.32230917e-02, 7.21034184e-02, 8.42523724e-02, 9.15823802e-02,
          1.00195780e-01, 9.24930423e-02, 7.89259598e-02, 7.43919611e-02,
          7.75447935e-02, 7.03516304e-02, 6.43238351e-02, 6.62159249e-02,
          6.38053939e-02, 6.66141883e-02, 7.04380125e-02, 7.16799498e-02,
          3.47868428e-02, 3.96891236e-02, 3.62611115e-02, 2.79004816e-02,
          2.49707662e-02, 2.21442971e-02, 2.31920425e-02, 2.66419221e-02,
          2.99335383e-02, 5.93490303e-02, 5.44404536e-02, 5.26471771e-02,
          6.24207519e-02, 8.34787115e-02, 9.78250578e-02, 8.98008272e-02,
          1.06814645e-01, 8.00474361e-02, 1.72904924e-01, 1.49221212e-01,
          1.37991071e-01, 1.36447087e-01, 1.56773627e-01, 1.68633193e-01,
          2.03925014e-01, 2.11267397e-01, 2.03966156e-01, 1.85366765e-01,
          1.81856811e-01, 1.54466450e-01, 1.32507771e-01, 1.30441010e-01,
          1.20265655e-01, 1.30871341e-01, 1.47304103e-01, 1.60322115e-01,
          8.83834884e-02, 1.19706511e-01, 8.53446722e-02, 5.40983975e-02,
          4.65142727e-02, 4.02230993e-02, 4.16239984e-02, 5.00947572e-02,
          6.05653413e-02, 2.39149556e-02, 1.72028355e-02, 1.72953811e-02,
          2.05634441e-02, 2.14538239e-02, 1.82046052e-02, 3.16937491e-02,
          9.48373154e-02, 6.58090487e-02, 1.75137952e-01, 7.09925741e-02,
          6.40365630e-02, 6.16816022e-02, 7.03502968e-02, 6.99371099e-02,
          8.39791745e-02, 1.64168090e-01, 2.11267397e-01, 2.11267397e-01,
          1.30138353e-01, 7.16808438e-02, 6.41104281e-02, 6.73341602e-02,
          6.05411604e-02, 6.42926395e-02, 7.59663805e-02, 1.95424154e-01,
          7.61398971e-02, 9.69790816e-02, 3.48505527e-02, 1.73853561e-02,
          1.67692173e-02, 1.39336521e-02, 1.49258962e-02, 1.82601735e-02,
          2.97656525e-02, 0., 0., 0., 0., 0., 0., 0., 0., 0.,
          6.58800243e-04, 9.95709797e-07, 3.24060466e-07, 0.,
          1.92857101e-06, 0., 0., 9.09484982e-07, 7.78135436e-04,
          9.27756366e-04, 3.99231794e-06, 7.38948256e-06, 0.,
          3.74886549e-05, 3.33551930e-06, 1.04783076e-05, 3.69418035e-06,
          8.27859505e-04, 9.88233751e-06, 1.08029644e-06, 3.23265112e-06,
          0., 1.63576042e-05, 1.38212135e-06, 4.61991658e-06,
          1.31809111e-06, 9.88233751e-06, 3.25925164e-02, 3.19659896e-02,
          3.09670586e-02, 3.12084518e-02, 3.53829786e-02, 3.70468386e-02,
          4.06985730e-02, 3.96567471e-02, 3.53565328e-02, 8.54000002e-02,
          9.03006941e-02, 8.01082551e-02, 7.02957213e-02, 7.11712688e-02,
          6.78499192e-02, 7.14295879e-02, 7.64551386e-02, 7.99125880e-02,
          8.93337056e-02, 1.03610069e-01, 9.83697101e-02, 7.84973353e-02,
          7.10249990e-02, 6.55355826e-02, 6.72336817e-02, 7.20686167e-02,
          7.70790651e-02, 2.78535783e-02, 3.12021133e-02, 4.51731198e-02,
          4.94226404e-02, 4.20163497e-02, 3.85826603e-02, 3.75107974e-02,
          3.15774232e-02, 2.64568701e-02, 7.86655471e-02, 6.80477172e-02,
          6.22426458e-02, 5.99991269e-02, 6.68592453e-02, 7.03139752e-02,
          8.68908539e-02, 9.44889560e-02, 8.81978124e-02, 2.14354202e-01,
          2.15664655e-01, 1.80180401e-01, 1.46628127e-01, 1.39488280e-01,
          1.25131875e-01, 1.34423256e-01, 1.53664649e-01, 1.74191847e-01,
          2.15664655e-01, 2.15664655e-01, 2.15664655e-01, 1.49635851e-01,
          1.27355263e-01, 1.07685126e-01, 1.07786626e-01, 1.27775073e-01,
          1.49746895e-01, 3.59600596e-02, 8.10916349e-02, 1.57395095e-01,
          6.68841526e-02, 4.29449007e-02, 3.04484274e-02, 2.78776605e-02,
          3.05188708e-02, 2.98710484e-02, 9.51284692e-02, 3.35785486e-02,
          2.99546588e-02, 2.84261275e-02, 3.27498503e-02, 3.26796025e-02,
          3.83027233e-02, 6.19261228e-02, 1.47816256e-01, 2.15664655e-01,
          1.70885280e-01, 8.10331404e-02, 6.86379150e-02, 7.03168362e-02,
          6.14881404e-02, 6.47972897e-02, 7.76002854e-02, 1.82466492e-01,
          1.58107430e-01, 2.15664655e-01, 9.57213193e-02, 3.91554832e-02,
          3.66524570e-02, 3.09321806e-02, 3.29170749e-02, 3.96213643e-02,
          6.18290193e-02, 5.15380315e-03, 2.57134177e-02, 2.32054070e-02,
          3.51229846e-03, 2.49816896e-03, 2.06240034e-03, 1.93203660e-03,
          2.14393483e-03, 2.48243543e-03, 4.57357499e-04, 6.99401596e-07,
          1.70524331e-07, 0., 9.64876790e-07, 0., 0., 5.63204139e-07,
          5.06240351e-04, 7.18146737e-04, 4.87483976e-06, 1.09534676e-05,
          0., 5.55573679e-05, 4.92254867e-06, 1.56639671e-05,
          4.92018080e-06, 6.05611014e-04, 1.48030113e-05, 1.61889102e-06,
          4.84432712e-06, 0., 2.45110332e-05, 2.03973013e-06,
          6.91196328e-06, 1.97661598e-06, 1.48030113e-05, 0., 0., 0., 0.,
          0., 0., 0., 0., 0. ]
      - [ 6.41219303e-05, 1.87466158e-05, 3.85277526e-05, 1.70531057e-05,
          1.30213943e-04, 2.78786410e-05, 3.30992734e-05, 2.87754083e-05,
          6.56630873e-05, 2.31844911e-04, 7.22836558e-05, 1.04822684e-04,
          2.55596369e-05, 2.92922079e-04, 2.86548202e-05, 1.27045118e-04,
          1.01320613e-04, 2.31518439e-04, 1.08427950e-03, 5.73484795e-05,
          6.67821732e-05, 1.57412778e-05, 1.75254216e-04, 2.34556010e-05,
          6.36425393e-05, 3.59269688e-05, 8.24151677e-04, 8.18999368e-04,
          3.05669346e-05, 4.32258603e-05, 1.41587116e-05, 1.13102054e-04,
          9.84663347e-06, 4.18255149e-05, 2.89028176e-05, 8.98390659e-04,
          3.17603094e-03, 1.62278544e-02, 1.63221024e-02, 1.50966540e-03,
          1.86331535e-03, 1.56177126e-03, 2.08370900e-03, 2.87679955e-03,
          2.89169303e-03, 1.13703087e-01, 1.87026471e-01, 6.96438402e-02,
          3.10961120e-02, 3.55899073e-02, 3.90976071e-02, 4.97195236e-02,
          5.54247238e-02, 5.22599556e-02, 2.09603027e-01, 1.45715654e-01,
          7.48263821e-02, 8.28400999e-02, 8.00647363e-02, 7.60954097e-02,
          6.86142296e-02, 7.00742975e-02, 1.27373740e-01, 7.73013085e-02,
          3.68122533e-02, 4.00635004e-02, 4.06309329e-02, 3.30488160e-02,
          2.71001309e-02, 2.67084930e-02, 3.74258645e-02, 1.02282934e-01,
          2.87373215e-02, 5.28791957e-02, 1.13248959e-01, 4.04743217e-02,
          2.43362226e-02, 2.10103877e-02, 2.16818694e-02, 2.63783000e-02,
          3.00285630e-02, 1.93568349e-01, 2.09603027e-01, 1.92521334e-01,
          1.12131342e-01, 1.12192720e-01, 1.20706320e-01, 1.47108614e-01,
          1.68665722e-01, 1.66703403e-01, 2.09603027e-01, 2.09603027e-01,
          1.91304982e-01, 1.79237738e-01, 1.56980559e-01, 1.43260062e-01,
          1.68396518e-01, 1.94853485e-01, 2.09603027e-01, 1.54433653e-01,
          9.72460806e-02, 6.99002892e-02, 6.24339432e-02, 5.09171635e-02,
          4.24652547e-02, 5.14676645e-02, 7.35677928e-02, 1.22164570e-01,
          2.39036232e-02, 2.97809523e-02, 4.54779044e-02, 4.15456928e-02,
          2.62630861e-02, 1.70541983e-02, 1.53605388e-02, 1.69532988e-02,
          2.05621775e-02, 9.36166719e-02, 1.33452848e-01, 1.39990106e-01,
          1.07532658e-01, 6.23534024e-02, 4.27711867e-02, 3.89154255e-02,
          4.22296487e-02, 5.91313839e-02, 1.12995446e-01, 1.05119735e-01,
          9.76203084e-02, 9.01661217e-02, 8.15398097e-02, 6.14031404e-02,
          5.89176603e-02, 6.27557412e-02, 8.49092454e-02, 4.68110368e-02,
          3.38572636e-02, 2.91573778e-02, 2.62570754e-02, 2.37959288e-02,
          2.12220158e-02, 2.41134185e-02, 3.05151362e-02, 4.21784036e-02,
          9.20942839e-05, 2.76947976e-05, 4.10770517e-05, 7.58618580e-06,
          1.12834838e-04, 9.24335563e-06, 5.03603114e-05, 3.63731233e-05,
          9.23652042e-05, 1.42368407e-03, 5.64407892e-05, 5.80498308e-05,
          1.71666361e-05, 1.56351554e-04, 2.15037708e-05, 5.29932840e-05,
          3.26953195e-05, 1.15271728e-03, 1.32612628e-03, 6.31397415e-05,
          9.90496846e-05, 3.21591324e-05, 2.47525284e-04, 2.06108361e-05,
          9.78983880e-05, 6.65338230e-05, 1.58168096e-03, 2.77195231e-05,
          1.46609054e-05, 1.99914084e-05, 7.63898788e-06, 4.68214239e-05,
          8.63700916e-06, 2.11075294e-05, 1.44903534e-05, 3.02009539e-05,
          5.67441881e-02, 7.83518627e-02, 2.53290590e-02, 1.50757255e-02,
          1.70187820e-02, 1.83897186e-02, 2.19563879e-02, 2.38665137e-02,
          2.42987704e-02, 2.15639815e-01, 1.17106564e-01, 7.59777129e-02,
          8.55472386e-02, 7.78459162e-02, 7.16691464e-02, 6.44203424e-02,
          6.63640201e-02, 1.36606127e-01, 1.49759829e-01, 8.16678032e-02,
          8.46616328e-02, 8.27951878e-02, 7.12271035e-02, 5.90282902e-02,
          5.87622523e-02, 9.92782190e-02, 2.15639815e-01, 2.36185491e-02,
          2.23065335e-02, 2.19218377e-02, 1.98505241e-02, 1.92577448e-02,
          1.67157091e-02, 2.44094674e-02, 6.66954294e-02, 5.41722961e-02,
          8.05586353e-02, 9.83596668e-02, 6.53391778e-02, 4.50208262e-02,
          4.48777340e-02, 4.87180799e-02, 6.06146790e-02, 6.99666217e-02,
          6.84581771e-02, 2.15639815e-01, 2.08421826e-01, 1.79170877e-01,
          1.75694704e-01, 1.49364948e-01, 1.29842907e-01, 1.50126293e-01,
          1.75382152e-01, 2.15639815e-01, 2.15639815e-01, 2.15639815e-01,
          1.53446749e-01, 1.28436357e-01, 1.09099448e-01, 9.54435021e-02,
          1.19594418e-01, 1.83456734e-01, 2.15639815e-01, 8.76773000e-02,
          7.99495578e-02, 6.69769049e-02, 5.41856624e-02, 4.97063138e-02,
          4.47562970e-02, 6.28206357e-02, 1.03194878e-01, 8.86681974e-02,
          3.75513360e-02, 5.31761684e-02, 5.32244369e-02, 4.09959108e-02,
          2.40485054e-02, 1.62698571e-02, 1.50046945e-02, 1.61775313e-02,
          2.29882151e-02, 1.08014114e-01, 8.97964835e-02, 8.25038701e-02,
          7.97425285e-02, 7.56307393e-02, 5.78042865e-02, 5.62264472e-02,
          6.07962571e-02, 8.37753266e-02, 9.67511013e-02, 7.19670653e-02,
          6.29644990e-02, 5.67500517e-02, 5.16797379e-02, 4.83599566e-02,
          5.85718118e-02, 8.18777755e-02, 9.62273180e-02, 2.50166617e-02,
          2.14482769e-02, 1.97307244e-02, 1.85792502e-02, 2.02031080e-02,
          2.61615366e-02, 4.74978834e-02, 5.87725230e-02, 3.80977765e-02,
          8.71409546e-04, 2.85380920e-05, 2.83800910e-05, 9.64304854e-06,
          7.83525684e-05, 1.03847233e-05, 2.52873688e-05, 1.70406711e-05,
          7.64452096e-04, 9.96690011e-04, 6.67855202e-05, 1.10350782e-04,
          3.70080706e-05, 2.61673558e-04, 2.33730061e-05, 1.09777160e-04,
          7.37539085e-05, 1.27975165e-03, 6.12337171e-05, 3.02947992e-05,
          3.69041227e-05, 1.21806333e-05, 1.02132377e-04, 1.86906527e-05,
          4.27713931e-05, 2.99992116e-05, 6.51267401e-05, 9.99673193e-06,
          5.85812586e-06, 4.09450558e-06, 0., 1.29640366e-05,
          2.19400044e-06, 4.21051254e-06, 2.69084853e-06, 9.37814002e-06,
          1.08215861e-01, 4.49097864e-02, 3.81144248e-02, 4.31595743e-02,
          3.69397923e-02, 3.27805467e-02, 2.96436641e-02, 3.10539789e-02,
          7.31911361e-02, 1.44392714e-01, 8.88938233e-02, 8.84187147e-02,
          8.40557069e-02, 7.60635585e-02, 6.38347715e-02, 6.44924864e-02,
          1.26632899e-01, 2.19157696e-01, 4.93569858e-02, 4.92172837e-02,
          4.96145040e-02, 4.42746654e-02, 4.21591662e-02, 3.61868106e-02,
          6.54691160e-02, 1.64645910e-01, 1.11331739e-01, 2.00142385e-03,
          2.12237914e-03, 2.65839300e-03, 2.28007836e-03, 2.34654103e-03,
          1.91797921e-03, 1.40382787e-02, 1.56256650e-02, 3.29497503e-03,
          1.36100769e-01, 9.38378498e-02, 8.18194970e-02, 8.25854242e-02,
          6.81318790e-02, 5.67141958e-02, 6.49267957e-02, 7.72879198e-02,
          1.08469985e-01, 2.19157696e-01, 2.19157696e-01, 1.69529870e-01,
          1.35699600e-01, 1.19008064e-01, 1.06800012e-01, 1.37274548e-01,
          2.19157696e-01, 2.19157696e-01, 1.94457173e-01, 1.87968358e-01,
          1.67862594e-01, 1.39476478e-01, 1.30349129e-01, 1.19196460e-01,
          1.84552729e-01, 2.19157696e-01, 2.04543605e-01, 2.30562165e-02,
          2.23487709e-02, 2.36813854e-02, 2.28951890e-02, 2.71528568e-02,
          3.73715647e-02, 8.78896564e-02, 5.03605343e-02, 2.55294833e-02,
          5.05505912e-02, 3.76031734e-02, 3.43612917e-02, 3.44131105e-02,
          3.36762890e-02, 2.62071397e-02, 2.59672254e-02, 2.84959488e-02,
          4.00548726e-02, 9.94555354e-02, 7.57847652e-02, 6.70729056e-02,
          6.06364757e-02, 5.60199246e-02, 5.44901080e-02, 6.99015632e-02,
          1.05022207e-01, 1.08849868e-01, 6.36218041e-02, 5.48347831e-02,
          5.16811311e-02, 4.95699756e-02, 5.50911203e-02, 7.51379803e-02,
          1.36876076e-01, 1.51978835e-01, 9.65422839e-02, 1.89090725e-02,
          1.80428643e-02, 1.83928851e-02, 1.90947168e-02, 2.60965284e-02,
          3.67540158e-02, 3.99799012e-02, 2.97493916e-02, 2.25154515e-02,
          1.70188525e-03, 8.48333258e-03, 9.24897380e-03, 8.90986179e-04,
          1.03058922e-03, 9.09780210e-04, 1.15916494e-03, 1.57539977e-03,
          1.59597874e-03, 4.43697087e-02, 7.62500465e-02, 3.27643678e-02,
          1.47360340e-02, 1.70220975e-02, 1.90771688e-02, 2.46282667e-02,
          2.73970161e-02, 2.41775066e-02, 8.35418105e-02, 5.37068881e-02,
          3.20155062e-02, 3.55746858e-02, 3.39626372e-02, 3.25804017e-02,
          2.93732509e-02, 2.99624838e-02, 4.55100164e-02, 2.65178178e-02,
          1.55687919e-02, 1.67886652e-02, 1.68733783e-02, 1.35141341e-02,
          1.10499281e-02, 1.09649943e-02, 1.45049123e-02, 3.33247595e-02,
          2.64955219e-02, 4.02611457e-02, 9.20625776e-02, 4.16528359e-02,
          2.42116489e-02, 2.02864390e-02, 2.03952231e-02, 2.40829773e-02,
          2.76070759e-02, 1.61048070e-01, 1.98520780e-01, 1.57077387e-01,
          9.63197649e-02, 8.96984115e-02, 9.23593640e-02, 1.08248301e-01,
          1.24936916e-01, 1.33502722e-01, 2.07201988e-01, 1.94398955e-01,
          1.62661508e-01, 1.44205034e-01, 1.24423981e-01, 1.10006221e-01,
          1.32728204e-01, 1.55068800e-01, 1.95735112e-01, 1.31247342e-01,
          7.77406245e-02, 5.30443341e-02, 4.64735068e-02, 3.89883667e-02,
          3.29896733e-02, 4.15258333e-02, 6.13370351e-02, 1.04466408e-01,
          4.80153002e-02, 6.62888885e-02, 9.07082856e-02, 7.99008459e-02,
          5.47333136e-02, 3.29292864e-02, 2.85999309e-02, 3.13207954e-02,
          3.78687195e-02, 1.54456645e-01, 2.07201988e-01, 2.07201988e-01,
          2.07201988e-01, 1.26656160e-01, 8.71529728e-02, 7.66790956e-02,
          7.61186182e-02, 9.92585048e-02, 1.73085123e-01, 1.70722842e-01,
          1.65274844e-01, 1.62616447e-01, 1.51901022e-01, 1.16705894e-01,
          1.07199468e-01, 1.08604729e-01, 1.37268558e-01, 7.00976774e-02,
          5.85538074e-02, 5.39151654e-02, 4.92284596e-02, 4.47206162e-02,
          4.05863710e-02, 4.39526439e-02, 5.11588641e-02, 6.39858693e-02,
          1.86095200e-02, 2.97887679e-02, 3.73447575e-02, 3.54721956e-02,
          3.41539346e-02, 2.46260818e-02, 1.50424913e-02, 1.33358166e-02,
          1.37213217e-02, 3.59323286e-02, 5.22932447e-02, 8.60242322e-02,
          8.81636292e-02, 6.84329718e-02, 5.91638125e-02, 5.33532426e-02,
          4.15729843e-02, 3.32771987e-02, 4.50302847e-02, 4.81080450e-02,
          4.67859730e-02, 4.66001183e-02, 4.77747247e-02, 4.66314219e-02,
          4.78496738e-02, 4.40746509e-02, 4.31087539e-02, 1.88434478e-02,
          1.93374678e-02, 1.86336171e-02, 1.80554707e-02, 1.71400327e-02,
          1.66222882e-02, 1.70098338e-02, 1.74385402e-02, 1.74829923e-02,
          2.28666887e-02, 3.29547636e-02, 1.22194672e-02, 7.43064471e-03,
          8.48033279e-03, 9.37304739e-03, 1.14666549e-02, 1.24629131e-02,
          1.16051631e-02, 8.29489678e-02, 4.69820984e-02, 3.46548483e-02,
          3.91397923e-02, 3.50124352e-02, 3.24041210e-02, 2.89208442e-02,
          2.97576580e-02, 5.05910330e-02, 5.74206822e-02, 3.78868580e-02,
          3.85468379e-02, 3.71107534e-02, 3.17155607e-02, 2.62614805e-02,
          2.62789223e-02, 4.04577628e-02, 8.24503377e-02, 1.14245908e-02,
          1.17068905e-02, 1.14673246e-02, 1.00939116e-02, 9.69604030e-03,
          8.28206819e-03, 1.17248259e-02, 2.80387681e-02, 2.19593048e-02,
          7.15607852e-02, 8.45887884e-02, 6.04745187e-02, 4.08957787e-02,
          3.76150198e-02, 3.90110835e-02, 4.70855422e-02, 5.49947619e-02,
          5.82080036e-02, 2.09468558e-01, 1.88261628e-01, 1.58872679e-01,
          1.49260730e-01, 1.27335608e-01, 1.07857540e-01, 1.28570601e-01,
          1.51510477e-01, 2.06370741e-01, 2.09468558e-01, 1.88796327e-01,
          1.24125272e-01, 1.02377601e-01, 8.80762935e-02, 7.89678097e-02,
          1.04751982e-01, 1.68593600e-01, 2.09468558e-01, 7.48291165e-02,
          6.53787553e-02, 5.36638461e-02, 4.36246097e-02, 4.03422490e-02,
          3.89932804e-02, 5.94824292e-02, 9.56266299e-02, 7.93562606e-02,
          6.50244132e-02, 9.57064182e-02, 1.09785631e-01, 9.04765576e-02,
          5.24247624e-02, 3.60821337e-02, 3.22699733e-02, 3.15285362e-02,
          4.13303562e-02, 1.76190987e-01, 1.58228084e-01, 1.50732130e-01,
          1.52333066e-01, 1.49168774e-01, 1.16746232e-01, 1.08831324e-01,
          1.12831764e-01, 1.44395381e-01, 1.56289265e-01, 1.34950504e-01,
          1.26802534e-01, 1.16589561e-01, 1.06582537e-01, 9.97966826e-02,
          1.12447254e-01, 1.40526816e-01, 1.54297382e-01, 4.58045118e-02,
          4.16311659e-02, 4.03056778e-02, 3.88449579e-02, 4.27225083e-02,
          5.35509698e-02, 8.91471207e-02, 9.91780534e-02, 6.53970167e-02,
          1.46826580e-02, 1.91401038e-02, 3.03676371e-02, 3.17077562e-02,
          2.61657350e-02, 2.40085926e-02, 2.26646718e-02, 1.76573638e-02,
          1.41305178e-02, 4.58210930e-02, 4.80092093e-02, 4.53877077e-02,
          4.47710045e-02, 4.59555313e-02, 4.45748791e-02, 4.56244648e-02,
          4.35594805e-02, 4.39347811e-02, 4.48091365e-02, 4.69559431e-02,
          4.64788303e-02, 4.46076505e-02, 4.17767465e-02, 4.00140658e-02,
          4.01514322e-02, 4.11503874e-02, 4.09432128e-02, 1.69461463e-02,
          2.07241047e-02, 2.27908380e-02, 1.88909750e-02, 1.75703056e-02,
          1.71640571e-02, 1.69816874e-02, 1.63919050e-02, 1.60310082e-02,
          3.56174707e-02, 1.76373590e-02, 1.64669715e-02, 1.86915156e-02,
          1.56650711e-02, 1.39274383e-02, 1.24491751e-02, 1.30396746e-02,
          2.51170862e-02, 5.51528148e-02, 4.02180552e-02, 3.91233079e-02,
          3.64448354e-02, 3.29335704e-02, 2.76031606e-02, 2.79634614e-02,
          4.86852862e-02, 8.77885744e-02, 2.34973654e-02, 2.51831748e-02,
          2.54128296e-02, 2.20726412e-02, 2.07877103e-02, 1.75384078e-02,
          3.10939159e-02, 6.84629753e-02, 4.45969477e-02, 1.16170780e-03,
          1.22844253e-03, 1.52956659e-03, 1.32613862e-03, 1.37181219e-03,
          1.14977395e-03, 8.03634245e-03, 8.20186269e-03, 1.77930109e-03,
          1.21878304e-01, 8.03195462e-02, 6.74397498e-02, 6.60373718e-02,
          5.55781312e-02, 4.53962497e-02, 5.37321717e-02, 6.43972754e-02,
          9.48245600e-02, 2.12503791e-01, 2.00720578e-01, 1.30424231e-01,
          1.03229433e-01, 9.05628577e-02, 8.39273036e-02, 1.16067752e-01,
          1.99436605e-01, 2.12503791e-01, 1.60340279e-01, 1.48512989e-01,
          1.30005315e-01, 1.09138526e-01, 1.03821196e-01, 1.02652162e-01,
          1.64156690e-01, 2.12503791e-01, 1.75753161e-01, 2.27051340e-02,
          2.17131823e-02, 2.24281140e-02, 2.17951927e-02, 2.63494551e-02,
          3.83940600e-02, 7.39677399e-02, 4.09119427e-02, 2.48581711e-02,
          7.83125833e-02, 6.42544851e-02, 6.06642552e-02, 6.22791983e-02,
          6.28232062e-02, 5.02692983e-02, 4.78679612e-02, 5.06970622e-02,
          6.56240284e-02, 1.54931486e-01, 1.37069479e-01, 1.30375385e-01,
          1.20762065e-01, 1.12216756e-01, 1.07994936e-01, 1.26530305e-01,
          1.67301849e-01, 1.65428266e-01, 1.13669388e-01, 1.02494046e-01,
          1.01104997e-01, 9.95413065e-02, 1.12511985e-01, 1.48038432e-01,
          2.12503791e-01, 2.12503791e-01, 1.63401648e-01, 3.68209034e-02,
          3.57192717e-02, 3.70066054e-02, 4.02671732e-02, 5.76147623e-02,
          7.23922178e-02, 7.64644071e-02, 5.83037548e-02, 4.36830968e-02,
          2.04115156e-02, 2.10284274e-02, 1.93674732e-02, 1.89570524e-02,
          1.93329081e-02, 1.86706427e-02, 1.90160889e-02, 1.88016146e-02,
          1.95495225e-02, 4.68473732e-02, 4.99514043e-02, 5.06492183e-02,
          4.80430797e-02, 4.45488170e-02, 4.22935449e-02, 4.19146083e-02,
          4.30954434e-02, 4.26089093e-02, 4.26287465e-02, 5.35979234e-02,
          5.99767938e-02, 5.05248718e-02, 5.05879112e-02, 5.04459850e-02,
          4.78797406e-02, 4.26231474e-02, 4.03019562e-02, 1.48061421e-02,
          1.71886664e-02, 2.07515582e-02, 2.57590972e-02, 3.25414501e-02,
          2.78006382e-02, 2.34514233e-02, 1.67866144e-02, 1.42046791e-02,
          1.36025185e-02, 1.76501982e-02, 4.09943871e-02, 2.33564731e-02,
          1.34374853e-02, 1.08952578e-02, 1.06447302e-02, 1.21724065e-02,
          1.40101342e-02, 7.66503438e-02, 9.04191360e-02, 7.44345039e-02,
          4.77760248e-02, 4.05694358e-02, 3.93054597e-02, 4.38523144e-02,
          5.10542616e-02, 5.97121641e-02, 1.17098905e-01, 9.31106284e-02,
          7.83833936e-02, 6.61663041e-02, 5.64628690e-02, 4.83661331e-02,
          5.79873659e-02, 6.77351505e-02, 8.99138004e-02, 5.96925803e-02,
          3.43337208e-02, 2.29682121e-02, 1.98358987e-02, 1.71973333e-02,
          1.47855990e-02, 1.89954396e-02, 2.84734406e-02, 4.84263524e-02,
          5.28955050e-02, 7.88727328e-02, 1.02619849e-01, 8.61483961e-02,
          6.28430322e-02, 3.55826505e-02, 3.00328750e-02, 3.27361338e-02,
          3.91595550e-02, 1.42652929e-01, 2.08143145e-01, 2.08143145e-01,
          2.08143145e-01, 1.42329589e-01, 9.98072550e-02, 8.65789130e-02,
          7.96022490e-02, 9.53538939e-02, 1.52893260e-01, 1.57476440e-01,
          1.58733398e-01, 1.65246859e-01, 1.58619270e-01, 1.24496162e-01,
          1.12071402e-01, 1.08518720e-01, 1.28097847e-01, 6.23390712e-02,
          5.80207929e-02, 5.55775575e-02, 5.15135266e-02, 4.70741540e-02,
          4.34882157e-02, 4.56703901e-02, 4.95869108e-02, 5.70508838e-02,
          4.38834652e-02, 6.47152811e-02, 8.12370405e-02, 8.70698169e-02,
          8.84230733e-02, 7.64129609e-02, 4.67990451e-02, 3.46910171e-02,
          3.50560844e-02, 9.39761475e-02, 1.21452443e-01, 1.81139052e-01,
          2.03409672e-01, 1.78658009e-01, 1.65634230e-01, 1.49055213e-01,
          1.19506873e-01, 9.43890736e-02, 1.21311016e-01, 1.24311566e-01,
          1.16385929e-01, 1.11896388e-01, 1.14539839e-01, 1.14470251e-01,
          1.26895174e-01, 1.23444147e-01, 1.20464385e-01, 4.86562476e-02,
          4.91211824e-02, 4.68155518e-02, 4.52583842e-02, 4.33872044e-02,
          4.17610928e-02, 4.28928919e-02, 4.50491235e-02, 4.54060771e-02,
